<?xml version="1.0"?>
<opencv_storage>
<cascade>
  <stageType>BOOST</stageType>
  <featureType>HAAR</featureType>
  <height>24</height>
  <width>24</width>
  <stageParams>
    <boostType>GAB</boostType>
    <minHitRate>9.9900001287460327e-01</minHitRate>
    <maxFalseAlarm>3.0000001192092896e-01</maxFalseAlarm>
    <weightTrimRate>9.4999999999999996e-01</weightTrimRate>
    <maxDepth>1</maxDepth>
    <maxWeakCount>100</maxWeakCount></stageParams>
  <featureParams>
    <maxCatCount>0</maxCatCount>
    <featSize>1</featSize>
    <mode>BASIC</mode></featureParams>
  <stageNum>12</stageNum>
  <stages>
    <!-- stage 0 -->
    <_>
      <maxWeakCount>9</maxWeakCount>
      <stageThreshold>-1.0400420427322388e+00</stageThreshold>
      <weakClassifiers>
        <_>
          <internalNodes>
            0 -1 29 -1.1211334168910980e-01</internalNodes>
          <leafValues>
            -8.3113455772399902e-01 4.7959184646606445e-01</leafValues></_>
        <_>
          <internalNodes>
            0 -1 90 -1.0315624624490738e-01</internalNodes>
          <leafValues>
            -7.5706464052200317e-01 3.1099379062652588e-01</leafValues></_>
        <_>
          <internalNodes>
            0 -1 223 -2.9401609674096107e-02</internalNodes>
          <leafValues>
            -7.2720938920974731e-01 2.7079707384109497e-01</leafValues></_>
        <_>
          <internalNodes>
            0 -1 139 2.6976447552442551e-02</internalNodes>
          <leafValues>
            -2.3102118074893951e-01 8.7103712558746338e-01</leafValues></_>
        <_>
          <internalNodes>
            0 -1 30 -1.7134326696395874e-01</internalNodes>
          <leafValues>
            -2.9394263029098511e-01 4.7629106044769287e-01</leafValues></_>
        <_>
          <internalNodes>
            0 -1 117 -7.3285557329654694e-02</internalNodes>
          <leafValues>
            9.6497201919555664e-01 -1.8272754549980164e-01</leafValues></_>
        <_>
          <internalNodes>
            0 -1 102 3.2090589404106140e-02</internalNodes>
          <leafValues>
            -1.4154557883739471e-01 8.9476418495178223e-01</leafValues></_>
        <_>
          <internalNodes>
            0 -1 198 1.6470251604914665e-02</internalNodes>
          <leafValues>
            -1.1140064150094986e-01 7.9796868562698364e-01</leafValues></_>
        <_>
          <internalNodes>
            0 -1 189 1.9867911934852600e-02</internalNodes>
          <leafValues>
            -1.7678056657314301e-01 6.6656130552291870e-01</leafValues></_></weakClassifiers></_>
    <!-- stage 1 -->
    <_>
      <maxWeakCount>14</maxWeakCount>
      <stageThreshold>-8.6500942707061768e-01</stageThreshold>
      <weakClassifiers>
        <_>
          <internalNodes>
            0 -1 42 -1.2660446763038635e-01</internalNodes>
          <leafValues>
            -7.9285717010498047e-01 2.7510917186737061e-01</leafValues></_>
        <_>
          <internalNodes>
            0 -1 218 -1.3605246320366859e-02</internalNodes>
          <leafValues>
            -7.5430428981781006e-01 1.4507769048213959e-01</leafValues></_>
        <_>
          <internalNodes>
            0 -1 68 -1.1980121582746506e-01</internalNodes>
          <leafValues>
            -6.3358771800994873e-01 2.0382204651832581e-01</leafValues></_>
        <_>
          <internalNodes>
            0 -1 141 -5.8322347700595856e-02</internalNodes>
          <leafValues>
            1.4139327406883240e-01 -7.2761464118957520e-01</leafValues></_>
        <_>
          <internalNodes>
            0 -1 232 -3.9933778345584869e-02</internalNodes>
          <leafValues>
            -6.4276653528213501e-01 2.1498166024684906e-01</leafValues></_>
        <_>
          <internalNodes>
            0 -1 55 -2.3398882150650024e-01</internalNodes>
          <leafValues>
            -6.1794984340667725e-01 2.0637726783752441e-01</leafValues></_>
        <_>
          <internalNodes>
            0 -1 221 -7.2296047583222389e-03</internalNodes>
          <leafValues>
            1.5117013454437256e-01 -8.1203323602676392e-01</leafValues></_>
        <_>
          <internalNodes>
            0 -1 120 -4.8543117940425873e-02</internalNodes>
          <leafValues>
            9.1628807783126831e-01 -1.7238552868366241e-01</leafValues></_>
        <_>
          <internalNodes>
            0 -1 96 8.5666470229625702e-02</internalNodes>
          <leafValues>
            -1.5712817013263702e-01 7.5640964508056641e-01</leafValues></_>
        <_>
          <internalNodes>
            0 -1 106 -1.4339358545839787e-02</internalNodes>
          <leafValues>
            3.2059481739997864e-01 -3.9366096258163452e-01</leafValues></_>
        <_>
          <internalNodes>
            0 -1 57 -3.5370372235774994e-02</internalNodes>
          <leafValues>
            -5.3662395477294922e-01 2.2842133045196533e-01</leafValues></_>
        <_>
          <internalNodes>
            0 -1 149 -2.6368439197540283e-01</internalNodes>
          <leafValues>
            -8.5346740484237671e-01 1.3081791996955872e-01</leafValues></_>
        <_>
          <internalNodes>
            0 -1 171 -2.0404833555221558e-01</internalNodes>
          <leafValues>
            -7.7930021286010742e-01 1.2257517874240875e-01</leafValues></_>
        <_>
          <internalNodes>
            0 -1 44 -6.9088637828826904e-03</internalNodes>
          <leafValues>
            -8.2227683067321777e-01 1.2892182171344757e-01</leafValues></_></weakClassifiers></_>
    <!-- stage 2 -->
    <_>
      <maxWeakCount>20</maxWeakCount>
      <stageThreshold>-1.0798301696777344e+00</stageThreshold>
      <weakClassifiers>
        <_>
          <internalNodes>
            0 -1 188 3.1610719859600067e-02</internalNodes>
          <leafValues>
            -2.2631579637527466e-01 6.7149758338928223e-01</leafValues></_>
        <_>
          <internalNodes>
            0 -1 156 -3.1280089169740677e-02</internalNodes>
          <leafValues>
            7.2937172651290894e-01 -1.4601263403892517e-01</leafValues></_>
        <_>
          <internalNodes>
            0 -1 196 -2.0211432129144669e-02</internalNodes>
          <leafValues>
            6.3081103563308716e-01 -1.5931519865989685e-01</leafValues></_>
        <_>
          <internalNodes>
            0 -1 40 -9.4338674098253250e-03</internalNodes>
          <leafValues>
            3.6226996779441833e-01 -2.6566487550735474e-01</leafValues></_>
        <_>
          <internalNodes>
            0 -1 98 2.5765471160411835e-02</internalNodes>
          <leafValues>
            -1.2742704153060913e-01 7.3876756429672241e-01</leafValues></_>
        <_>
          <internalNodes>
            0 -1 96 8.7313398718833923e-02</internalNodes>
          <leafValues>
            -1.0560038685798645e-01 7.8169500827789307e-01</leafValues></_>
        <_>
          <internalNodes>
            0 -1 104 -4.2883239686489105e-02</internalNodes>
          <leafValues>
            7.4578845500946045e-01 -1.4380368590354919e-01</leafValues></_>
        <_>
          <internalNodes>
            0 -1 46 3.0241398140788078e-02</internalNodes>
          <leafValues>
            -1.6555599868297577e-01 6.7436057329177856e-01</leafValues></_>
        <_>
          <internalNodes>
            0 -1 222 -6.0806819237768650e-03</internalNodes>
          <leafValues>
            -5.4570782184600830e-01 2.1193499863147736e-01</leafValues></_>
        <_>
          <internalNodes>
            0 -1 129 -9.4974562525749207e-02</internalNodes>
          <leafValues>
            1.0618190467357635e-01 -9.1941583156585693e-01</leafValues></_>
        <_>
          <internalNodes>
            0 -1 110 -6.5500037744641304e-03</internalNodes>
          <leafValues>
            -6.1750352382659912e-01 1.5699814260005951e-01</leafValues></_>
        <_>
          <internalNodes>
            0 -1 146 -6.4488582313060760e-02</internalNodes>
          <leafValues>
            -4.3529924750328064e-01 1.9425030052661896e-01</leafValues></_>
        <_>
          <internalNodes>
            0 -1 88 -1.6292933374643326e-02</internalNodes>
          <leafValues>
            -1.0865090042352676e-01 1.</leafValues></_>
        <_>
          <internalNodes>
            0 -1 28 6.7703840322792530e-03</internalNodes>
          <leafValues>
            1.5551641583442688e-01 -8.1605440378189087e-01</leafValues></_>
        <_>
          <internalNodes>
            0 -1 127 2.8211239725351334e-02</internalNodes>
          <leafValues>
            -1.5885832905769348e-01 6.4076292514801025e-01</leafValues></_>
        <_>
          <internalNodes>
            0 -1 123 3.9507925510406494e-02</internalNodes>
          <leafValues>
            -1.2482215464115143e-01 7.8505104780197144e-01</leafValues></_>
        <_>
          <internalNodes>
            0 -1 12 -2.6281140744686127e-02</internalNodes>
          <leafValues>
            5.2934354543685913e-01 -1.5632353723049164e-01</leafValues></_>
        <_>
          <internalNodes>
            0 -1 126 -3.0285295099020004e-02</internalNodes>
          <leafValues>
            8.6865222454071045e-01 -1.0451918095350266e-01</leafValues></_>
        <_>
          <internalNodes>
            0 -1 16 -2.3182392120361328e-02</internalNodes>
          <leafValues>
            -1.0473247617483139e-01 7.7855712175369263e-01</leafValues></_>
        <_>
          <internalNodes>
            0 -1 112 1.7751082777976990e-01</internalNodes>
          <leafValues>
            1.3677276670932770e-01 -9.0111726522445679e-01</leafValues></_></weakClassifiers></_>
    <!-- stage 3 -->
    <_>
      <maxWeakCount>25</maxWeakCount>
      <stageThreshold>-1.1307901144027710e+00</stageThreshold>
      <weakClassifiers>
        <_>
          <internalNodes>
            0 -1 227 -5.3461171686649323e-02</internalNodes>
          <leafValues>
            -6.0000002384185791e-01 1.4754098653793335e-01</leafValues></_>
        <_>
          <internalNodes>
            0 -1 87 6.9148331880569458e-02</internalNodes>
          <leafValues>
            -1.6603112220764160e-01 6.5051162242889404e-01</leafValues></_>
        <_>
          <internalNodes>
            0 -1 133 -1.1477064341306686e-02</internalNodes>
          <leafValues>
            -5.6022757291793823e-01 1.7683726549148560e-01</leafValues></_>
        <_>
          <internalNodes>
            0 -1 25 -4.5837827026844025e-02</internalNodes>
          <leafValues>
            -9.5718568563461304e-01 9.8137825727462769e-02</leafValues></_>
        <_>
          <internalNodes>
            0 -1 3 3.7363201379776001e-01</internalNodes>
          <leafValues>
            8.1984028220176697e-02 -9.7183781862258911e-01</leafValues></_>
        <_>
          <internalNodes>
            0 -1 229 -4.7919422388076782e-02</internalNodes>
          <leafValues>
            1.3562957942485809e-01 -6.7439115047454834e-01</leafValues></_>
        <_>
          <internalNodes>
            0 -1 142 3.7907871883362532e-03</internalNodes>
          <leafValues>
            -2.7066522836685181e-01 3.1651818752288818e-01</leafValues></_>
        <_>
          <internalNodes>
            0 -1 77 -7.4001504108309746e-03</internalNodes>
          <leafValues>
            -1.1318095773458481e-01 9.4049125909805298e-01</leafValues></_>
        <_>
          <internalNodes>
            0 -1 58 2.1967703104019165e-01</internalNodes>
          <leafValues>
            1.1331342160701752e-01 -8.2276284694671631e-01</leafValues></_>
        <_>
          <internalNodes>
            0 -1 116 -4.8323284834623337e-02</internalNodes>
          <leafValues>
            6.1182427406311035e-01 -1.4724455773830414e-01</leafValues></_>
        <_>
          <internalNodes>
            0 -1 213 2.6029668748378754e-02</internalNodes>
          <leafValues>
            -1.1185859143733978e-01 6.1676079034805298e-01</leafValues></_>
        <_>
          <internalNodes>
            0 -1 225 -3.7706255912780762e-02</internalNodes>
          <leafValues>
            -7.6134836673736572e-01 1.0712978988885880e-01</leafValues></_>
        <_>
          <internalNodes>
            0 -1 56 -6.3376739621162415e-02</internalNodes>
          <leafValues>
            -5.2124077081680298e-01 1.3139714300632477e-01</leafValues></_>
        <_>
          <internalNodes>
            0 -1 32 -1.9678587093949318e-02</internalNodes>
          <leafValues>
            1.4723512530326843e-01 -5.6945264339447021e-01</leafValues></_>
        <_>
          <internalNodes>
            0 -1 135 6.7464917898178101e-02</internalNodes>
          <leafValues>
            -1.5941622853279114e-01 6.4471024274826050e-01</leafValues></_>
        <_>
          <internalNodes>
            0 -1 145 -1.8215093296021223e-03</internalNodes>
          <leafValues>
            1.4227636158466339e-01 -7.6810979843139648e-01</leafValues></_>
        <_>
          <internalNodes>
            0 -1 140 -2.0955115556716919e-02</internalNodes>
          <leafValues>
            -1.4898949861526489e-01 6.4917922019958496e-01</leafValues></_>
        <_>
          <internalNodes>
            0 -1 71 2.2768307477235794e-02</internalNodes>
          <leafValues>
            -1.4074955880641937e-01 5.6781095266342163e-01</leafValues></_>
        <_>
          <internalNodes>
            0 -1 217 -1.2717388570308685e-01</internalNodes>
          <leafValues>
            -7.5674718618392944e-01 1.2996815145015717e-01</leafValues></_>
        <_>
          <internalNodes>
            0 -1 93 -1.2803288176655769e-02</internalNodes>
          <leafValues>
            -6.7238670587539673e-01 1.2233772128820419e-01</leafValues></_>
        <_>
          <internalNodes>
            0 -1 97 -9.8087284713983536e-03</internalNodes>
          <leafValues>
            4.0580549836158752e-01 -2.3185788094997406e-01</leafValues></_>
        <_>
          <internalNodes>
            0 -1 67 -3.9641827344894409e-02</internalNodes>
          <leafValues>
            -6.2637406587600708e-01 1.4209155738353729e-01</leafValues></_>
        <_>
          <internalNodes>
            0 -1 175 6.5896441228687763e-03</internalNodes>
          <leafValues>
            -2.7354133129119873e-01 3.3139467239379883e-01</leafValues></_>
        <_>
          <internalNodes>
            0 -1 150 -4.9369619227945805e-03</internalNodes>
          <leafValues>
            1.3109411299228668e-01 -7.7959072589874268e-01</leafValues></_>
        <_>
          <internalNodes>
            0 -1 161 -5.4512463510036469e-02</internalNodes>
          <leafValues>
            6.9867324829101563e-01 -1.3530163466930389e-01</leafValues></_></weakClassifiers></_>
    <!-- stage 4 -->
    <_>
      <maxWeakCount>16</maxWeakCount>
      <stageThreshold>-8.5470449924468994e-01</stageThreshold>
      <weakClassifiers>
        <_>
          <internalNodes>
            0 -1 157 2.6123911142349243e-02</internalNodes>
          <leafValues>
            -2.0147420465946198e-01 8.5620915889739990e-01</leafValues></_>
        <_>
          <internalNodes>
            0 -1 5 -1.8679592013359070e-01</internalNodes>
          <leafValues>
            -8.8998323678970337e-01 1.8180589377880096e-01</leafValues></_>
        <_>
          <internalNodes>
            0 -1 105 4.0918506681919098e-02</internalNodes>
          <leafValues>
            -1.7929132282733917e-01 8.0622059106826782e-01</leafValues></_>
        <_>
          <internalNodes>
            0 -1 11 1.0823899880051613e-02</internalNodes>
          <leafValues>
            -1.5809994935989380e-01 7.6279908418655396e-01</leafValues></_>
        <_>
          <internalNodes>
            0 -1 187 -6.0159370303153992e-02</internalNodes>
          <leafValues>
            -6.8135982751846313e-01 1.5557762980461121e-01</leafValues></_>
        <_>
          <internalNodes>
            0 -1 168 -2.4751024320721626e-03</internalNodes>
          <leafValues>
            4.4996702671051025e-01 -2.2210316359996796e-01</leafValues></_>
        <_>
          <internalNodes>
            0 -1 137 -3.1367544084787369e-02</internalNodes>
          <leafValues>
            5.7611972093582153e-01 -1.9715772569179535e-01</leafValues></_>
        <_>
          <internalNodes>
            0 -1 153 -8.4226727485656738e-02</internalNodes>
          <leafValues>
            7.6686912775039673e-01 -1.4566731452941895e-01</leafValues></_>
        <_>
          <internalNodes>
            0 -1 182 -3.3539153635501862e-02</internalNodes>
          <leafValues>
            5.9061610698699951e-01 -1.6546832025051117e-01</leafValues></_>
        <_>
          <internalNodes>
            0 -1 36 -9.8646238446235657e-02</internalNodes>
          <leafValues>
            -7.0822679996490479e-01 1.8487296998500824e-01</leafValues></_>
        <_>
          <internalNodes>
            0 -1 202 -4.5340910553932190e-02</internalNodes>
          <leafValues>
            -6.0328608751296997e-01 1.3083665072917938e-01</leafValues></_>
        <_>
          <internalNodes>
            0 -1 45 5.4171388037502766e-03</internalNodes>
          <leafValues>
            1.0043745487928391e-01 -8.0466526746749878e-01</leafValues></_>
        <_>
          <internalNodes>
            0 -1 214 4.7950712032616138e-03</internalNodes>
          <leafValues>
            -1.3913992047309875e-01 8.9184671640396118e-01</leafValues></_>
        <_>
          <internalNodes>
            0 -1 238 -2.8368006460368633e-03</internalNodes>
          <leafValues>
            -5.4171031713485718e-01 2.0739202201366425e-01</leafValues></_>
        <_>
          <internalNodes>
            0 -1 13 -9.1006867587566376e-02</internalNodes>
          <leafValues>
            7.1950185298919678e-01 -1.3214856386184692e-01</leafValues></_>
        <_>
          <internalNodes>
            0 -1 15 -2.8796391561627388e-02</internalNodes>
          <leafValues>
            8.0434125661849976e-01 -1.1020942032337189e-01</leafValues></_></weakClassifiers></_>
    <!-- stage 5 -->
    <_>
      <maxWeakCount>17</maxWeakCount>
      <stageThreshold>-1.2788639068603516e+00</stageThreshold>
      <weakClassifiers>
        <_>
          <internalNodes>
            0 -1 209 2.5812778621912003e-02</internalNodes>
          <leafValues>
            -2.4444444477558136e-01 5.7894736528396606e-01</leafValues></_>
        <_>
          <internalNodes>
            0 -1 108 -2.1514749526977539e-01</internalNodes>
          <leafValues>
            -8.1237316131591797e-01 1.6509893536567688e-01</leafValues></_>
        <_>
          <internalNodes>
            0 -1 64 -2.4525376036763191e-02</internalNodes>
          <leafValues>
            8.6564666032791138e-01 -1.5848214924335480e-01</leafValues></_>
        <_>
          <internalNodes>
            0 -1 103 -4.9506776034832001e-02</internalNodes>
          <leafValues>
            -1.5643945336341858e-01 8.3835428953170776e-01</leafValues></_>
        <_>
          <internalNodes>
            0 -1 76 4.8618279397487640e-02</internalNodes>
          <leafValues>
            -1.8043702840805054e-01 8.7117481231689453e-01</leafValues></_>
        <_>
          <internalNodes>
            0 -1 220 -2.2151558659970760e-03</internalNodes>
          <leafValues>
            2.2948886454105377e-01 -6.8462592363357544e-01</leafValues></_>
        <_>
          <internalNodes>
            0 -1 54 2.2680202964693308e-03</internalNodes>
          <leafValues>
            2.0243352651596069e-01 -5.1893746852874756e-01</leafValues></_>
        <_>
          <internalNodes>
            0 -1 100 1.4762988314032555e-02</internalNodes>
          <leafValues>
            -1.8977418541908264e-01 7.6047998666763306e-01</leafValues></_>
        <_>
          <internalNodes>
            0 -1 224 -1.0278664529323578e-01</internalNodes>
          <leafValues>
            -6.5674543380737305e-01 1.8615470826625824e-01</leafValues></_>
        <_>
          <internalNodes>
            0 -1 80 -2.8806556947529316e-03</internalNodes>
          <leafValues>
            4.2581862211227417e-01 -2.8715416789054871e-01</leafValues></_>
        <_>
          <internalNodes>
            0 -1 74 4.7296094708144665e-03</internalNodes>
          <leafValues>
            2.7172785997390747e-01 -4.5356190204620361e-01</leafValues></_>
        <_>
          <internalNodes>
            0 -1 51 8.5021844133734703e-03</internalNodes>
          <leafValues>
            -1.9600318372249603e-01 6.0901629924774170e-01</leafValues></_>
        <_>
          <internalNodes>
            0 -1 155 1.2021565344184637e-03</internalNodes>
          <leafValues>
            -1.4643129706382751e-01 6.8251109123229980e-01</leafValues></_>
        <_>
          <internalNodes>
            0 -1 226 -3.4744247794151306e-02</internalNodes>
          <leafValues>
            -4.2637339234352112e-01 2.4308754503726959e-01</leafValues></_>
        <_>
          <internalNodes>
            0 -1 237 1.5381193952634931e-03</internalNodes>
          <leafValues>
            2.4578149616718292e-01 -4.6195086836814880e-01</leafValues></_>
        <_>
          <internalNodes>
            0 -1 172 -6.3913976773619652e-03</internalNodes>
          <leafValues>
            -6.0185927152633667e-01 1.8756231665611267e-01</leafValues></_>
        <_>
          <internalNodes>
            0 -1 166 -4.4575311243534088e-02</internalNodes>
          <leafValues>
            7.3175644874572754e-01 -1.8385396897792816e-01</leafValues></_></weakClassifiers></_>
    <!-- stage 6 -->
    <_>
      <maxWeakCount>20</maxWeakCount>
      <stageThreshold>-1.0457426309585571e+00</stageThreshold>
      <weakClassifiers>
        <_>
          <internalNodes>
            0 -1 205 -1.3547165319323540e-02</internalNodes>
          <leafValues>
            -7.0786517858505249e-01 1.1787072569131851e-01</leafValues></_>
        <_>
          <internalNodes>
            0 -1 199 8.3390295505523682e-02</internalNodes>
          <leafValues>
            -1.7223973572254181e-01 6.8000048398971558e-01</leafValues></_>
        <_>
          <internalNodes>
            0 -1 84 1.3699086382985115e-02</internalNodes>
          <leafValues>
            -1.6569900512695313e-01 5.3893452882766724e-01</leafValues></_>
        <_>
          <internalNodes>
            0 -1 136 6.5296597778797150e-02</internalNodes>
          <leafValues>
            -1.2205836176872253e-01 8.3327764272689819e-01</leafValues></_>
        <_>
          <internalNodes>
            0 -1 94 5.9813220053911209e-02</internalNodes>
          <leafValues>
            -1.2037885189056396e-01 7.4928766489028931e-01</leafValues></_>
        <_>
          <internalNodes>
            0 -1 89 -2.3172691464424133e-01</internalNodes>
          <leafValues>
            -8.1291621923446655e-01 1.5154318511486053e-01</leafValues></_>
        <_>
          <internalNodes>
            0 -1 78 -5.7161573320627213e-02</internalNodes>
          <leafValues>
            9.3088471889495850e-01 -1.2279967218637466e-01</leafValues></_>
        <_>
          <internalNodes>
            0 -1 4 -5.7674157619476318e-01</internalNodes>
          <leafValues>
            -2.0737345516681671e-01 4.9712601304054260e-01</leafValues></_>
        <_>
          <internalNodes>
            0 -1 219 -2.9688100330531597e-03</internalNodes>
          <leafValues>
            5.8586156368255615e-01 -1.8949508666992188e-01</leafValues></_>
        <_>
          <internalNodes>
            0 -1 73 4.5757513493299484e-02</internalNodes>
          <leafValues>
            -1.8625283241271973e-01 5.6633710861206055e-01</leafValues></_>
        <_>
          <internalNodes>
            0 -1 92 2.0822566002607346e-02</internalNodes>
          <leafValues>
            -2.0871718227863312e-01 5.5392515659332275e-01</leafValues></_>
        <_>
          <internalNodes>
            0 -1 235 1.9768592901527882e-03</internalNodes>
          <leafValues>
            1.7767187952995300e-01 -8.0477774143218994e-01</leafValues></_>
        <_>
          <internalNodes>
            0 -1 113 -9.1234833002090454e-02</internalNodes>
          <leafValues>
            8.1666982173919678e-01 -1.6640998423099518e-01</leafValues></_>
        <_>
          <internalNodes>
            0 -1 164 -1.6341809183359146e-02</internalNodes>
          <leafValues>
            6.5995019674301147e-01 -1.2110680341720581e-01</leafValues></_>
        <_>
          <internalNodes>
            0 -1 22 3.8291554898023605e-02</internalNodes>
          <leafValues>
            -9.9317990243434906e-02 9.6429550647735596e-01</leafValues></_>
        <_>
          <internalNodes>
            0 -1 128 2.7088906615972519e-02</internalNodes>
          <leafValues>
            1.6301053762435913e-01 -6.9957005977630615e-01</leafValues></_>
        <_>
          <internalNodes>
            0 -1 53 -1.0317191481590271e-01</internalNodes>
          <leafValues>
            -5.1953387260437012e-01 2.0823642611503601e-01</leafValues></_>
        <_>
          <internalNodes>
            0 -1 177 3.6686535924673080e-02</internalNodes>
          <leafValues>
            -1.7778478562831879e-01 7.6547467708587646e-01</leafValues></_>
        <_>
          <internalNodes>
            0 -1 60 1.4652594923973083e-02</internalNodes>
          <leafValues>
            -1.8532344698905945e-01 4.8481836915016174e-01</leafValues></_>
        <_>
          <internalNodes>
            0 -1 61 6.4084157347679138e-02</internalNodes>
          <leafValues>
            -1.5460734069347382e-01 6.0596972703933716e-01</leafValues></_></weakClassifiers></_>
    <!-- stage 7 -->
    <_>
      <maxWeakCount>22</maxWeakCount>
      <stageThreshold>-8.3494782447814941e-01</stageThreshold>
      <weakClassifiers>
        <_>
          <internalNodes>
            0 -1 99 -3.5734246484935284e-03</internalNodes>
          <leafValues>
            8.0327868461608887e-01 -1.5502957999706268e-01</leafValues></_>
        <_>
          <internalNodes>
            0 -1 41 -3.6114715039730072e-03</internalNodes>
          <leafValues>
            -7.6678085327148438e-01 1.4615230262279510e-01</leafValues></_>
        <_>
          <internalNodes>
            0 -1 62 2.0924814045429230e-02</internalNodes>
          <leafValues>
            -2.4308350682258606e-01 5.2234536409378052e-01</leafValues></_>
        <_>
          <internalNodes>
            0 -1 47 3.7914991378784180e-01</internalNodes>
          <leafValues>
            2.2050705552101135e-01 -8.5353529453277588e-01</leafValues></_>
        <_>
          <internalNodes>
            0 -1 144 -9.0431198477745056e-02</internalNodes>
          <leafValues>
            -5.9993290901184082e-01 1.5935918688774109e-01</leafValues></_>
        <_>
          <internalNodes>
            0 -1 179 1.4875982888042927e-02</internalNodes>
          <leafValues>
            -1.6186270117759705e-01 7.0434451103210449e-01</leafValues></_>
        <_>
          <internalNodes>
            0 -1 206 -1.4537192881107330e-02</internalNodes>
          <leafValues>
            8.1961619853973389e-01 -9.7837895154953003e-02</leafValues></_>
        <_>
          <internalNodes>
            0 -1 183 -2.8370952233672142e-02</internalNodes>
          <leafValues>
            7.9965305328369141e-01 -1.3755299150943756e-01</leafValues></_>
        <_>
          <internalNodes>
            0 -1 184 8.7999422103166580e-03</internalNodes>
          <leafValues>
            -1.1234160512685776e-01 8.0699306726455688e-01</leafValues></_>
        <_>
          <internalNodes>
            0 -1 19 3.1120334751904011e-03</internalNodes>
          <leafValues>
            2.4097763001918793e-01 -4.7142809629440308e-01</leafValues></_>
        <_>
          <internalNodes>
            0 -1 240 -1.2207704130560160e-03</internalNodes>
          <leafValues>
            -6.0731148719787598e-01 1.4164899289608002e-01</leafValues></_>
        <_>
          <internalNodes>
            0 -1 152 -3.9257463067770004e-03</internalNodes>
          <leafValues>
            5.8178776502609253e-01 -1.9820620119571686e-01</leafValues></_>
        <_>
          <internalNodes>
            0 -1 194 -3.7187203764915466e-02</internalNodes>
          <leafValues>
            -6.8151056766510010e-01 1.8925431370735168e-01</leafValues></_>
        <_>
          <internalNodes>
            0 -1 2 -6.3710458576679230e-02</internalNodes>
          <leafValues>
            -8.0153995752334595e-01 9.5526814460754395e-02</leafValues></_>
        <_>
          <internalNodes>
            0 -1 35 -5.9566044807434082e-01</internalNodes>
          <leafValues>
            -5.2934819459915161e-01 1.5568339824676514e-01</leafValues></_>
        <_>
          <internalNodes>
            0 -1 1 3.0892943963408470e-02</internalNodes>
          <leafValues>
            1.3918763399124146e-01 -8.9198917150497437e-01</leafValues></_>
        <_>
          <internalNodes>
            0 -1 107 1.6029845923185349e-02</internalNodes>
          <leafValues>
            -1.8856264650821686e-01 6.5693289041519165e-01</leafValues></_>
        <_>
          <internalNodes>
            0 -1 215 -2.0007427781820297e-02</internalNodes>
          <leafValues>
            1.3419735431671143e-01 -9.1501754522323608e-01</leafValues></_>
        <_>
          <internalNodes>
            0 -1 211 2.1432779729366302e-02</internalNodes>
          <leafValues>
            -1.4737410843372345e-01 8.7504422664642334e-01</leafValues></_>
        <_>
          <internalNodes>
            0 -1 230 -2.4889055639505386e-02</internalNodes>
          <leafValues>
            -7.0968735218048096e-01 1.7139762639999390e-01</leafValues></_>
        <_>
          <internalNodes>
            0 -1 197 6.0071185231208801e-02</internalNodes>
          <leafValues>
            -2.0959818363189697e-01 5.5841958522796631e-01</leafValues></_>
        <_>
          <internalNodes>
            0 -1 147 -3.7552688736468554e-03</internalNodes>
          <leafValues>
            6.8882787227630615e-01 -1.0662583261728287e-01</leafValues></_></weakClassifiers></_>
    <!-- stage 8 -->
    <_>
      <maxWeakCount>26</maxWeakCount>
      <stageThreshold>-6.8335449695587158e-01</stageThreshold>
      <weakClassifiers>
        <_>
          <internalNodes>
            0 -1 9 4.7549348324537277e-02</internalNodes>
          <leafValues>
            -1.6049382090568542e-01 6.1783438920974731e-01</leafValues></_>
        <_>
          <internalNodes>
            0 -1 174 9.6453651785850525e-03</internalNodes>
          <leafValues>
            -2.4052633345127106e-01 3.2995083928108215e-01</leafValues></_>
        <_>
          <internalNodes>
            0 -1 122 -3.9484404027462006e-02</internalNodes>
          <leafValues>
            -1.2833988666534424e-01 7.0759040117263794e-01</leafValues></_>
        <_>
          <internalNodes>
            0 -1 170 -3.1595960259437561e-02</internalNodes>
          <leafValues>
            1.0841667652130127e-01 -9.0291708707809448e-01</leafValues></_>
        <_>
          <internalNodes>
            0 -1 101 2.5346718728542328e-02</internalNodes>
          <leafValues>
            -1.3337160646915436e-01 5.8808529376983643e-01</leafValues></_>
        <_>
          <internalNodes>
            0 -1 49 -2.3814622312784195e-02</internalNodes>
          <leafValues>
            -8.4855861961841583e-02 8.9416563510894775e-01</leafValues></_>
        <_>
          <internalNodes>
            0 -1 154 1.8088981509208679e-02</internalNodes>
          <leafValues>
            -8.0748498439788818e-02 7.1827274560928345e-01</leafValues></_>
        <_>
          <internalNodes>
            0 -1 216 -1.5043519437313080e-02</internalNodes>
          <leafValues>
            -8.3615821599960327e-01 1.1383513361215591e-01</leafValues></_>
        <_>
          <internalNodes>
            0 -1 20 -9.6869036555290222e-02</internalNodes>
          <leafValues>
            -5.4553806781768799e-01 1.1744108051061630e-01</leafValues></_>
        <_>
          <internalNodes>
            0 -1 50 -3.9011932909488678e-02</internalNodes>
          <leafValues>
            6.7783273756504059e-02 -9.5384252071380615e-01</leafValues></_>
        <_>
          <internalNodes>
            0 -1 241 -2.3245732299983501e-03</internalNodes>
          <leafValues>
            -6.1554771661758423e-01 1.0444229841232300e-01</leafValues></_>
        <_>
          <internalNodes>
            0 -1 111 -2.1940227597951889e-03</internalNodes>
          <leafValues>
            9.4061456620693207e-02 -6.6211366653442383e-01</leafValues></_>
        <_>
          <internalNodes>
            0 -1 70 1.0423249006271362e-01</internalNodes>
          <leafValues>
            -1.9507451355457306e-01 4.2724645137786865e-01</leafValues></_>
        <_>
          <internalNodes>
            0 -1 95 -5.2988976240158081e-02</internalNodes>
          <leafValues>
            8.0164927244186401e-01 -1.1344017833471298e-01</leafValues></_>
        <_>
          <internalNodes>
            0 -1 91 -1.2717469595372677e-02</internalNodes>
          <leafValues>
            -6.0315740108489990e-01 1.5215328335762024e-01</leafValues></_>
        <_>
          <internalNodes>
            0 -1 203 -1.4951314777135849e-02</internalNodes>
          <leafValues>
            9.2982187867164612e-02 -7.8753769397735596e-01</leafValues></_>
        <_>
          <internalNodes>
            0 -1 85 -1.5539374202489853e-02</internalNodes>
          <leafValues>
            8.4412139654159546e-01 -1.0389082878828049e-01</leafValues></_>
        <_>
          <internalNodes>
            0 -1 72 -9.3192514032125473e-03</internalNodes>
          <leafValues>
            4.4381824135780334e-01 -1.5381751954555511e-01</leafValues></_>
        <_>
          <internalNodes>
            0 -1 201 -3.8009863346815109e-02</internalNodes>
          <leafValues>
            -3.7753632664680481e-01 2.0913527905941010e-01</leafValues></_>
        <_>
          <internalNodes>
            0 -1 21 -4.1608102619647980e-03</internalNodes>
          <leafValues>
            -7.2136908769607544e-01 9.6754930913448334e-02</leafValues></_>
        <_>
          <internalNodes>
            0 -1 192 1.4614522224292159e-03</internalNodes>
          <leafValues>
            1.9338019192218781e-01 -3.6571130156517029e-01</leafValues></_>
        <_>
          <internalNodes>
            0 -1 151 9.4386838376522064e-02</internalNodes>
          <leafValues>
            -1.0718519985675812e-01 8.1251341104507446e-01</leafValues></_>
        <_>
          <internalNodes>
            0 -1 34 -1.0020058602094650e-02</internalNodes>
          <leafValues>
            5.5855697393417358e-01 -1.2044549733400345e-01</leafValues></_>
        <_>
          <internalNodes>
            0 -1 178 -4.7955773770809174e-02</internalNodes>
          <leafValues>
            6.8257701396942139e-01 -1.0216467827558517e-01</leafValues></_>
        <_>
          <internalNodes>
            0 -1 228 -1.2702850624918938e-02</internalNodes>
          <leafValues>
            -6.9115704298019409e-01 1.3483551144599915e-01</leafValues></_>
        <_>
          <internalNodes>
            0 -1 190 -4.2552489787340164e-02</internalNodes>
          <leafValues>
            7.8587853908538818e-01 -1.2318291515111923e-01</leafValues></_></weakClassifiers></_>
    <!-- stage 9 -->
    <_>
      <maxWeakCount>25</maxWeakCount>
      <stageThreshold>-8.2791066169738770e-01</stageThreshold>
      <weakClassifiers>
        <_>
          <internalNodes>
            0 -1 37 -2.5161143857985735e-03</internalNodes>
          <leafValues>
            9.4339624047279358e-02 -6.2790697813034058e-01</leafValues></_>
        <_>
          <internalNodes>
            0 -1 82 -3.0366316437721252e-02</internalNodes>
          <leafValues>
            -1.1076579242944717e-01 8.7800300121307373e-01</leafValues></_>
        <_>
          <internalNodes>
            0 -1 193 -6.9381311535835266e-02</internalNodes>
          <leafValues>
            -8.9718943834304810e-01 8.8995613157749176e-02</leafValues></_>
        <_>
          <internalNodes>
            0 -1 176 1.2289382517337799e-01</internalNodes>
          <leafValues>
            -9.5015078783035278e-02 9.6817147731781006e-01</leafValues></_>
        <_>
          <internalNodes>
            0 -1 24 -9.7643118351697922e-04</internalNodes>
          <leafValues>
            -5.3292989730834961e-01 1.5324029326438904e-01</leafValues></_>
        <_>
          <internalNodes>
            0 -1 148 2.2704925388097763e-02</internalNodes>
          <leafValues>
            1.0483255237340927e-01 -7.9211276769638062e-01</leafValues></_>
        <_>
          <internalNodes>
            0 -1 119 -1.0574189946055412e-02</internalNodes>
          <leafValues>
            4.8584210872650146e-01 -1.5753202140331268e-01</leafValues></_>
        <_>
          <internalNodes>
            0 -1 131 1.2353993020951748e-02</internalNodes>
          <leafValues>
            -1.2578600645065308e-01 5.0030380487442017e-01</leafValues></_>
        <_>
          <internalNodes>
            0 -1 204 -7.0916949771344662e-03</internalNodes>
          <leafValues>
            -8.1088727712631226e-01 9.4978317618370056e-02</leafValues></_>
        <_>
          <internalNodes>
            0 -1 31 -1.1357219889760017e-02</internalNodes>
          <leafValues>
            4.1920921206474304e-01 -1.7894594371318817e-01</leafValues></_>
        <_>
          <internalNodes>
            0 -1 52 -4.6178750693798065e-02</internalNodes>
          <leafValues>
            2.3902696371078491e-01 -3.1528863310813904e-01</leafValues></_>
        <_>
          <internalNodes>
            0 -1 10 -4.6720631420612335e-02</internalNodes>
          <leafValues>
            1.0102777183055878e-01 -7.3235893249511719e-01</leafValues></_>
        <_>
          <internalNodes>
            0 -1 26 5.9488234110176563e-03</internalNodes>
          <leafValues>
            1.0482899099588394e-01 -5.7856082916259766e-01</leafValues></_>
        <_>
          <internalNodes>
            0 -1 138 -3.7186615169048309e-02</internalNodes>
          <leafValues>
            -1.2600730359554291e-01 6.5892982482910156e-01</leafValues></_>
        <_>
          <internalNodes>
            0 -1 63 -5.8955281972885132e-02</internalNodes>
          <leafValues>
            8.9528638124465942e-01 -7.8661665320396423e-02</leafValues></_>
        <_>
          <internalNodes>
            0 -1 231 -1.8852998036891222e-03</internalNodes>
          <leafValues>
            -6.2338650226593018e-01 1.3181468844413757e-01</leafValues></_>
        <_>
          <internalNodes>
            0 -1 162 6.3146226108074188e-02</internalNodes>
          <leafValues>
            -1.1950825154781342e-01 6.8529963493347168e-01</leafValues></_>
        <_>
          <internalNodes>
            0 -1 185 3.6661453545093536e-02</internalNodes>
          <leafValues>
            -9.0600349009037018e-02 6.4897406101226807e-01</leafValues></_>
        <_>
          <internalNodes>
            0 -1 27 2.5236174464225769e-02</internalNodes>
          <leafValues>
            1.0722956806421280e-01 -7.5764012336730957e-01</leafValues></_>
        <_>
          <internalNodes>
            0 -1 191 -2.0497810095548630e-02</internalNodes>
          <leafValues>
            5.5184131860733032e-01 -1.3420630991458893e-01</leafValues></_>
        <_>
          <internalNodes>
            0 -1 212 3.2016947865486145e-02</internalNodes>
          <leafValues>
            -9.2660062015056610e-02 6.5443247556686401e-01</leafValues></_>
        <_>
          <internalNodes>
            0 -1 181 1.5726365149021149e-02</internalNodes>
          <leafValues>
            -1.4154030382633209e-01 4.7126856446266174e-01</leafValues></_>
        <_>
          <internalNodes>
            0 -1 195 -2.6346739381551743e-02</internalNodes>
          <leafValues>
            -1.3583569228649139e-01 5.0143635272979736e-01</leafValues></_>
        <_>
          <internalNodes>
            0 -1 134 -9.2785796150565147e-03</internalNodes>
          <leafValues>
            1.5569625794887543e-01 -5.2808111906051636e-01</leafValues></_>
        <_>
          <internalNodes>
            0 -1 115 -1.1216303706169128e-01</internalNodes>
          <leafValues>
            7.7834832668304443e-01 -1.1214762181043625e-01</leafValues></_></weakClassifiers></_>
    <!-- stage 10 -->
    <_>
      <maxWeakCount>27</maxWeakCount>
      <stageThreshold>-5.8081632852554321e-01</stageThreshold>
      <weakClassifiers>
        <_>
          <internalNodes>
            0 -1 48 -3.2172635197639465e-02</internalNodes>
          <leafValues>
            -8.3333331346511841e-01 6.6356226801872253e-02</leafValues></_>
        <_>
          <internalNodes>
            0 -1 81 4.2286859825253487e-03</internalNodes>
          <leafValues>
            -1.1939737945795059e-01 5.4665911197662354e-01</leafValues></_>
        <_>
          <internalNodes>
            0 -1 17 -1.7603430896997452e-03</internalNodes>
          <leafValues>
            -7.5488305091857910e-01 1.0532804578542709e-01</leafValues></_>
        <_>
          <internalNodes>
            0 -1 233 -4.2656935751438141e-02</internalNodes>
          <leafValues>
            -4.6279489994049072e-01 1.5773661434650421e-01</leafValues></_>
        <_>
          <internalNodes>
            0 -1 210 -3.2691720873117447e-02</internalNodes>
          <leafValues>
            6.9160783290863037e-01 -1.2732361257076263e-01</leafValues></_>
        <_>
          <internalNodes>
            0 -1 200 6.3900323584675789e-03</internalNodes>
          <leafValues>
            -1.2598046660423279e-01 5.6567269563674927e-01</leafValues></_>
        <_>
          <internalNodes>
            0 -1 109 -6.1818552203476429e-03</internalNodes>
          <leafValues>
            -6.4312863349914551e-01 1.4055524766445160e-01</leafValues></_>
        <_>
          <internalNodes>
            0 -1 14 -3.4377077221870422e-01</internalNodes>
          <leafValues>
            5.8125609159469604e-01 -1.6876038908958435e-01</leafValues></_>
        <_>
          <internalNodes>
            0 -1 86 1.1477457359433174e-02</internalNodes>
          <leafValues>
            -1.4181114733219147e-01 5.9749799966812134e-01</leafValues></_>
        <_>
          <internalNodes>
            0 -1 169 -4.1066780686378479e-03</internalNodes>
          <leafValues>
            5.1470011472702026e-01 -1.4001518487930298e-01</leafValues></_>
        <_>
          <internalNodes>
            0 -1 124 2.2094678133726120e-02</internalNodes>
          <leafValues>
            -9.1688886284828186e-02 6.6986507177352905e-01</leafValues></_>
        <_>
          <internalNodes>
            0 -1 8 -2.5749289989471436e-01</internalNodes>
          <leafValues>
            -7.7708429098129272e-01 1.0885260254144669e-01</leafValues></_>
        <_>
          <internalNodes>
            0 -1 163 -4.6698503196239471e-02</internalNodes>
          <leafValues>
            5.0349211692810059e-01 -1.7282180488109589e-01</leafValues></_>
        <_>
          <internalNodes>
            0 -1 167 5.7642273604869843e-03</internalNodes>
          <leafValues>
            -2.7412533760070801e-01 2.9866099357604980e-01</leafValues></_>
        <_>
          <internalNodes>
            0 -1 236 -2.6331176050007343e-03</internalNodes>
          <leafValues>
            -7.6845186948776245e-01 1.3369688391685486e-01</leafValues></_>
        <_>
          <internalNodes>
            0 -1 208 1.7634596675634384e-02</internalNodes>
          <leafValues>
            -1.1748631298542023e-01 8.2916069030761719e-01</leafValues></_>
        <_>
          <internalNodes>
            0 -1 132 2.1354638040065765e-02</internalNodes>
          <leafValues>
            -1.6593469679355621e-01 4.0295413136482239e-01</leafValues></_>
        <_>
          <internalNodes>
            0 -1 23 1.8416313454508781e-02</internalNodes>
          <leafValues>
            -1.2282142043113708e-01 6.8501764535903931e-01</leafValues></_>
        <_>
          <internalNodes>
            0 -1 18 -1.8867833912372589e-01</internalNodes>
          <leafValues>
            5.5251336097717285e-01 -1.3735808432102203e-01</leafValues></_>
        <_>
          <internalNodes>
            0 -1 33 7.2296857833862305e-03</internalNodes>
          <leafValues>
            -1.6770315170288086e-01 4.2713421583175659e-01</leafValues></_>
        <_>
          <internalNodes>
            0 -1 75 1.5279173851013184e-02</internalNodes>
          <leafValues>
            -1.2923043966293335e-01 5.0634032487869263e-01</leafValues></_>
        <_>
          <internalNodes>
            0 -1 79 -8.2367971539497375e-02</internalNodes>
          <leafValues>
            -4.7664281725883484e-01 1.3952016830444336e-01</leafValues></_>
        <_>
          <internalNodes>
            0 -1 6 -1.4054344594478607e-01</internalNodes>
          <leafValues>
            -4.6467936038970947e-01 1.5945199131965637e-01</leafValues></_>
        <_>
          <internalNodes>
            0 -1 125 -3.6135032773017883e-02</internalNodes>
          <leafValues>
            5.7676446437835693e-01 -1.2068749219179153e-01</leafValues></_>
        <_>
          <internalNodes>
            0 -1 0 -1.1062821373343468e-02</internalNodes>
          <leafValues>
            1.4432263374328613e-01 -5.9816485643386841e-01</leafValues></_>
        <_>
          <internalNodes>
            0 -1 173 -1.4403235400095582e-03</internalNodes>
          <leafValues>
            -3.1109967827796936e-01 2.0884585380554199e-01</leafValues></_>
        <_>
          <internalNodes>
            0 -1 165 2.6504166424274445e-02</internalNodes>
          <leafValues>
            -7.8770369291305542e-02 9.3135982751846313e-01</leafValues></_></weakClassifiers></_>
    <!-- stage 11 -->
    <_>
      <maxWeakCount>23</maxWeakCount>
      <stageThreshold>-1.0123935937881470e+00</stageThreshold>
      <weakClassifiers>
        <_>
          <internalNodes>
            0 -1 43 7.5530083850026131e-03</internalNodes>
          <leafValues>
            -1.5018315613269806e-01 6.0810810327529907e-01</leafValues></_>
        <_>
          <internalNodes>
            0 -1 186 -4.3771237134933472e-02</internalNodes>
          <leafValues>
            -3.8713151216506958e-01 1.9834861159324646e-01</leafValues></_>
        <_>
          <internalNodes>
            0 -1 65 -3.3289352431893349e-03</internalNodes>
          <leafValues>
            -1.5300855040550232e-01 7.3746621608734131e-01</leafValues></_>
        <_>
          <internalNodes>
            0 -1 69 2.6901930570602417e-02</internalNodes>
          <leafValues>
            -1.1035599559545517e-01 5.7756608724594116e-01</leafValues></_>
        <_>
          <internalNodes>
            0 -1 114 4.3586239218711853e-02</internalNodes>
          <leafValues>
            -1.3516785204410553e-01 5.0372743606567383e-01</leafValues></_>
        <_>
          <internalNodes>
            0 -1 66 -9.1886464506387711e-03</internalNodes>
          <leafValues>
            4.5221769809722900e-01 -1.7545698583126068e-01</leafValues></_>
        <_>
          <internalNodes>
            0 -1 160 -7.1814041584730148e-03</internalNodes>
          <leafValues>
            -6.7338818311691284e-01 1.4861725270748138e-01</leafValues></_>
        <_>
          <internalNodes>
            0 -1 231 2.4309710133820772e-03</internalNodes>
          <leafValues>
            1.1327888816595078e-01 -6.9547861814498901e-01</leafValues></_>
        <_>
          <internalNodes>
            0 -1 143 2.9525725170969963e-02</internalNodes>
          <leafValues>
            7.6763421297073364e-02 -6.3867491483688354e-01</leafValues></_>
        <_>
          <internalNodes>
            0 -1 159 -9.4805788248777390e-03</internalNodes>
          <leafValues>
            8.2832783460617065e-01 -7.4865430593490601e-02</leafValues></_>
        <_>
          <internalNodes>
            0 -1 234 -3.8479226641356945e-03</internalNodes>
          <leafValues>
            2.2332935035228729e-01 -3.7186670303344727e-01</leafValues></_>
        <_>
          <internalNodes>
            0 -1 38 -1.0170834138989449e-03</internalNodes>
          <leafValues>
            -5.8577883243560791e-01 1.2037662416696548e-01</leafValues></_>
        <_>
          <internalNodes>
            0 -1 59 -1.7157921101897955e-03</internalNodes>
          <leafValues>
            -8.3036834001541138e-01 6.3861317932605743e-02</leafValues></_>
        <_>
          <internalNodes>
            0 -1 239 -4.8181498423218727e-03</internalNodes>
          <leafValues>
            -5.7244557142257690e-01 9.5727436244487762e-02</leafValues></_>
        <_>
          <internalNodes>
            0 -1 7 1.3484030961990356e-02</internalNodes>
          <leafValues>
            1.7814946174621582e-01 -4.3158715963363647e-01</leafValues></_>
        <_>
          <internalNodes>
            0 -1 39 -1.0364535264670849e-03</internalNodes>
          <leafValues>
            3.2855767011642456e-01 -2.4161250889301300e-01</leafValues></_>
        <_>
          <internalNodes>
            0 -1 207 -7.3701003566384315e-03</internalNodes>
          <leafValues>
            -7.8532123565673828e-01 8.8843293488025665e-02</leafValues></_>
        <_>
          <internalNodes>
            0 -1 121 -1.0864259675145149e-03</internalNodes>
          <leafValues>
            -3.7164422869682312e-01 1.9295251369476318e-01</leafValues></_>
        <_>
          <internalNodes>
            0 -1 83 3.6301001906394958e-02</internalNodes>
          <leafValues>
            -1.2403065711259842e-01 6.3476186990737915e-01</leafValues></_>
        <_>
          <internalNodes>
            0 -1 158 -1.8343126401305199e-02</internalNodes>
          <leafValues>
            -4.8630103468894958e-01 1.6795185208320618e-01</leafValues></_>
        <_>
          <internalNodes>
            0 -1 180 -5.6339330971240997e-02</internalNodes>
          <leafValues>
            6.2304610013961792e-01 -1.4463409781455994e-01</leafValues></_>
        <_>
          <internalNodes>
            0 -1 130 -1.8463302403688431e-02</internalNodes>
          <leafValues>
            5.1791846752166748e-01 -1.4068281650543213e-01</leafValues></_>
        <_>
          <internalNodes>
            0 -1 118 -1.0339316911995411e-02</internalNodes>
          <leafValues>
            9.1028749942779541e-01 -7.0802740752696991e-02</leafValues></_></weakClassifiers></_></stages>
  <features>
    <_>
      <rects>
        <_>
          0 0 6 2 -1.</_>
        <_>
          2 0 2 2 2.</_></rects>
      <tilted>0</tilted></_>
    <_>
      <rects>
        <_>
          0 0 16 2 -1.</_>
        <_>
          8 0 8 2 2.</_></rects>
      <tilted>0</tilted></_>
    <_>
      <rects>
        <_>
          0 0 20 4 -1.</_>
        <_>
          10 0 10 4 2.</_></rects>
      <tilted>0</tilted></_>
    <_>
      <rects>
        <_>
          0 0 24 19 -1.</_>
        <_>
          12 0 12 19 2.</_></rects>
      <tilted>0</tilted></_>
    <_>
      <rects>
        <_>
          0 0 21 21 -1.</_>
        <_>
          0 7 21 7 2.</_></rects>
      <tilted>0</tilted></_>
    <_>
      <rects>
        <_>
          0 0 24 16 -1.</_>
        <_>
          0 8 24 8 2.</_></rects>
      <tilted>0</tilted></_>
    <_>
      <rects>
        <_>
          0 0 24 20 -1.</_>
        <_>
          0 10 24 10 2.</_></rects>
      <tilted>0</tilted></_>
    <_>
      <rects>
        <_>
          0 1 6 17 -1.</_>
        <_>
          3 1 3 17 2.</_></rects>
      <tilted>0</tilted></_>
    <_>
      <rects>
        <_>
          0 1 24 21 -1.</_>
        <_>
          12 1 12 21 2.</_></rects>
      <tilted>0</tilted></_>
    <_>
      <rects>
        <_>
          0 3 24 4 -1.</_>
        <_>
          0 5 24 2 2.</_></rects>
      <tilted>0</tilted></_>
    <_>
      <rects>
        <_>
          0 4 3 15 -1.</_>
        <_>
          1 4 1 15 2.</_></rects>
      <tilted>0</tilted></_>
    <_>
      <rects>
        <_>
          0 4 8 4 -1.</_>
        <_>
          0 4 4 2 2.</_>
        <_>
          4 6 4 2 2.</_></rects>
      <tilted>0</tilted></_>
    <_>
      <rects>
        <_>
          0 5 8 8 -1.</_>
        <_>
          4 5 4 8 2.</_></rects>
      <tilted>0</tilted></_>
    <_>
      <rects>
        <_>
          0 5 21 2 -1.</_>
        <_>
          7 5 7 2 2.</_></rects>
      <tilted>0</tilted></_>
    <_>
      <rects>
        <_>
          0 6 15 11 -1.</_>
        <_>
          5 6 5 11 2.</_></rects>
      <tilted>0</tilted></_>
    <_>
      <rects>
        <_>
          0 6 14 4 -1.</_>
        <_>
          0 6 7 2 2.</_>
        <_>
          7 8 7 2 2.</_></rects>
      <tilted>0</tilted></_>
    <_>
      <rects>
        <_>
          0 7 21 2 -1.</_>
        <_>
          7 7 7 2 2.</_></rects>
      <tilted>0</tilted></_>
    <_>
      <rects>
        <_>
          0 8 2 2 -1.</_>
        <_>
          0 8 1 1 2.</_>
        <_>
          1 9 1 1 2.</_></rects>
      <tilted>0</tilted></_>
    <_>
      <rects>
        <_>
          0 10 24 4 -1.</_>
        <_>
          8 10 8 4 2.</_></rects>
      <tilted>0</tilted></_>
    <_>
      <rects>
        <_>
          0 12 2 11 -1.</_>
        <_>
          1 12 1 11 2.</_></rects>
      <tilted>0</tilted></_>
    <_>
      <rects>
        <_>
          0 16 18 3 -1.</_>
        <_>
          0 17 18 1 2.</_></rects>
      <tilted>0</tilted></_>
    <_>
      <rects>
        <_>
          0 17 2 5 -1.</_>
        <_>
          1 17 1 5 2.</_></rects>
      <tilted>0</tilted></_>
    <_>
      <rects>
        <_>
          0 20 14 3 -1.</_>
        <_>
          7 20 7 3 2.</_></rects>
      <tilted>0</tilted></_>
    <_>
      <rects>
        <_>
          0 21 12 2 -1.</_>
        <_>
          6 21 6 2 2.</_></rects>
      <tilted>0</tilted></_>
    <_>
      <rects>
        <_>
          0 22 2 2 -1.</_>
        <_>
          0 22 1 1 2.</_>
        <_>
          1 23 1 1 2.</_></rects>
      <tilted>0</tilted></_>
    <_>
      <rects>
        <_>
          1 0 3 7 -1.</_>
        <_>
          2 0 1 7 2.</_></rects>
      <tilted>0</tilted></_>
    <_>
      <rects>
        <_>
          1 0 2 24 -1.</_>
        <_>
          2 0 1 24 2.</_></rects>
      <tilted>0</tilted></_>
    <_>
      <rects>
        <_>
          1 0 14 2 -1.</_>
        <_>
          8 0 7 2 2.</_></rects>
      <tilted>0</tilted></_>
    <_>
      <rects>
        <_>
          1 1 2 11 -1.</_>
        <_>
          2 1 1 11 2.</_></rects>
      <tilted>0</tilted></_>
    <_>
      <rects>
        <_>
          1 1 20 3 -1.</_>
        <_>
          1 2 20 1 2.</_></rects>
      <tilted>0</tilted></_>
    <_>
      <rects>
        <_>
          1 2 21 6 -1.</_>
        <_>
          8 2 7 6 2.</_></rects>
      <tilted>0</tilted></_>
    <_>
      <rects>
        <_>
          1 2 14 4 -1.</_>
        <_>
          1 4 14 2 2.</_></rects>
      <tilted>0</tilted></_>
    <_>
      <rects>
        <_>
          1 6 3 6 -1.</_>
        <_>
          2 6 1 6 2.</_></rects>
      <tilted>0</tilted></_>
    <_>
      <rects>
        <_>
          1 7 4 10 -1.</_>
        <_>
          1 7 2 5 2.</_>
        <_>
          3 12 2 5 2.</_></rects>
      <tilted>0</tilted></_>
    <_>
      <rects>
        <_>
          1 8 14 2 -1.</_>
        <_>
          1 8 7 1 2.</_>
        <_>
          8 9 7 1 2.</_></rects>
      <tilted>0</tilted></_>
    <_>
      <rects>
        <_>
          1 9 23 15 -1.</_>
        <_>
          1 14 23 5 2.</_></rects>
      <tilted>0</tilted></_>
    <_>
      <rects>
        <_>
          1 12 22 8 -1.</_>
        <_>
          12 12 11 8 2.</_></rects>
      <tilted>0</tilted></_>
    <_>
      <rects>
        <_>
          1 14 1 3 -1.</_>
        <_>
          1 15 1 1 2.</_></rects>
      <tilted>0</tilted></_>
    <_>
      <rects>
        <_>
          1 17 2 1 -1.</_>
        <_>
          2 17 1 1 2.</_></rects>
      <tilted>0</tilted></_>
    <_>
      <rects>
        <_>
          1 17 1 6 -1.</_>
        <_>
          1 20 1 3 2.</_></rects>
      <tilted>0</tilted></_>
    <_>
      <rects>
        <_>
          1 17 9 6 -1.</_>
        <_>
          1 20 9 3 2.</_></rects>
      <tilted>0</tilted></_>
    <_>
      <rects>
        <_>
          1 19 2 3 -1.</_>
        <_>
          2 19 1 3 2.</_></rects>
      <tilted>0</tilted></_>
    <_>
      <rects>
        <_>
          1 19 23 3 -1.</_>
        <_>
          1 20 23 1 2.</_></rects>
      <tilted>0</tilted></_>
    <_>
      <rects>
        <_>
          1 21 11 2 -1.</_>
        <_>
          1 22 11 1 2.</_></rects>
      <tilted>0</tilted></_>
    <_>
      <rects>
        <_>
          2 0 3 1 -1.</_>
        <_>
          3 0 1 1 2.</_></rects>
      <tilted>0</tilted></_>
    <_>
      <rects>
        <_>
          2 0 4 2 -1.</_>
        <_>
          4 0 2 2 2.</_></rects>
      <tilted>0</tilted></_>
    <_>
      <rects>
        <_>
          2 0 14 6 -1.</_>
        <_>
          2 0 7 3 2.</_>
        <_>
          9 3 7 3 2.</_></rects>
      <tilted>0</tilted></_>
    <_>
      <rects>
        <_>
          2 0 22 24 -1.</_>
        <_>
          13 0 11 24 2.</_></rects>
      <tilted>0</tilted></_>
    <_>
      <rects>
        <_>
          2 3 3 5 -1.</_>
        <_>
          3 3 1 5 2.</_></rects>
      <tilted>0</tilted></_>
    <_>
      <rects>
        <_>
          2 6 15 3 -1.</_>
        <_>
          7 6 5 3 2.</_></rects>
      <tilted>0</tilted></_>
    <_>
      <rects>
        <_>
          2 7 3 15 -1.</_>
        <_>
          3 7 1 15 2.</_></rects>
      <tilted>0</tilted></_>
    <_>
      <rects>
        <_>
          2 8 8 4 -1.</_>
        <_>
          2 10 8 2 2.</_></rects>
      <tilted>0</tilted></_>
    <_>
      <rects>
        <_>
          2 8 22 14 -1.</_>
        <_>
          2 15 22 7 2.</_></rects>
      <tilted>0</tilted></_>
    <_>
      <rects>
        <_>
          2 10 18 3 -1.</_>
        <_>
          2 11 18 1 2.</_></rects>
      <tilted>0</tilted></_>
    <_>
      <rects>
        <_>
          2 12 14 10 -1.</_>
        <_>
          2 17 14 5 2.</_></rects>
      <tilted>0</tilted></_>
    <_>
      <rects>
        <_>
          2 15 22 6 -1.</_>
        <_>
          2 17 22 2 2.</_></rects>
      <tilted>0</tilted></_>
    <_>
      <rects>
        <_>
          3 0 3 12 -1.</_>
        <_>
          4 0 1 12 2.</_></rects>
      <tilted>0</tilted></_>
    <_>
      <rects>
        <_>
          3 0 14 21 -1.</_>
        <_>
          10 0 7 21 2.</_></rects>
      <tilted>0</tilted></_>
    <_>
      <rects>
        <_>
          3 0 17 20 -1.</_>
        <_>
          3 10 17 10 2.</_></rects>
      <tilted>0</tilted></_>
    <_>
      <rects>
        <_>
          3 1 2 1 -1.</_>
        <_>
          4 1 1 1 2.</_></rects>
      <tilted>0</tilted></_>
    <_>
      <rects>
        <_>
          3 2 3 16 -1.</_>
        <_>
          3 10 3 8 2.</_></rects>
      <tilted>0</tilted></_>
    <_>
      <rects>
        <_>
          3 3 14 12 -1.</_>
        <_>
          3 3 7 6 2.</_>
        <_>
          10 9 7 6 2.</_></rects>
      <tilted>0</tilted></_>
    <_>
      <rects>
        <_>
          3 4 4 8 -1.</_>
        <_>
          3 8 4 4 2.</_></rects>
      <tilted>0</tilted></_>
    <_>
      <rects>
        <_>
          3 5 6 14 -1.</_>
        <_>
          3 5 3 7 2.</_>
        <_>
          6 12 3 7 2.</_></rects>
      <tilted>0</tilted></_>
    <_>
      <rects>
        <_>
          3 5 18 4 -1.</_>
        <_>
          3 5 9 2 2.</_>
        <_>
          12 7 9 2 2.</_></rects>
      <tilted>0</tilted></_>
    <_>
      <rects>
        <_>
          3 7 21 1 -1.</_>
        <_>
          10 7 7 1 2.</_></rects>
      <tilted>0</tilted></_>
    <_>
      <rects>
        <_>
          3 19 7 4 -1.</_>
        <_>
          3 21 7 2 2.</_></rects>
      <tilted>0</tilted></_>
    <_>
      <rects>
        <_>
          4 0 3 7 -1.</_>
        <_>
          5 0 1 7 2.</_></rects>
      <tilted>0</tilted></_>
    <_>
      <rects>
        <_>
          4 0 3 23 -1.</_>
        <_>
          5 0 1 23 2.</_></rects>
      <tilted>0</tilted></_>
    <_>
      <rects>
        <_>
          4 1 5 8 -1.</_>
        <_>
          4 5 5 4 2.</_></rects>
      <tilted>0</tilted></_>
    <_>
      <rects>
        <_>
          4 1 14 14 -1.</_>
        <_>
          11 1 7 14 2.</_></rects>
      <tilted>0</tilted></_>
    <_>
      <rects>
        <_>
          4 1 18 4 -1.</_>
        <_>
          4 1 9 2 2.</_>
        <_>
          13 3 9 2 2.</_></rects>
      <tilted>0</tilted></_>
    <_>
      <rects>
        <_>
          4 1 12 4 -1.</_>
        <_>
          4 3 12 2 2.</_></rects>
      <tilted>0</tilted></_>
    <_>
      <rects>
        <_>
          4 2 16 8 -1.</_>
        <_>
          4 2 8 4 2.</_>
        <_>
          12 6 8 4 2.</_></rects>
      <tilted>0</tilted></_>
    <_>
      <rects>
        <_>
          4 2 14 22 -1.</_>
        <_>
          4 13 14 11 2.</_></rects>
      <tilted>0</tilted></_>
    <_>
      <rects>
        <_>
          4 3 5 4 -1.</_>
        <_>
          4 5 5 2 2.</_></rects>
      <tilted>0</tilted></_>
    <_>
      <rects>
        <_>
          4 3 18 4 -1.</_>
        <_>
          4 5 18 2 2.</_></rects>
      <tilted>0</tilted></_>
    <_>
      <rects>
        <_>
          4 4 18 2 -1.</_>
        <_>
          10 4 6 2 2.</_></rects>
      <tilted>0</tilted></_>
    <_>
      <rects>
        <_>
          4 5 14 6 -1.</_>
        <_>
          4 5 7 3 2.</_>
        <_>
          11 8 7 3 2.</_></rects>
      <tilted>0</tilted></_>
    <_>
      <rects>
        <_>
          4 6 3 16 -1.</_>
        <_>
          5 6 1 16 2.</_></rects>
      <tilted>0</tilted></_>
    <_>
      <rects>
        <_>
          4 10 4 6 -1.</_>
        <_>
          6 10 2 6 2.</_></rects>
      <tilted>0</tilted></_>
    <_>
      <rects>
        <_>
          4 22 6 2 -1.</_>
        <_>
          4 23 6 1 2.</_></rects>
      <tilted>0</tilted></_>
    <_>
      <rects>
        <_>
          5 0 4 15 -1.</_>
        <_>
          5 5 4 5 2.</_></rects>
      <tilted>0</tilted></_>
    <_>
      <rects>
        <_>
          5 2 4 8 -1.</_>
        <_>
          5 6 4 4 2.</_></rects>
      <tilted>0</tilted></_>
    <_>
      <rects>
        <_>
          5 4 5 4 -1.</_>
        <_>
          5 6 5 2 2.</_></rects>
      <tilted>0</tilted></_>
    <_>
      <rects>
        <_>
          5 5 2 6 -1.</_>
        <_>
          5 8 2 3 2.</_></rects>
      <tilted>0</tilted></_>
    <_>
      <rects>
        <_>
          5 5 3 4 -1.</_>
        <_>
          5 7 3 2 2.</_></rects>
      <tilted>0</tilted></_>
    <_>
      <rects>
        <_>
          5 6 12 5 -1.</_>
        <_>
          11 6 6 5 2.</_></rects>
      <tilted>0</tilted></_>
    <_>
      <rects>
        <_>
          5 9 18 3 -1.</_>
        <_>
          11 9 6 3 2.</_></rects>
      <tilted>0</tilted></_>
    <_>
      <rects>
        <_>
          5 10 19 14 -1.</_>
        <_>
          5 17 19 7 2.</_></rects>
      <tilted>0</tilted></_>
    <_>
      <rects>
        <_>
          5 20 19 3 -1.</_>
        <_>
          5 21 19 1 2.</_></rects>
      <tilted>0</tilted></_>
    <_>
      <rects>
        <_>
          6 0 6 1 -1.</_>
        <_>
          8 0 2 1 2.</_></rects>
      <tilted>0</tilted></_>
    <_>
      <rects>
        <_>
          6 0 6 22 -1.</_>
        <_>
          6 0 3 11 2.</_>
        <_>
          9 11 3 11 2.</_></rects>
      <tilted>0</tilted></_>
    <_>
      <rects>
        <_>
          6 0 18 1 -1.</_>
        <_>
          15 0 9 1 2.</_></rects>
      <tilted>0</tilted></_>
    <_>
      <rects>
        <_>
          6 2 6 13 -1.</_>
        <_>
          9 2 3 13 2.</_></rects>
      <tilted>0</tilted></_>
    <_>
      <rects>
        <_>
          6 2 10 8 -1.</_>
        <_>
          6 2 5 4 2.</_>
        <_>
          11 6 5 4 2.</_></rects>
      <tilted>0</tilted></_>
    <_>
      <rects>
        <_>
          6 2 14 10 -1.</_>
        <_>
          6 2 7 5 2.</_>
        <_>
          13 7 7 5 2.</_></rects>
      <tilted>0</tilted></_>
    <_>
      <rects>
        <_>
          6 3 3 8 -1.</_>
        <_>
          6 7 3 4 2.</_></rects>
      <tilted>0</tilted></_>
    <_>
      <rects>
        <_>
          6 4 7 4 -1.</_>
        <_>
          6 6 7 2 2.</_></rects>
      <tilted>0</tilted></_>
    <_>
      <rects>
        <_>
          6 5 1 4 -1.</_>
        <_>
          6 7 1 2 2.</_></rects>
      <tilted>0</tilted></_>
    <_>
      <rects>
        <_>
          6 5 2 16 -1.</_>
        <_>
          6 13 2 8 2.</_></rects>
      <tilted>0</tilted></_>
    <_>
      <rects>
        <_>
          6 5 14 4 -1.</_>
        <_>
          6 5 7 2 2.</_>
        <_>
          13 7 7 2 2.</_></rects>
      <tilted>0</tilted></_>
    <_>
      <rects>
        <_>
          6 6 12 6 -1.</_>
        <_>
          6 6 6 3 2.</_>
        <_>
          12 9 6 3 2.</_></rects>
      <tilted>0</tilted></_>
    <_>
      <rects>
        <_>
          6 6 18 4 -1.</_>
        <_>
          12 6 6 4 2.</_></rects>
      <tilted>0</tilted></_>
    <_>
      <rects>
        <_>
          6 6 16 6 -1.</_>
        <_>
          6 6 8 3 2.</_>
        <_>
          14 9 8 3 2.</_></rects>
      <tilted>0</tilted></_>
    <_>
      <rects>
        <_>
          6 7 10 3 -1.</_>
        <_>
          11 7 5 3 2.</_></rects>
      <tilted>0</tilted></_>
    <_>
      <rects>
        <_>
          6 10 9 12 -1.</_>
        <_>
          6 16 9 6 2.</_></rects>
      <tilted>0</tilted></_>
    <_>
      <rects>
        <_>
          6 14 8 2 -1.</_>
        <_>
          10 14 4 2 2.</_></rects>
      <tilted>0</tilted></_>
    <_>
      <rects>
        <_>
          6 18 18 6 -1.</_>
        <_>
          6 20 18 2 2.</_></rects>
      <tilted>0</tilted></_>
    <_>
      <rects>
        <_>
          6 23 3 1 -1.</_>
        <_>
          7 23 1 1 2.</_></rects>
      <tilted>0</tilted></_>
    <_>
      <rects>
        <_>
          7 0 3 1 -1.</_>
        <_>
          8 0 1 1 2.</_></rects>
      <tilted>0</tilted></_>
    <_>
      <rects>
        <_>
          7 1 3 1 -1.</_>
        <_>
          8 1 1 1 2.</_></rects>
      <tilted>0</tilted></_>
    <_>
      <rects>
        <_>
          7 1 15 16 -1.</_>
        <_>
          7 9 15 8 2.</_></rects>
      <tilted>0</tilted></_>
    <_>
      <rects>
        <_>
          7 2 8 22 -1.</_>
        <_>
          7 2 4 11 2.</_>
        <_>
          11 13 4 11 2.</_></rects>
      <tilted>0</tilted></_>
    <_>
      <rects>
        <_>
          7 2 10 10 -1.</_>
        <_>
          7 2 5 5 2.</_>
        <_>
          12 7 5 5 2.</_></rects>
      <tilted>0</tilted></_>
    <_>
      <rects>
        <_>
          7 2 10 18 -1.</_>
        <_>
          7 2 5 9 2.</_>
        <_>
          12 11 5 9 2.</_></rects>
      <tilted>0</tilted></_>
    <_>
      <rects>
        <_>
          7 3 12 8 -1.</_>
        <_>
          7 3 6 4 2.</_>
        <_>
          13 7 6 4 2.</_></rects>
      <tilted>0</tilted></_>
    <_>
      <rects>
        <_>
          7 3 12 10 -1.</_>
        <_>
          7 3 6 5 2.</_>
        <_>
          13 8 6 5 2.</_></rects>
      <tilted>0</tilted></_>
    <_>
      <rects>
        <_>
          7 4 2 4 -1.</_>
        <_>
          7 6 2 2 2.</_></rects>
      <tilted>0</tilted></_>
    <_>
      <rects>
        <_>
          7 4 2 6 -1.</_>
        <_>
          7 7 2 3 2.</_></rects>
      <tilted>0</tilted></_>
    <_>
      <rects>
        <_>
          7 4 14 6 -1.</_>
        <_>
          7 4 7 3 2.</_>
        <_>
          14 7 7 3 2.</_></rects>
      <tilted>0</tilted></_>
    <_>
      <rects>
        <_>
          7 5 2 3 -1.</_>
        <_>
          8 5 1 3 2.</_></rects>
      <tilted>0</tilted></_>
    <_>
      <rects>
        <_>
          7 5 5 9 -1.</_>
        <_>
          7 8 5 3 2.</_></rects>
      <tilted>0</tilted></_>
    <_>
      <rects>
        <_>
          7 5 8 6 -1.</_>
        <_>
          7 8 8 3 2.</_></rects>
      <tilted>0</tilted></_>
    <_>
      <rects>
        <_>
          7 6 4 6 -1.</_>
        <_>
          7 9 4 3 2.</_></rects>
      <tilted>0</tilted></_>
    <_>
      <rects>
        <_>
          7 6 4 8 -1.</_>
        <_>
          7 10 4 4 2.</_></rects>
      <tilted>0</tilted></_>
    <_>
      <rects>
        <_>
          7 6 8 4 -1.</_>
        <_>
          7 8 8 2 2.</_></rects>
      <tilted>0</tilted></_>
    <_>
      <rects>
        <_>
          7 7 16 4 -1.</_>
        <_>
          7 7 8 2 2.</_>
        <_>
          15 9 8 2 2.</_></rects>
      <tilted>0</tilted></_>
    <_>
      <rects>
        <_>
          7 11 10 12 -1.</_>
        <_>
          7 17 10 6 2.</_></rects>
      <tilted>0</tilted></_>
    <_>
      <rects>
        <_>
          7 13 16 6 -1.</_>
        <_>
          7 15 16 2 2.</_></rects>
      <tilted>0</tilted></_>
    <_>
      <rects>
        <_>
          7 18 10 5 -1.</_>
        <_>
          12 18 5 5 2.</_></rects>
      <tilted>0</tilted></_>
    <_>
      <rects>
        <_>
          7 20 10 2 -1.</_>
        <_>
          12 20 5 2 2.</_></rects>
      <tilted>0</tilted></_>
    <_>
      <rects>
        <_>
          7 20 14 4 -1.</_>
        <_>
          14 20 7 4 2.</_></rects>
      <tilted>0</tilted></_>
    <_>
      <rects>
        <_>
          7 22 3 2 -1.</_>
        <_>
          8 22 1 2 2.</_></rects>
      <tilted>0</tilted></_>
    <_>
      <rects>
        <_>
          8 0 3 3 -1.</_>
        <_>
          9 0 1 3 2.</_></rects>
      <tilted>0</tilted></_>
    <_>
      <rects>
        <_>
          8 2 8 20 -1.</_>
        <_>
          8 2 4 10 2.</_>
        <_>
          12 12 4 10 2.</_></rects>
      <tilted>0</tilted></_>
    <_>
      <rects>
        <_>
          8 3 12 8 -1.</_>
        <_>
          8 3 6 4 2.</_>
        <_>
          14 7 6 4 2.</_></rects>
      <tilted>0</tilted></_>
    <_>
      <rects>
        <_>
          8 4 3 16 -1.</_>
        <_>
          8 12 3 8 2.</_></rects>
      <tilted>0</tilted></_>
    <_>
      <rects>
        <_>
          8 4 12 4 -1.</_>
        <_>
          12 4 4 4 2.</_></rects>
      <tilted>0</tilted></_>
    <_>
      <rects>
        <_>
          8 6 8 4 -1.</_>
        <_>
          12 6 4 4 2.</_></rects>
      <tilted>0</tilted></_>
    <_>
      <rects>
        <_>
          8 9 3 9 -1.</_>
        <_>
          8 12 3 3 2.</_></rects>
      <tilted>0</tilted></_>
    <_>
      <rects>
        <_>
          8 9 16 3 -1.</_>
        <_>
          8 10 16 1 2.</_></rects>
      <tilted>0</tilted></_>
    <_>
      <rects>
        <_>
          8 11 4 5 -1.</_>
        <_>
          10 11 2 5 2.</_></rects>
      <tilted>0</tilted></_>
    <_>
      <rects>
        <_>
          8 12 10 12 -1.</_>
        <_>
          8 18 10 6 2.</_></rects>
      <tilted>0</tilted></_>
    <_>
      <rects>
        <_>
          8 15 6 9 -1.</_>
        <_>
          10 15 2 9 2.</_></rects>
      <tilted>0</tilted></_>
    <_>
      <rects>
        <_>
          8 17 3 1 -1.</_>
        <_>
          9 17 1 1 2.</_></rects>
      <tilted>0</tilted></_>
    <_>
      <rects>
        <_>
          8 17 6 7 -1.</_>
        <_>
          10 17 2 7 2.</_></rects>
      <tilted>0</tilted></_>
    <_>
      <rects>
        <_>
          8 22 8 2 -1.</_>
        <_>
          8 22 4 1 2.</_>
        <_>
          12 23 4 1 2.</_></rects>
      <tilted>0</tilted></_>
    <_>
      <rects>
        <_>
          9 0 14 2 -1.</_>
        <_>
          16 0 7 2 2.</_></rects>
      <tilted>0</tilted></_>
    <_>
      <rects>
        <_>
          9 0 15 22 -1.</_>
        <_>
          9 11 15 11 2.</_></rects>
      <tilted>0</tilted></_>
    <_>
      <rects>
        <_>
          9 1 3 2 -1.</_>
        <_>
          10 1 1 2 2.</_></rects>
      <tilted>0</tilted></_>
    <_>
      <rects>
        <_>
          9 1 8 20 -1.</_>
        <_>
          9 1 4 10 2.</_>
        <_>
          13 11 4 10 2.</_></rects>
      <tilted>0</tilted></_>
    <_>
      <rects>
        <_>
          9 3 5 2 -1.</_>
        <_>
          9 4 5 1 2.</_></rects>
      <tilted>0</tilted></_>
    <_>
      <rects>
        <_>
          9 3 10 18 -1.</_>
        <_>
          9 3 5 9 2.</_>
        <_>
          14 12 5 9 2.</_></rects>
      <tilted>0</tilted></_>
    <_>
      <rects>
        <_>
          9 5 4 5 -1.</_>
        <_>
          11 5 2 5 2.</_></rects>
      <tilted>0</tilted></_>
    <_>
      <rects>
        <_>
          9 6 1 2 -1.</_>
        <_>
          9 7 1 1 2.</_></rects>
      <tilted>0</tilted></_>
    <_>
      <rects>
        <_>
          9 6 8 5 -1.</_>
        <_>
          13 6 4 5 2.</_></rects>
      <tilted>0</tilted></_>
    <_>
      <rects>
        <_>
          9 6 14 4 -1.</_>
        <_>
          9 6 7 2 2.</_>
        <_>
          16 8 7 2 2.</_></rects>
      <tilted>0</tilted></_>
    <_>
      <rects>
        <_>
          9 14 3 3 -1.</_>
        <_>
          10 14 1 3 2.</_></rects>
      <tilted>0</tilted></_>
    <_>
      <rects>
        <_>
          9 22 9 2 -1.</_>
        <_>
          9 23 9 1 2.</_></rects>
      <tilted>0</tilted></_>
    <_>
      <rects>
        <_>
          10 0 3 1 -1.</_>
        <_>
          11 0 1 1 2.</_></rects>
      <tilted>0</tilted></_>
    <_>
      <rects>
        <_>
          10 1 6 20 -1.</_>
        <_>
          10 1 3 10 2.</_>
        <_>
          13 11 3 10 2.</_></rects>
      <tilted>0</tilted></_>
    <_>
      <rects>
        <_>
          10 1 8 14 -1.</_>
        <_>
          10 1 4 7 2.</_>
        <_>
          14 8 4 7 2.</_></rects>
      <tilted>0</tilted></_>
    <_>
      <rects>
        <_>
          10 1 8 11 -1.</_>
        <_>
          14 1 4 11 2.</_></rects>
      <tilted>0</tilted></_>
    <_>
      <rects>
        <_>
          10 2 4 10 -1.</_>
        <_>
          12 2 2 10 2.</_></rects>
      <tilted>0</tilted></_>
    <_>
      <rects>
        <_>
          10 2 8 4 -1.</_>
        <_>
          10 2 4 2 2.</_>
        <_>
          14 4 4 2 2.</_></rects>
      <tilted>0</tilted></_>
    <_>
      <rects>
        <_>
          10 2 10 10 -1.</_>
        <_>
          10 2 5 5 2.</_>
        <_>
          15 7 5 5 2.</_></rects>
      <tilted>0</tilted></_>
    <_>
      <rects>
        <_>
          10 3 6 6 -1.</_>
        <_>
          13 3 3 6 2.</_></rects>
      <tilted>0</tilted></_>
    <_>
      <rects>
        <_>
          10 3 5 2 -1.</_>
        <_>
          10 4 5 1 2.</_></rects>
      <tilted>0</tilted></_>
    <_>
      <rects>
        <_>
          10 7 1 4 -1.</_>
        <_>
          10 9 1 2 2.</_></rects>
      <tilted>0</tilted></_>
    <_>
      <rects>
        <_>
          10 13 3 11 -1.</_>
        <_>
          11 13 1 11 2.</_></rects>
      <tilted>0</tilted></_>
    <_>
      <rects>
        <_>
          10 14 11 9 -1.</_>
        <_>
          10 17 11 3 2.</_></rects>
      <tilted>0</tilted></_>
    <_>
      <rects>
        <_>
          10 16 3 1 -1.</_>
        <_>
          11 16 1 1 2.</_></rects>
      <tilted>0</tilted></_>
    <_>
      <rects>
        <_>
          10 17 4 4 -1.</_>
        <_>
          10 17 2 2 2.</_>
        <_>
          12 19 2 2 2.</_></rects>
      <tilted>0</tilted></_>
    <_>
      <rects>
        <_>
          10 21 12 3 -1.</_>
        <_>
          16 21 6 3 2.</_></rects>
      <tilted>0</tilted></_>
    <_>
      <rects>
        <_>
          10 21 14 2 -1.</_>
        <_>
          17 21 7 2 2.</_></rects>
      <tilted>0</tilted></_>
    <_>
      <rects>
        <_>
          11 2 8 22 -1.</_>
        <_>
          11 2 4 11 2.</_>
        <_>
          15 13 4 11 2.</_></rects>
      <tilted>0</tilted></_>
    <_>
      <rects>
        <_>
          11 3 6 7 -1.</_>
        <_>
          14 3 3 7 2.</_></rects>
      <tilted>0</tilted></_>
    <_>
      <rects>
        <_>
          11 5 6 16 -1.</_>
        <_>
          11 5 3 8 2.</_>
        <_>
          14 13 3 8 2.</_></rects>
      <tilted>0</tilted></_>
    <_>
      <rects>
        <_>
          11 6 4 5 -1.</_>
        <_>
          13 6 2 5 2.</_></rects>
      <tilted>0</tilted></_>
    <_>
      <rects>
        <_>
          11 10 12 2 -1.</_>
        <_>
          15 10 4 2 2.</_></rects>
      <tilted>0</tilted></_>
    <_>
      <rects>
        <_>
          11 14 6 8 -1.</_>
        <_>
          11 14 3 4 2.</_>
        <_>
          14 18 3 4 2.</_></rects>
      <tilted>0</tilted></_>
    <_>
      <rects>
        <_>
          12 1 6 14 -1.</_>
        <_>
          15 1 3 14 2.</_></rects>
      <tilted>0</tilted></_>
    <_>
      <rects>
        <_>
          12 5 3 8 -1.</_>
        <_>
          12 9 3 4 2.</_></rects>
      <tilted>0</tilted></_>
    <_>
      <rects>
        <_>
          12 6 1 8 -1.</_>
        <_>
          12 10 1 4 2.</_></rects>
      <tilted>0</tilted></_>
    <_>
      <rects>
        <_>
          12 11 8 8 -1.</_>
        <_>
          12 11 4 4 2.</_>
        <_>
          16 15 4 4 2.</_></rects>
      <tilted>0</tilted></_>
    <_>
      <rects>
        <_>
          12 13 8 3 -1.</_>
        <_>
          12 14 8 1 2.</_></rects>
      <tilted>0</tilted></_>
    <_>
      <rects>
        <_>
          12 20 10 3 -1.</_>
        <_>
          12 21 10 1 2.</_></rects>
      <tilted>0</tilted></_>
    <_>
      <rects>
        <_>
          13 3 6 6 -1.</_>
        <_>
          13 6 6 3 2.</_></rects>
      <tilted>0</tilted></_>
    <_>
      <rects>
        <_>
          13 5 10 6 -1.</_>
        <_>
          13 5 5 3 2.</_>
        <_>
          18 8 5 3 2.</_></rects>
      <tilted>0</tilted></_>
    <_>
      <rects>
        <_>
          13 5 7 6 -1.</_>
        <_>
          13 8 7 3 2.</_></rects>
      <tilted>0</tilted></_>
    <_>
      <rects>
        <_>
          13 6 4 14 -1.</_>
        <_>
          13 6 2 7 2.</_>
        <_>
          15 13 2 7 2.</_></rects>
      <tilted>0</tilted></_>
    <_>
      <rects>
        <_>
          13 17 4 6 -1.</_>
        <_>
          13 20 4 3 2.</_></rects>
      <tilted>0</tilted></_>
    <_>
      <rects>
        <_>
          13 19 11 3 -1.</_>
        <_>
          13 20 11 1 2.</_></rects>
      <tilted>0</tilted></_>
    <_>
      <rects>
        <_>
          14 0 6 3 -1.</_>
        <_>
          16 0 2 3 2.</_></rects>
      <tilted>0</tilted></_>
    <_>
      <rects>
        <_>
          14 4 3 9 -1.</_>
        <_>
          14 7 3 3 2.</_></rects>
      <tilted>0</tilted></_>
    <_>
      <rects>
        <_>
          14 4 8 3 -1.</_>
        <_>
          18 4 4 3 2.</_></rects>
      <tilted>0</tilted></_>
    <_>
      <rects>
        <_>
          14 4 8 18 -1.</_>
        <_>
          14 4 4 9 2.</_>
        <_>
          18 13 4 9 2.</_></rects>
      <tilted>0</tilted></_>
    <_>
      <rects>
        <_>
          14 4 5 4 -1.</_>
        <_>
          14 6 5 2 2.</_></rects>
      <tilted>0</tilted></_>
    <_>
      <rects>
        <_>
          14 4 10 20 -1.</_>
        <_>
          14 4 5 10 2.</_>
        <_>
          19 14 5 10 2.</_></rects>
      <tilted>0</tilted></_>
    <_>
      <rects>
        <_>
          14 8 7 2 -1.</_>
        <_>
          14 9 7 1 2.</_></rects>
      <tilted>0</tilted></_>
    <_>
      <rects>
        <_>
          14 11 3 7 -1.</_>
        <_>
          15 11 1 7 2.</_></rects>
      <tilted>0</tilted></_>
    <_>
      <rects>
        <_>
          14 14 10 10 -1.</_>
        <_>
          14 19 10 5 2.</_></rects>
      <tilted>0</tilted></_>
    <_>
      <rects>
        <_>
          14 18 3 6 -1.</_>
        <_>
          15 18 1 6 2.</_></rects>
      <tilted>0</tilted></_>
    <_>
      <rects>
        <_>
          14 23 3 1 -1.</_>
        <_>
          15 23 1 1 2.</_></rects>
      <tilted>0</tilted></_>
    <_>
      <rects>
        <_>
          15 0 6 1 -1.</_>
        <_>
          17 0 2 1 2.</_></rects>
      <tilted>0</tilted></_>
    <_>
      <rects>
        <_>
          15 0 3 8 -1.</_>
        <_>
          15 4 3 4 2.</_></rects>
      <tilted>0</tilted></_>
    <_>
      <rects>
        <_>
          15 1 3 1 -1.</_>
        <_>
          16 1 1 1 2.</_></rects>
      <tilted>0</tilted></_>
    <_>
      <rects>
        <_>
          15 2 6 6 -1.</_>
        <_>
          15 2 3 3 2.</_>
        <_>
          18 5 3 3 2.</_></rects>
      <tilted>0</tilted></_>
    <_>
      <rects>
        <_>
          15 4 7 6 -1.</_>
        <_>
          15 7 7 3 2.</_></rects>
      <tilted>0</tilted></_>
    <_>
      <rects>
        <_>
          15 6 5 6 -1.</_>
        <_>
          15 9 5 3 2.</_></rects>
      <tilted>0</tilted></_>
    <_>
      <rects>
        <_>
          15 7 5 4 -1.</_>
        <_>
          15 9 5 2 2.</_></rects>
      <tilted>0</tilted></_>
    <_>
      <rects>
        <_>
          16 1 8 10 -1.</_>
        <_>
          16 1 4 5 2.</_>
        <_>
          20 6 4 5 2.</_></rects>
      <tilted>0</tilted></_>
    <_>
      <rects>
        <_>
          16 3 4 6 -1.</_>
        <_>
          16 6 4 3 2.</_></rects>
      <tilted>0</tilted></_>
    <_>
      <rects>
        <_>
          16 8 3 2 -1.</_>
        <_>
          16 9 3 1 2.</_></rects>
      <tilted>0</tilted></_>
    <_>
      <rects>
        <_>
          17 0 3 9 -1.</_>
        <_>
          18 0 1 9 2.</_></rects>
      <tilted>0</tilted></_>
    <_>
      <rects>
        <_>
          17 0 6 1 -1.</_>
        <_>
          19 0 2 1 2.</_></rects>
      <tilted>0</tilted></_>
    <_>
      <rects>
        <_>
          18 0 3 22 -1.</_>
        <_>
          19 0 1 22 2.</_></rects>
      <tilted>0</tilted></_>
    <_>
      <rects>
        <_>
          18 0 6 1 -1.</_>
        <_>
          20 0 2 1 2.</_></rects>
      <tilted>0</tilted></_>
    <_>
      <rects>
        <_>
          18 3 1 6 -1.</_>
        <_>
          18 6 1 3 2.</_></rects>
      <tilted>0</tilted></_>
    <_>
      <rects>
        <_>
          18 20 3 1 -1.</_>
        <_>
          19 20 1 1 2.</_></rects>
      <tilted>0</tilted></_>
    <_>
      <rects>
        <_>
          18 21 3 3 -1.</_>
        <_>
          19 21 1 3 2.</_></rects>
      <tilted>0</tilted></_>
    <_>
      <rects>
        <_>
          18 22 3 1 -1.</_>
        <_>
          19 22 1 1 2.</_></rects>
      <tilted>0</tilted></_>
    <_>
      <rects>
        <_>
          19 0 5 3 -1.</_>
        <_>
          19 1 5 1 2.</_></rects>
      <tilted>0</tilted></_>
    <_>
      <rects>
        <_>
          19 1 3 18 -1.</_>
        <_>
          20 1 1 18 2.</_></rects>
      <tilted>0</tilted></_>
    <_>
      <rects>
        <_>
          19 18 3 6 -1.</_>
        <_>
          20 18 1 6 2.</_></rects>
      <tilted>0</tilted></_>
    <_>
      <rects>
        <_>
          20 1 3 7 -1.</_>
        <_>
          21 1 1 7 2.</_></rects>
      <tilted>0</tilted></_>
    <_>
      <rects>
        <_>
          20 1 3 10 -1.</_>
        <_>
          21 1 1 10 2.</_></rects>
      <tilted>0</tilted></_>
    <_>
      <rects>
        <_>
          20 5 3 2 -1.</_>
        <_>
          21 5 1 2 2.</_></rects>
      <tilted>0</tilted></_>
    <_>
      <rects>
        <_>
          20 5 3 14 -1.</_>
        <_>
          21 5 1 14 2.</_></rects>
      <tilted>0</tilted></_>
    <_>
      <rects>
        <_>
          20 18 3 4 -1.</_>
        <_>
          21 18 1 4 2.</_></rects>
      <tilted>0</tilted></_>
    <_>
      <rects>
        <_>
          20 22 2 2 -1.</_>
        <_>
          21 22 1 2 2.</_></rects>
      <tilted>0</tilted></_>
    <_>
      <rects>
        <_>
          21 2 3 7 -1.</_>
        <_>
          22 2 1 7 2.</_></rects>
      <tilted>0</tilted></_>
    <_>
      <rects>
        <_>
          21 3 3 8 -1.</_>
        <_>
          22 3 1 8 2.</_></rects>
      <tilted>0</tilted></_>
    <_>
      <rects>
        <_>
          21 16 3 1 -1.</_>
        <_>
          22 16 1 1 2.</_></rects>
      <tilted>0</tilted></_>
    <_>
      <rects>
        <_>
          21 16 2 2 -1.</_>
        <_>
          21 16 1 1 2.</_>
        <_>
          22 17 1 1 2.</_></rects>
      <tilted>0</tilted></_>
    <_>
      <rects>
        <_>
          21 22 2 2 -1.</_>
        <_>
          22 22 1 2 2.</_></rects>
      <tilted>0</tilted></_>
    <_>
      <rects>
        <_>
          22 0 2 4 -1.</_>
        <_>
          23 0 1 4 2.</_></rects>
      <tilted>0</tilted></_>
    <_>
      <rects>
        <_>
          22 0 2 7 -1.</_>
        <_>
          23 0 1 7 2.</_></rects>
      <tilted>0</tilted></_>
    <_>
      <rects>
        <_>
          22 7 2 7 -1.</_>
        <_>
          23 7 1 7 2.</_></rects>
      <tilted>0</tilted></_>
    <_>
      <rects>
        <_>
          22 13 2 2 -1.</_>
        <_>
          22 13 1 1 2.</_>
        <_>
          23 14 1 1 2.</_></rects>
      <tilted>0</tilted></_>
    <_>
      <rects>
        <_>
          22 20 2 4 -1.</_>
        <_>
          22 20 1 2 2.</_>
        <_>
          23 22 1 2 2.</_></rects>
      <tilted>0</tilted></_></features></cascade>
</opencv_storage>
