<?xml version="1.0"?>
<opencv_storage>
<stage5>
  <maxWeakCount>17</maxWeakCount>
  <stageThreshold>-1.2788639068603516e+00</stageThreshold>
  <weakClassifiers>
    <_>
      <internalNodes>
        0 -1 140979 2.5812778621912003e-02</internalNodes>
      <leafValues>
        -2.4444444477558136e-01 5.7894736528396606e-01</leafValues></_>
    <_>
      <internalNodes>
        0 -1 80317 -2.1514749526977539e-01</internalNodes>
      <leafValues>
        -8.1237316131591797e-01 1.6509893536567688e-01</leafValues></_>
    <_>
      <internalNodes>
        0 -1 42743 -2.4525376036763191e-02</internalNodes>
      <leafValues>
        8.6564666032791138e-01 -1.5848214924335480e-01</leafValues></_>
    <_>
      <internalNodes>
        0 -1 75407 -4.9506776034832001e-02</internalNodes>
      <leafValues>
        -1.5643945336341858e-01 8.3835428953170776e-01</leafValues></_>
    <_>
      <internalNodes>
        0 -1 52767 4.8618279397487640e-02</internalNodes>
      <leafValues>
        -1.8043702840805054e-01 8.7117481231689453e-01</leafValues></_>
    <_>
      <internalNodes>
        0 -1 155136 -2.2151558659970760e-03</internalNodes>
      <leafValues>
        2.2948886454105377e-01 -6.8462592363357544e-01</leafValues></_>
    <_>
      <internalNodes>
        0 -1 35324 2.2680202964693308e-03</internalNodes>
      <leafValues>
        2.0243352651596069e-01 -5.1893746852874756e-01</leafValues></_>
    <_>
      <internalNodes>
        0 -1 74551 1.4762988314032555e-02</internalNodes>
      <leafValues>
        -1.8977418541908264e-01 7.6047998666763306e-01</leafValues></_>
    <_>
      <internalNodes>
        0 -1 155492 -1.0278664529323578e-01</internalNodes>
      <leafValues>
        -6.5674543380737305e-01 1.8615470826625824e-01</leafValues></_>
    <_>
      <internalNodes>
        0 -1 56756 -2.8806556947529316e-03</internalNodes>
      <leafValues>
        4.2581862211227417e-01 -2.8715416789054871e-01</leafValues></_>
    <_>
      <internalNodes>
        0 -1 51931 4.7296094708144665e-03</internalNodes>
      <leafValues>
        2.7172785997390747e-01 -4.5356190204620361e-01</leafValues></_>
    <_>
      <internalNodes>
        0 -1 32916 8.5021844133734703e-03</internalNodes>
      <leafValues>
        -1.9600318372249603e-01 6.0901629924774170e-01</leafValues></_>
    <_>
      <internalNodes>
        0 -1 102202 1.2021565344184637e-03</internalNodes>
      <leafValues>
        -1.4643129706382751e-01 6.8251109123229980e-01</leafValues></_>
    <_>
      <internalNodes>
        0 -1 157808 -3.4744247794151306e-02</internalNodes>
      <leafValues>
        -4.2637339234352112e-01 2.4308754503726959e-01</leafValues></_>
    <_>
      <internalNodes>
        0 -1 161196 1.5381193952634931e-03</internalNodes>
      <leafValues>
        2.4578149616718292e-01 -4.6195086836814880e-01</leafValues></_>
    <_>
      <internalNodes>
        0 -1 113556 -6.3913976773619652e-03</internalNodes>
      <leafValues>
        -6.0185927152633667e-01 1.8756231665611267e-01</leafValues></_>
    <_>
      <internalNodes>
        0 -1 108321 -4.4575311243534088e-02</internalNodes>
      <leafValues>
        7.3175644874572754e-01 -1.8385396897792816e-01</leafValues></_></weakClassifiers></stage5>
</opencv_storage>
