<?xml version="1.0"?>
<opencv_storage>
<stage0>
  <maxWeakCount>9</maxWeakCount>
  <stageThreshold>-1.0400420427322388e+00</stageThreshold>
  <weakClassifiers>
    <_>
      <internalNodes>
        0 -1 15294 -1.1211334168910980e-01</internalNodes>
      <leafValues>
        -8.3113455772399902e-01 4.7959184646606445e-01</leafValues></_>
    <_>
      <internalNodes>
        0 -1 70549 -1.0315624624490738e-01</internalNodes>
      <leafValues>
        -7.5706464052200317e-01 3.1099379062652588e-01</leafValues></_>
    <_>
      <internalNodes>
        0 -1 155409 -2.9401609674096107e-02</internalNodes>
      <leafValues>
        -7.2720938920974731e-01 2.7079707384109497e-01</leafValues></_>
    <_>
      <internalNodes>
        0 -1 93864 2.6976447552442551e-02</internalNodes>
      <leafValues>
        -2.3102118074893951e-01 8.7103712558746338e-01</leafValues></_>
    <_>
      <internalNodes>
        0 -1 15830 -1.7134326696395874e-01</internalNodes>
      <leafValues>
        -2.9394263029098511e-01 4.7629106044769287e-01</leafValues></_>
    <_>
      <internalNodes>
        0 -1 83245 -7.3285557329654694e-02</internalNodes>
      <leafValues>
        9.6497201919555664e-01 -1.8272754549980164e-01</leafValues></_>
    <_>
      <internalNodes>
        0 -1 75404 3.2090589404106140e-02</internalNodes>
      <leafValues>
        -1.4154557883739471e-01 8.9476418495178223e-01</leafValues></_>
    <_>
      <internalNodes>
        0 -1 135675 1.6470251604914665e-02</internalNodes>
      <leafValues>
        -1.1140064150094986e-01 7.9796868562698364e-01</leafValues></_>
    <_>
      <internalNodes>
        0 -1 130409 1.9867911934852600e-02</internalNodes>
      <leafValues>
        -1.7678056657314301e-01 6.6656130552291870e-01</leafValues></_></weakClassifiers></stage0>
</opencv_storage>
