<?xml version="1.0"?>
<opencv_storage>
<stage2>
  <maxWeakCount>20</maxWeakCount>
  <stageThreshold>-1.0798301696777344e+00</stageThreshold>
  <weakClassifiers>
    <_>
      <internalNodes>
        0 -1 129685 3.1610719859600067e-02</internalNodes>
      <leafValues>
        -2.2631579637527466e-01 6.7149758338928223e-01</leafValues></_>
    <_>
      <internalNodes>
        0 -1 102401 -3.1280089169740677e-02</internalNodes>
      <leafValues>
        7.2937172651290894e-01 -1.4601263403892517e-01</leafValues></_>
    <_>
      <internalNodes>
        0 -1 135632 -2.0211432129144669e-02</internalNodes>
      <leafValues>
        6.3081103563308716e-01 -1.5931519865989685e-01</leafValues></_>
    <_>
      <internalNodes>
        0 -1 24909 -9.4338674098253250e-03</internalNodes>
      <leafValues>
        3.6226996779441833e-01 -2.6566487550735474e-01</leafValues></_>
    <_>
      <internalNodes>
        0 -1 74177 2.5765471160411835e-02</internalNodes>
      <leafValues>
        -1.2742704153060913e-01 7.3876756429672241e-01</leafValues></_>
    <_>
      <internalNodes>
        0 -1 72769 8.7313398718833923e-02</internalNodes>
      <leafValues>
        -1.0560038685798645e-01 7.8169500827789307e-01</leafValues></_>
    <_>
      <internalNodes>
        0 -1 75503 -4.2883239686489105e-02</internalNodes>
      <leafValues>
        7.4578845500946045e-01 -1.4380368590354919e-01</leafValues></_>
    <_>
      <internalNodes>
        0 -1 26298 3.0241398140788078e-02</internalNodes>
      <leafValues>
        -1.6555599868297577e-01 6.7436057329177856e-01</leafValues></_>
    <_>
      <internalNodes>
        0 -1 155210 -6.0806819237768650e-03</internalNodes>
      <leafValues>
        -5.4570782184600830e-01 2.1193499863147736e-01</leafValues></_>
    <_>
      <internalNodes>
        0 -1 88216 -9.4974562525749207e-02</internalNodes>
      <leafValues>
        1.0618190467357635e-01 -9.1941583156585693e-01</leafValues></_>
    <_>
      <internalNodes>
        0 -1 80762 -6.5500037744641304e-03</internalNodes>
      <leafValues>
        -6.1750352382659912e-01 1.5699814260005951e-01</leafValues></_>
    <_>
      <internalNodes>
        0 -1 97931 -6.4488582313060760e-02</internalNodes>
      <leafValues>
        -4.3529924750328064e-01 1.9425030052661896e-01</leafValues></_>
    <_>
      <internalNodes>
        0 -1 66940 -1.6292933374643326e-02</internalNodes>
      <leafValues>
        -1.0865090042352676e-01 1.</leafValues></_>
    <_>
      <internalNodes>
        0 -1 14463 6.7703840322792530e-03</internalNodes>
      <leafValues>
        1.5551641583442688e-01 -8.1605440378189087e-01</leafValues></_>
    <_>
      <internalNodes>
        0 -1 85628 2.8211239725351334e-02</internalNodes>
      <leafValues>
        -1.5885832905769348e-01 6.4076292514801025e-01</leafValues></_>
    <_>
      <internalNodes>
        0 -1 84540 3.9507925510406494e-02</internalNodes>
      <leafValues>
        -1.2482215464115143e-01 7.8505104780197144e-01</leafValues></_>
    <_>
      <internalNodes>
        0 -1 5204 -2.6281140744686127e-02</internalNodes>
      <leafValues>
        5.2934354543685913e-01 -1.5632353723049164e-01</leafValues></_>
    <_>
      <internalNodes>
        0 -1 85098 -3.0285295099020004e-02</internalNodes>
      <leafValues>
        8.6865222454071045e-01 -1.0451918095350266e-01</leafValues></_>
    <_>
      <internalNodes>
        0 -1 6997 -2.3182392120361328e-02</internalNodes>
      <leafValues>
        -1.0473247617483139e-01 7.7855712175369263e-01</leafValues></_>
    <_>
      <internalNodes>
        0 -1 82161 1.7751082777976990e-01</internalNodes>
      <leafValues>
        1.3677276670932770e-01 -9.0111726522445679e-01</leafValues></_></weakClassifiers></stage2>
</opencv_storage>
