<?xml version="1.0"?>
<opencv_storage>
<stage10>
  <maxWeakCount>42</maxWeakCount>
  <stageThreshold>-1.4472904205322266e+00</stageThreshold>
  <weakClassifiers>
    <_>
      <internalNodes>
        0 -1 124359 -9.3132413923740387e-02</internalNodes>
      <leafValues>
        8.4615385532379150e-01 -7.4251669645309448e-01</leafValues></_>
    <_>
      <internalNodes>
        0 -1 49280 -3.9698712527751923e-02</internalNodes>
      <leafValues>
        -8.0540210008621216e-02 -9.5275807380676270e-01</leafValues></_>
    <_>
      <internalNodes>
        0 -1 12530 -1.4494087081402540e-03</internalNodes>
      <leafValues>
        1.2782000005245209e-02 -9.5852220058441162e-01</leafValues></_>
    <_>
      <internalNodes>
        0 -1 109757 -2.2107818722724915e-01</internalNodes>
      <leafValues>
        -5.7241451740264893e-01 9.6512772142887115e-02</leafValues></_>
    <_>
      <internalNodes>
        0 -1 48969 -5.1491096615791321e-02</internalNodes>
      <leafValues>
        -8.3897662162780762e-01 4.7693602740764618e-02</leafValues></_>
    <_>
      <internalNodes>
        0 -1 24112 -5.7453066110610962e-03</internalNodes>
      <leafValues>
        2.4148133397102356e-01 -1.9362489879131317e-01</leafValues></_>
    <_>
      <internalNodes>
        0 -1 45 -1.4728035777807236e-02</internalNodes>
      <leafValues>
        -6.2772727012634277e-01 7.2778917849063873e-02</leafValues></_>
    <_>
      <internalNodes>
        0 -1 76496 -8.3716139197349548e-02</internalNodes>
      <leafValues>
        3.3350744843482971e-01 -1.3066983222961426e-01</leafValues></_>
    <_>
      <internalNodes>
        0 -1 129803 1.4625622425228357e-03</internalNodes>
      <leafValues>
        -1.6041237115859985e-01 2.7129840850830078e-01</leafValues></_>
    <_>
      <internalNodes>
        0 -1 94216 -1.3976811897009611e-03</internalNodes>
      <leafValues>
        3.7455657124519348e-01 -1.2313722074031830e-01</leafValues></_>
    <_>
      <internalNodes>
        0 -1 98979 -2.6526387780904770e-02</internalNodes>
      <leafValues>
        7.8633055090904236e-02 -5.2585583925247192e-01</leafValues></_>
    <_>
      <internalNodes>
        0 -1 161178 2.0131831988692284e-03</internalNodes>
      <leafValues>
        7.3727153241634369e-02 -5.5044984817504883e-01</leafValues></_>
    <_>
      <internalNodes>
        0 -1 62321 -3.3492982387542725e-02</internalNodes>
      <leafValues>
        -5.7207144796848297e-02 8.3143818378448486e-01</leafValues></_>
    <_>
      <internalNodes>
        0 -1 25255 -7.3694437742233276e-02</internalNodes>
      <leafValues>
        -6.9611865282058716e-01 6.3709728419780731e-02</leafValues></_>
    <_>
      <internalNodes>
        0 -1 137239 -6.1106674373149872e-02</internalNodes>
      <leafValues>
        5.5186241865158081e-01 -7.2272829711437225e-02</leafValues></_>
    <_>
      <internalNodes>
        0 -1 138715 8.3378085400909185e-04</internalNodes>
      <leafValues>
        -1.6151976585388184e-01 2.1806840598583221e-01</leafValues></_>
    <_>
      <internalNodes>
        0 -1 400 5.1875626668334007e-03</internalNodes>
      <leafValues>
        1.0294777899980545e-01 -3.4376889467239380e-01</leafValues></_>
    <_>
      <internalNodes>
        0 -1 102600 1.0262546129524708e-02</internalNodes>
      <leafValues>
        -1.0701292753219604e-01 3.4950292110443115e-01</leafValues></_>
    <_>
      <internalNodes>
        0 -1 141531 5.0951242446899414e-03</internalNodes>
      <leafValues>
        -1.3870555162429810e-01 2.9614162445068359e-01</leafValues></_>
    <_>
      <internalNodes>
        0 -1 44326 -3.0800056457519531e-01</internalNodes>
      <leafValues>
        -9.3540704250335693e-01 4.1879151016473770e-02</leafValues></_>
    <_>
      <internalNodes>
        0 -1 97701 -3.8491927087306976e-02</internalNodes>
      <leafValues>
        -1.8649621307849884e-01 2.2981654107570648e-01</leafValues></_>
    <_>
      <internalNodes>
        0 -1 11489 2.0407664123922586e-03</internalNodes>
      <leafValues>
        6.0440156608819962e-02 -6.0526061058044434e-01</leafValues></_>
    <_>
      <internalNodes>
        0 -1 55652 8.8272690773010254e-03</internalNodes>
      <leafValues>
        -1.0162094980478287e-01 4.0529501438140869e-01</leafValues></_>
    <_>
      <internalNodes>
        0 -1 157625 -5.0059398636221886e-03</internalNodes>
      <leafValues>
        -6.0309380292892456e-01 6.1005614697933197e-02</leafValues></_>
    <_>
      <internalNodes>
        0 -1 100489 -1.5382693707942963e-01</internalNodes>
      <leafValues>
        3.7674096226692200e-01 -1.0879466682672501e-01</leafValues></_>
    <_>
      <internalNodes>
        0 -1 98591 -7.5697088614106178e-03</internalNodes>
      <leafValues>
        -7.9245263338088989e-01 4.8570577055215836e-02</leafValues></_>
    <_>
      <internalNodes>
        0 -1 98621 5.9792380779981613e-03</internalNodes>
      <leafValues>
        -1.1200570315122604e-01 3.8068151473999023e-01</leafValues></_>
    <_>
      <internalNodes>
        0 -1 43624 -4.1821729391813278e-02</internalNodes>
      <leafValues>
        4.9756303429603577e-02 -8.7589734792709351e-01</leafValues></_>
    <_>
      <internalNodes>
        0 -1 140281 5.1355704665184021e-02</internalNodes>
      <leafValues>
        -1.1939033120870590e-01 3.5717874765396118e-01</leafValues></_>
    <_>
      <internalNodes>
        0 -1 145274 -2.2764239460229874e-02</internalNodes>
      <leafValues>
        4.4812780618667603e-01 -9.6360981464385986e-02</leafValues></_>
    <_>
      <internalNodes>
        0 -1 160365 1.6225359868258238e-03</internalNodes>
      <leafValues>
        5.9978038072586060e-02 -6.4372438192367554e-01</leafValues></_>
    <_>
      <internalNodes>
        0 -1 161183 -6.2487618997693062e-03</internalNodes>
      <leafValues>
        -4.5087009668350220e-01 7.2777025401592255e-02</leafValues></_>
    <_>
      <internalNodes>
        0 -1 116370 -3.6511532962322235e-02</internalNodes>
      <leafValues>
        2.5697630643844604e-01 -1.3568937778472900e-01</leafValues></_>
    <_>
      <internalNodes>
        0 -1 139326 -1.1085106991231441e-02</internalNodes>
      <leafValues>
        -8.0431950092315674e-01 4.8635557293891907e-02</leafValues></_>
    <_>
      <internalNodes>
        0 -1 136725 3.1646929681301117e-02</internalNodes>
      <leafValues>
        -6.5110892057418823e-02 6.6273504495620728e-01</leafValues></_>
    <_>
      <internalNodes>
        0 -1 158536 -6.3548590987920761e-03</internalNodes>
      <leafValues>
        1.2950879335403442e-01 -3.1130036711692810e-01</leafValues></_>
    <_>
      <internalNodes>
        0 -1 107099 -1.8862015008926392e-01</internalNodes>
      <leafValues>
        -1.0205315053462982e-01 3.7909767031669617e-01</leafValues></_>
    <_>
      <internalNodes>
        0 -1 103387 -6.7281089723110199e-02</internalNodes>
      <leafValues>
        7.3657268285751343e-01 -5.1229238510131836e-02</leafValues></_>
    <_>
      <internalNodes>
        0 -1 146794 -2.8429920785129070e-03</internalNodes>
      <leafValues>
        3.1051507592201233e-01 -1.1303620040416718e-01</leafValues></_>
    <_>
      <internalNodes>
        0 -1 127879 1.3953053392469883e-02</internalNodes>
      <leafValues>
        -9.5037885010242462e-02 4.1471260786056519e-01</leafValues></_>
    <_>
      <internalNodes>
        0 -1 88618 2.3419678211212158e-02</internalNodes>
      <leafValues>
        -1.1688177287578583e-01 3.1603589653968811e-01</leafValues></_>
    <_>
      <internalNodes>
        0 -1 72535 -3.9041694253683090e-03</internalNodes>
      <leafValues>
        3.6537018418312073e-01 -9.4763390719890594e-02</leafValues></_></weakClassifiers></stage10>
</opencv_storage>
