<?xml version="1.0"?>
<opencv_storage>
<stage2>
  <maxWeakCount>19</maxWeakCount>
  <stageThreshold>-1.7139608860015869e+00</stageThreshold>
  <weakClassifiers>
    <_>
      <internalNodes>
        0 -1 130761 -4.4364005327224731e-02</internalNodes>
      <leafValues>
        6.4814811944961548e-01 -7.7493304014205933e-01</leafValues></_>
    <_>
      <internalNodes>
        0 -1 52511 3.9617165923118591e-02</internalNodes>
      <leafValues>
        -3.9312604069709778e-01 5.5858844518661499e-01</leafValues></_>
    <_>
      <internalNodes>
        0 -1 72765 7.6946079730987549e-02</internalNodes>
      <leafValues>
        -1.4346519112586975e-01 8.3776354789733887e-01</leafValues></_>
    <_>
      <internalNodes>
        0 -1 806 -2.6956990361213684e-01</internalNodes>
      <leafValues>
        -9.0278095006942749e-01 1.4634983241558075e-01</leafValues></_>
    <_>
      <internalNodes>
        0 -1 157832 -8.0054417252540588e-02</internalNodes>
      <leafValues>
        -7.3634344339370728e-01 2.1822860836982727e-01</leafValues></_>
    <_>
      <internalNodes>
        0 -1 61180 1.6736710071563721e-01</internalNodes>
      <leafValues>
        1.0446596145629883e-01 -8.4862416982650757e-01</leafValues></_>
    <_>
      <internalNodes>
        0 -1 64644 3.5683095455169678e-02</internalNodes>
      <leafValues>
        -2.0870532095432281e-01 7.2843348979949951e-01</leafValues></_>
    <_>
      <internalNodes>
        0 -1 151835 -1.9375229254364967e-02</internalNodes>
      <leafValues>
        -7.8434956073760986e-01 1.8658544123172760e-01</leafValues></_>
    <_>
      <internalNodes>
        0 -1 6201 -2.3409480229020119e-02</internalNodes>
      <leafValues>
        6.5622901916503906e-01 -2.0857723057270050e-01</leafValues></_>
    <_>
      <internalNodes>
        0 -1 151880 -3.6088423803448677e-03</internalNodes>
      <leafValues>
        2.7747628092765808e-01 -3.9411661028862000e-01</leafValues></_>
    <_>
      <internalNodes>
        0 -1 29924 3.3306047320365906e-02</internalNodes>
      <leafValues>
        -1.3651815056800842e-01 6.4304542541503906e-01</leafValues></_>
    <_>
      <internalNodes>
        0 -1 80693 -1.2734247371554375e-02</internalNodes>
      <leafValues>
        -7.2444379329681396e-01 1.2921604514122009e-01</leafValues></_>
    <_>
      <internalNodes>
        0 -1 11380 1.0106436163187027e-01</internalNodes>
      <leafValues>
        1.2298969179391861e-01 -7.4136102199554443e-01</leafValues></_>
    <_>
      <internalNodes>
        0 -1 87905 -1.5913917124271393e-01</internalNodes>
      <leafValues>
        7.5447037816047668e-02 -8.8970124721527100e-01</leafValues></_>
    <_>
      <internalNodes>
        0 -1 155210 -7.2885262779891491e-03</internalNodes>
      <leafValues>
        -8.8323616981506348e-01 6.7388840019702911e-02</leafValues></_>
    <_>
      <internalNodes>
        0 -1 133548 1.3474233448505402e-02</internalNodes>
      <leafValues>
        -1.8376787006855011e-01 5.2438855171203613e-01</leafValues></_>
    <_>
      <internalNodes>
        0 -1 86852 2.2167280316352844e-02</internalNodes>
      <leafValues>
        -1.9062599539756775e-01 4.5114737749099731e-01</leafValues></_>
    <_>
      <internalNodes>
        0 -1 157612 -1.7462866380810738e-02</internalNodes>
      <leafValues>
        -5.5131250619888306e-01 1.6647946834564209e-01</leafValues></_>
    <_>
      <internalNodes>
        0 -1 93377 -5.1020711660385132e-02</internalNodes>
      <leafValues>
        6.7277586460113525e-01 -1.4108203351497650e-01</leafValues></_></weakClassifiers></stage2>
</opencv_storage>
