<?xml version="1.0"?>
<opencv_storage>
<stage1>
  <maxWeakCount>7</maxWeakCount>
  <stageThreshold>-1.1251245737075806e+00</stageThreshold>
  <weakClassifiers>
    <_>
      <internalNodes>
        0 -1 93743 2.4277687072753906e-02</internalNodes>
      <leafValues>
        -7.5187969207763672e-01 9.2000001668930054e-01</leafValues></_>
    <_>
      <internalNodes>
        0 -1 112082 5.0334472209215164e-02</internalNodes>
      <leafValues>
        -6.3825446367263794e-01 2.6121547818183899e-01</leafValues></_>
    <_>
      <internalNodes>
        0 -1 1250 -7.8085251152515411e-03</internalNodes>
      <leafValues>
        3.0991744995117188e-01 -6.2480092048645020e-01</leafValues></_>
    <_>
      <internalNodes>
        0 -1 111032 6.1073135584592819e-03</internalNodes>
      <leafValues>
        -2.8466498851776123e-01 6.4057230949401855e-01</leafValues></_>
    <_>
      <internalNodes>
        0 -1 111037 -5.8252783492207527e-03</internalNodes>
      <leafValues>
        7.6261156797409058e-01 -2.5769880414009094e-01</leafValues></_>
    <_>
      <internalNodes>
        0 -1 6895 -1.0920308530330658e-02</internalNodes>
      <leafValues>
        4.1962215304374695e-01 -4.2695054411888123e-01</leafValues></_>
    <_>
      <internalNodes>
        0 -1 90378 4.8085827380418777e-02</internalNodes>
      <leafValues>
        1.8724505603313446e-01 -9.8866695165634155e-01</leafValues></_></weakClassifiers></stage1>
</opencv_storage>
