<?xml version="1.0"?>
<opencv_storage>
<stage11>
  <maxWeakCount>10</maxWeakCount>
  <stageThreshold>-1.4016234874725342e+00</stageThreshold>
  <weakClassifiers>
    <_>
      <internalNodes>
        0 -1 68979 -4.4633321464061737e-02</internalNodes>
      <leafValues>
        1. -7.7215188741683960e-01</leafValues></_>
    <_>
      <internalNodes>
        0 -1 79394 -1.3025525026023388e-02</internalNodes>
      <leafValues>
        -4.1749534010887146e-01 7.9558104276657104e-01</leafValues></_>
    <_>
      <internalNodes>
        0 -1 101199 -9.5313601195812225e-03</internalNodes>
      <leafValues>
        7.7714306116104126e-01 -2.0147226750850677e-01</leafValues></_>
    <_>
      <internalNodes>
        0 -1 138854 4.8512988723814487e-03</internalNodes>
      <leafValues>
        -4.4172698259353638e-01 4.0944927930831909e-01</leafValues></_>
    <_>
      <internalNodes>
        0 -1 111057 -7.0116706192493439e-03</internalNodes>
      <leafValues>
        8.6025696992874146e-01 -2.3590569198131561e-01</leafValues></_>
    <_>
      <internalNodes>
        0 -1 12377 1.4396836049854755e-02</internalNodes>
      <leafValues>
        -2.2083485126495361e-01 7.3505854606628418e-01</leafValues></_>
    <_>
      <internalNodes>
        0 -1 107794 -1.1901439726352692e-01</internalNodes>
      <leafValues>
        4.5561584830284119e-01 -3.9639446139335632e-01</leafValues></_>
    <_>
      <internalNodes>
        0 -1 45503 -5.6845438480377197e-01</internalNodes>
      <leafValues>
        -8.5361951589584351e-01 2.4492666125297546e-01</leafValues></_>
    <_>
      <internalNodes>
        0 -1 94727 -4.8117823898792267e-03</internalNodes>
      <leafValues>
        7.9945915937423706e-01 -2.6044252514839172e-01</leafValues></_>
    <_>
      <internalNodes>
        0 -1 153798 -4.9061363097280264e-04</internalNodes>
      <leafValues>
        4.4869762659072876e-01 -4.1979002952575684e-01</leafValues></_></weakClassifiers></stage11>
</opencv_storage>
