<?xml version="1.0"?>
<opencv_storage>
<cascade>
  <stageType>BOOST</stageType>
  <featureType>HAAR</featureType>
  <height>24</height>
  <width>24</width>
  <stageParams>
    <boostType>GAB</boostType>
    <minHitRate>9.9900001287460327e-01</minHitRate>
    <maxFalseAlarm>2.5000000000000000e-01</maxFalseAlarm>
    <weightTrimRate>9.4999999999999996e-01</weightTrimRate>
    <maxDepth>1</maxDepth>
    <maxWeakCount>100</maxWeakCount></stageParams>
  <featureParams>
    <maxCatCount>0</maxCatCount>
    <featSize>1</featSize>
    <mode>BASIC</mode></featureParams>
  <stageNum>12</stageNum>
  <stages>
    <!-- stage 0 -->
    <_>
      <maxWeakCount>11</maxWeakCount>
      <stageThreshold>-1.8679829835891724e+00</stageThreshold>
      <weakClassifiers>
        <_>
          <internalNodes>
            0 -1 9 -9.4084215164184570e-01</internalNodes>
          <leafValues>
            -9.4900852441787720e-01 -1.8875502049922943e-01</leafValues></_>
        <_>
          <internalNodes>
            0 -1 111 -1.1911626160144806e-01</internalNodes>
          <leafValues>
            -8.6807674169540405e-01 1.3190957903862000e-01</leafValues></_>
        <_>
          <internalNodes>
            0 -1 360 -3.8475688546895981e-02</internalNodes>
          <leafValues>
            -8.7839728593826294e-01 1.5182305872440338e-01</leafValues></_>
        <_>
          <internalNodes>
            0 -1 82 -1.3001486659049988e-01</internalNodes>
          <leafValues>
            -8.8427537679672241e-01 1.4914146065711975e-01</leafValues></_>
        <_>
          <internalNodes>
            0 -1 271 -4.3340563774108887e-02</internalNodes>
          <leafValues>
            4.8020094633102417e-01 -2.8484135866165161e-01</leafValues></_>
        <_>
          <internalNodes>
            0 -1 168 8.5666470229625702e-02</internalNodes>
          <leafValues>
            -1.4910709857940674e-01 8.2534056901931763e-01</leafValues></_>
        <_>
          <internalNodes>
            0 -1 8 -1.8776258826255798e-01</internalNodes>
          <leafValues>
            -8.6653989553451538e-01 1.9585770368576050e-01</leafValues></_>
        <_>
          <internalNodes>
            0 -1 328 -2.2534186020493507e-02</internalNodes>
          <leafValues>
            7.3394995927810669e-01 -2.2024624049663544e-01</leafValues></_>
        <_>
          <internalNodes>
            0 -1 80 -2.3469734191894531e-01</internalNodes>
          <leafValues>
            -5.8746814727783203e-01 2.2858855128288269e-01</leafValues></_>
        <_>
          <internalNodes>
            0 -1 368 -5.7429419830441475e-03</internalNodes>
          <leafValues>
            1.7969508469104767e-01 -6.6687005758285522e-01</leafValues></_>
        <_>
          <internalNodes>
            0 -1 204 7.0863440632820129e-02</internalNodes>
          <leafValues>
            -1.7157378792762756e-01 7.7468234300613403e-01</leafValues></_></weakClassifiers></_>
    <!-- stage 1 -->
    <_>
      <maxWeakCount>20</maxWeakCount>
      <stageThreshold>-1.6602528095245361e+00</stageThreshold>
      <weakClassifiers>
        <_>
          <internalNodes>
            0 -1 178 -1.7446165904402733e-02</internalNodes>
          <leafValues>
            -7.6777249574661255e-01 6.4835166931152344e-01</leafValues></_>
        <_>
          <internalNodes>
            0 -1 66 4.5632999390363693e-02</internalNodes>
          <leafValues>
            -3.9787849783897400e-01 4.7701001167297363e-01</leafValues></_>
        <_>
          <internalNodes>
            0 -1 12 -1.3881209492683411e-01</internalNodes>
          <leafValues>
            -8.2907265424728394e-01 1.6719476878643036e-01</leafValues></_>
        <_>
          <internalNodes>
            0 -1 108 -1.0400003194808960e-01</internalNodes>
          <leafValues>
            -7.0494425296783447e-01 1.4789722859859467e-01</leafValues></_>
        <_>
          <internalNodes>
            0 -1 154 2.7123413980007172e-02</internalNodes>
          <leafValues>
            -1.6249208152294159e-01 6.2678033113479614e-01</leafValues></_>
        <_>
          <internalNodes>
            0 -1 207 -3.8511369377374649e-02</internalNodes>
          <leafValues>
            7.2687798738479614e-01 -1.5102021396160126e-01</leafValues></_>
        <_>
          <internalNodes>
            0 -1 349 2.7666956186294556e-02</internalNodes>
          <leafValues>
            -8.3921402692794800e-02 6.9144219160079956e-01</leafValues></_>
        <_>
          <internalNodes>
            0 -1 165 2.4632325395941734e-02</internalNodes>
          <leafValues>
            -1.1716476082801819e-01 7.0998668670654297e-01</leafValues></_>
        <_>
          <internalNodes>
            0 -1 270 -3.0752755701541901e-02</internalNodes>
          <leafValues>
            4.7095638513565063e-01 -1.8483780324459076e-01</leafValues></_>
        <_>
          <internalNodes>
            0 -1 115 3.7261612713336945e-02</internalNodes>
          <leafValues>
            -1.4967606961727142e-01 6.0675805807113647e-01</leafValues></_>
        <_>
          <internalNodes>
            0 -1 146 3.1303070485591888e-02</internalNodes>
          <leafValues>
            -1.5473282337188721e-01 5.3464704751968384e-01</leafValues></_>
        <_>
          <internalNodes>
            0 -1 64 -6.9007659330964088e-03</internalNodes>
          <leafValues>
            -6.7997688055038452e-01 1.6818359494209290e-01</leafValues></_>
        <_>
          <internalNodes>
            0 -1 79 -1.9558131694793701e-01</internalNodes>
          <leafValues>
            -5.1311653852462769e-01 1.4772284030914307e-01</leafValues></_>
        <_>
          <internalNodes>
            0 -1 30 -5.5457770824432373e-02</internalNodes>
          <leafValues>
            1.1579303443431854e-01 -8.8127285242080688e-01</leafValues></_>
        <_>
          <internalNodes>
            0 -1 54 -6.5874308347702026e-03</internalNodes>
          <leafValues>
            3.0927753448486328e-01 -3.2123878598213196e-01</leafValues></_>
        <_>
          <internalNodes>
            0 -1 265 -5.4559011012315750e-02</internalNodes>
          <leafValues>
            6.9069540500640869e-01 -1.2239386141300201e-01</leafValues></_>
        <_>
          <internalNodes>
            0 -1 226 5.3446047008037567e-02</internalNodes>
          <leafValues>
            -1.4229226112365723e-01 5.5081176757812500e-01</leafValues></_>
        <_>
          <internalNodes>
            0 -1 97 -8.2657560706138611e-02</internalNodes>
          <leafValues>
            -6.3350421190261841e-01 1.5238490700721741e-01</leafValues></_>
        <_>
          <internalNodes>
            0 -1 199 -4.8855118453502655e-02</internalNodes>
          <leafValues>
            6.4844393730163574e-01 -1.4389729499816895e-01</leafValues></_>
        <_>
          <internalNodes>
            0 -1 303 2.7696464210748672e-02</internalNodes>
          <leafValues>
            -1.9421975314617157e-01 4.5883071422576904e-01</leafValues></_></weakClassifiers></_>
    <!-- stage 2 -->
    <_>
      <maxWeakCount>19</maxWeakCount>
      <stageThreshold>-1.7139608860015869e+00</stageThreshold>
      <weakClassifiers>
        <_>
          <internalNodes>
            0 -1 317 -4.4364005327224731e-02</internalNodes>
          <leafValues>
            6.4814811944961548e-01 -7.7493304014205933e-01</leafValues></_>
        <_>
          <internalNodes>
            0 -1 116 3.9617165923118591e-02</internalNodes>
          <leafValues>
            -3.9312604069709778e-01 5.5858844518661499e-01</leafValues></_>
        <_>
          <internalNodes>
            0 -1 167 7.6946079730987549e-02</internalNodes>
          <leafValues>
            -1.4346519112586975e-01 8.3776354789733887e-01</leafValues></_>
        <_>
          <internalNodes>
            0 -1 6 -2.6956990361213684e-01</internalNodes>
          <leafValues>
            -9.0278095006942749e-01 1.4634983241558075e-01</leafValues></_>
        <_>
          <internalNodes>
            0 -1 372 -8.0054417252540588e-02</internalNodes>
          <leafValues>
            -7.3634344339370728e-01 2.1822860836982727e-01</leafValues></_>
        <_>
          <internalNodes>
            0 -1 138 1.6736710071563721e-01</internalNodes>
          <leafValues>
            1.0446596145629883e-01 -8.4862416982650757e-01</leafValues></_>
        <_>
          <internalNodes>
            0 -1 151 3.5683095455169678e-02</internalNodes>
          <leafValues>
            -2.0870532095432281e-01 7.2843348979949951e-01</leafValues></_>
        <_>
          <internalNodes>
            0 -1 357 -1.9375229254364967e-02</internalNodes>
          <leafValues>
            -7.8434956073760986e-01 1.8658544123172760e-01</leafValues></_>
        <_>
          <internalNodes>
            0 -1 21 -2.3409480229020119e-02</internalNodes>
          <leafValues>
            6.5622901916503906e-01 -2.0857723057270050e-01</leafValues></_>
        <_>
          <internalNodes>
            0 -1 359 -3.6088423803448677e-03</internalNodes>
          <leafValues>
            2.7747628092765808e-01 -3.9411661028862000e-01</leafValues></_>
        <_>
          <internalNodes>
            0 -1 68 3.3306047320365906e-02</internalNodes>
          <leafValues>
            -1.3651815056800842e-01 6.4304542541503906e-01</leafValues></_>
        <_>
          <internalNodes>
            0 -1 189 -1.2734247371554375e-02</internalNodes>
          <leafValues>
            -7.2444379329681396e-01 1.2921604514122009e-01</leafValues></_>
        <_>
          <internalNodes>
            0 -1 29 1.0106436163187027e-01</internalNodes>
          <leafValues>
            1.2298969179391861e-01 -7.4136102199554443e-01</leafValues></_>
        <_>
          <internalNodes>
            0 -1 213 -1.5913917124271393e-01</internalNodes>
          <leafValues>
            7.5447037816047668e-02 -8.8970124721527100e-01</leafValues></_>
        <_>
          <internalNodes>
            0 -1 364 -7.2885262779891491e-03</internalNodes>
          <leafValues>
            -8.8323616981506348e-01 6.7388840019702911e-02</leafValues></_>
        <_>
          <internalNodes>
            0 -1 320 1.3474233448505402e-02</internalNodes>
          <leafValues>
            -1.8376787006855011e-01 5.2438855171203613e-01</leafValues></_>
        <_>
          <internalNodes>
            0 -1 212 2.2167280316352844e-02</internalNodes>
          <leafValues>
            -1.9062599539756775e-01 4.5114737749099731e-01</leafValues></_>
        <_>
          <internalNodes>
            0 -1 369 -1.7462866380810738e-02</internalNodes>
          <leafValues>
            -5.5131250619888306e-01 1.6647946834564209e-01</leafValues></_>
        <_>
          <internalNodes>
            0 -1 231 -5.1020711660385132e-02</internalNodes>
          <leafValues>
            6.7277586460113525e-01 -1.4108203351497650e-01</leafValues></_></weakClassifiers></_>
    <!-- stage 3 -->
    <_>
      <maxWeakCount>25</maxWeakCount>
      <stageThreshold>-1.5220948457717896e+00</stageThreshold>
      <weakClassifiers>
        <_>
          <internalNodes>
            0 -1 145 -8.2407528534531593e-03</internalNodes>
          <leafValues>
            -7.5431412458419800e-01 9.5833331346511841e-01</leafValues></_>
        <_>
          <internalNodes>
            0 -1 325 -2.3109849542379379e-02</internalNodes>
          <leafValues>
            2.5221744179725647e-01 -4.2926272749900818e-01</leafValues></_>
        <_>
          <internalNodes>
            0 -1 187 -9.5389604568481445e-02</internalNodes>
          <leafValues>
            -5.5205541849136353e-01 1.4597402513027191e-01</leafValues></_>
        <_>
          <internalNodes>
            0 -1 221 -6.4325816929340363e-03</internalNodes>
          <leafValues>
            -5.8603423833847046e-01 1.3565264642238617e-01</leafValues></_>
        <_>
          <internalNodes>
            0 -1 26 3.5650397185236216e-03</internalNodes>
          <leafValues>
            1.4196063578128815e-01 -5.3052669763565063e-01</leafValues></_>
        <_>
          <internalNodes>
            0 -1 174 6.2952905893325806e-02</internalNodes>
          <leafValues>
            -8.6116723716259003e-02 7.5341629981994629e-01</leafValues></_>
        <_>
          <internalNodes>
            0 -1 22 -1.1853056028485298e-02</internalNodes>
          <leafValues>
            -1.1760766804218292e-01 6.1151659488677979e-01</leafValues></_>
        <_>
          <internalNodes>
            0 -1 179 5.3931809961795807e-02</internalNodes>
          <leafValues>
            -1.0730742663145065e-01 6.5434950590133667e-01</leafValues></_>
        <_>
          <internalNodes>
            0 -1 230 -2.0211458206176758e-02</internalNodes>
          <leafValues>
            -1.1191836744546890e-01 6.3921380043029785e-01</leafValues></_>
        <_>
          <internalNodes>
            0 -1 248 1.7747622728347778e-01</internalNodes>
          <leafValues>
            1.0436817258596420e-01 -8.4855663776397705e-01</leafValues></_>
        <_>
          <internalNodes>
            0 -1 81 -2.8805583715438843e-03</internalNodes>
          <leafValues>
            3.0771985650062561e-01 -2.5989228487014771e-01</leafValues></_>
        <_>
          <internalNodes>
            0 -1 40 3.4773789811879396e-03</internalNodes>
          <leafValues>
            9.5915302634239197e-02 -7.0528078079223633e-01</leafValues></_>
        <_>
          <internalNodes>
            0 -1 147 4.9268774688243866e-02</internalNodes>
          <leafValues>
            -1.2122134864330292e-01 6.6328722238540649e-01</leafValues></_>
        <_>
          <internalNodes>
            0 -1 343 1.8835395574569702e-02</internalNodes>
          <leafValues>
            -8.4660895168781281e-02 7.2029948234558105e-01</leafValues></_>
        <_>
          <internalNodes>
            0 -1 110 -3.2422814518213272e-02</internalNodes>
          <leafValues>
            -8.5280698537826538e-01 7.9784184694290161e-02</leafValues></_>
        <_>
          <internalNodes>
            0 -1 167 7.6448932290077209e-02</internalNodes>
          <leafValues>
            -1.2849704921245575e-01 6.0414880514144897e-01</leafValues></_>
        <_>
          <internalNodes>
            0 -1 238 1.8791664391756058e-02</internalNodes>
          <leafValues>
            1.3156574964523315e-01 -5.8018112182617188e-01</leafValues></_>
        <_>
          <internalNodes>
            0 -1 228 -2.9951701872050762e-03</internalNodes>
          <leafValues>
            3.2485345005989075e-01 -2.0070920884609222e-01</leafValues></_>
        <_>
          <internalNodes>
            0 -1 186 3.1817317008972168e-02</internalNodes>
          <leafValues>
            -1.1752859503030777e-01 5.4516446590423584e-01</leafValues></_>
        <_>
          <internalNodes>
            0 -1 38 -1.4188149943947792e-03</internalNodes>
          <leafValues>
            -6.5401542186737061e-01 1.0965172946453094e-01</leafValues></_>
        <_>
          <internalNodes>
            0 -1 5 3.7504002451896667e-01</internalNodes>
          <leafValues>
            6.2268745154142380e-02 -8.6560922861099243e-01</leafValues></_>
        <_>
          <internalNodes>
            0 -1 377 -2.5351317599415779e-03</internalNodes>
          <leafValues>
            8.7262161076068878e-02 -6.2875252962112427e-01</leafValues></_>
        <_>
          <internalNodes>
            0 -1 277 -2.6767784729599953e-02</internalNodes>
          <leafValues>
            7.1344649791717529e-01 -1.0550190508365631e-01</leafValues></_>
        <_>
          <internalNodes>
            0 -1 391 -1.0027708485722542e-03</internalNodes>
          <leafValues>
            -5.1519429683685303e-01 1.3932234048843384e-01</leafValues></_>
        <_>
          <internalNodes>
            0 -1 376 -3.5837627947330475e-02</internalNodes>
          <leafValues>
            -6.3050127029418945e-01 9.7088135778903961e-02</leafValues></_></weakClassifiers></_>
    <!-- stage 4 -->
    <_>
      <maxWeakCount>37</maxWeakCount>
      <stageThreshold>-1.5818445682525635e+00</stageThreshold>
      <weakClassifiers>
        <_>
          <internalNodes>
            0 -1 118 -2.0596385002136230e-03</internalNodes>
          <leafValues>
            -7.5730735063552856e-01 4.0000000596046448e-01</leafValues></_>
        <_>
          <internalNodes>
            0 -1 233 -2.6453711092472076e-02</internalNodes>
          <leafValues>
            4.8924776911735535e-01 -3.0528941750526428e-01</leafValues></_>
        <_>
          <internalNodes>
            0 -1 334 -1.3839097693562508e-02</internalNodes>
          <leafValues>
            -6.7917287349700928e-01 1.0386396944522858e-01</leafValues></_>
        <_>
          <internalNodes>
            0 -1 206 6.2367659062147141e-02</internalNodes>
          <leafValues>
            -1.2008536607027054e-01 6.2380927801132202e-01</leafValues></_>
        <_>
          <internalNodes>
            0 -1 134 -4.9968017265200615e-03</internalNodes>
          <leafValues>
            1.5274046361446381e-01 -5.8241897821426392e-01</leafValues></_>
        <_>
          <internalNodes>
            0 -1 217 5.4121958091855049e-03</internalNodes>
          <leafValues>
            -2.5549805164337158e-01 2.5161400437355042e-01</leafValues></_>
        <_>
          <internalNodes>
            0 -1 316 -2.7811437845230103e-02</internalNodes>
          <leafValues>
            6.5875303745269775e-01 -6.9232881069183350e-02</leafValues></_>
        <_>
          <internalNodes>
            0 -1 195 -2.2899198532104492e-01</internalNodes>
          <leafValues>
            -8.5674321651458740e-01 9.4848826527595520e-02</leafValues></_>
        <_>
          <internalNodes>
            0 -1 185 -7.5367458164691925e-02</internalNodes>
          <leafValues>
            -4.3502411246299744e-01 1.0746217519044876e-01</leafValues></_>
        <_>
          <internalNodes>
            0 -1 269 -4.3876100331544876e-02</internalNodes>
          <leafValues>
            6.0206156969070435e-01 -1.1339990049600601e-01</leafValues></_>
        <_>
          <internalNodes>
            0 -1 268 -1.6292618587613106e-02</internalNodes>
          <leafValues>
            2.5649881362915039e-01 -2.3571528494358063e-01</leafValues></_>
        <_>
          <internalNodes>
            0 -1 43 1.3467146083712578e-02</internalNodes>
          <leafValues>
            1.1071445047855377e-01 -4.7751054167747498e-01</leafValues></_>
        <_>
          <internalNodes>
            0 -1 49 -3.9105523377656937e-02</internalNodes>
          <leafValues>
            5.2740389108657837e-01 -1.2477423995733261e-01</leafValues></_>
        <_>
          <internalNodes>
            0 -1 92 -2.0434197038412094e-02</internalNodes>
          <leafValues>
            -6.4457291364669800e-01 1.0462743788957596e-01</leafValues></_>
        <_>
          <internalNodes>
            0 -1 273 -5.8220557868480682e-02</internalNodes>
          <leafValues>
            6.2089568376541138e-01 -9.8586961627006531e-02</leafValues></_>
        <_>
          <internalNodes>
            0 -1 318 -2.4154525250196457e-02</internalNodes>
          <leafValues>
            6.5874212980270386e-01 -7.7251322567462921e-02</leafValues></_>
        <_>
          <internalNodes>
            0 -1 70 -7.5411760807037354e-01</internalNodes>
          <leafValues>
            -7.0979809761047363e-01 9.1196238994598389e-02</leafValues></_>
        <_>
          <internalNodes>
            0 -1 27 -1.0335180908441544e-01</internalNodes>
          <leafValues>
            -6.7283624410629272e-01 6.9426313042640686e-02</leafValues></_>
        <_>
          <internalNodes>
            0 -1 72 -5.9017453342676163e-02</internalNodes>
          <leafValues>
            6.6052156686782837e-01 -9.4905957579612732e-02</leafValues></_>
        <_>
          <internalNodes>
            0 -1 67 -4.0349036455154419e-02</internalNodes>
          <leafValues>
            8.2365885376930237e-02 -7.4817287921905518e-01</leafValues></_>
        <_>
          <internalNodes>
            0 -1 363 -3.1946539878845215e-02</internalNodes>
          <leafValues>
            -7.7197510004043579e-01 5.6288819760084152e-02</leafValues></_>
        <_>
          <internalNodes>
            0 -1 90 1.4469126239418983e-02</internalNodes>
          <leafValues>
            -1.5370187163352966e-01 3.5744208097457886e-01</leafValues></_>
        <_>
          <internalNodes>
            0 -1 380 -1.3083245605230331e-02</internalNodes>
          <leafValues>
            -7.1185183525085449e-01 8.6510524153709412e-02</leafValues></_>
        <_>
          <internalNodes>
            0 -1 129 1.7754139844328165e-03</internalNodes>
          <leafValues>
            5.8352384716272354e-02 -7.1089851856231689e-01</leafValues></_>
        <_>
          <internalNodes>
            0 -1 330 1.4330802485346794e-02</internalNodes>
          <leafValues>
            -1.0385562479496002e-01 5.5492174625396729e-01</leafValues></_>
        <_>
          <internalNodes>
            0 -1 289 -2.8506243601441383e-02</internalNodes>
          <leafValues>
            4.7711792588233948e-01 -1.1511161923408508e-01</leafValues></_>
        <_>
          <internalNodes>
            0 -1 264 -2.1085119806230068e-03</internalNodes>
          <leafValues>
            7.8184723854064941e-02 -6.5435987710952759e-01</leafValues></_>
        <_>
          <internalNodes>
            0 -1 77 -2.3957190569490194e-03</internalNodes>
          <leafValues>
            -5.1048469543457031e-01 8.3715140819549561e-02</leafValues></_>
        <_>
          <internalNodes>
            0 -1 393 -2.6133453939110041e-03</internalNodes>
          <leafValues>
            -7.0544046163558960e-01 6.0879185795783997e-02</leafValues></_>
        <_>
          <internalNodes>
            0 -1 56 -2.5468403473496437e-03</internalNodes>
          <leafValues>
            7.9653710126876831e-02 -5.7466667890548706e-01</leafValues></_>
        <_>
          <internalNodes>
            0 -1 366 -3.3734058961272240e-03</internalNodes>
          <leafValues>
            -7.2862446308135986e-01 6.0096655040979385e-02</leafValues></_>
        <_>
          <internalNodes>
            0 -1 191 -9.4474041834473610e-03</internalNodes>
          <leafValues>
            5.6722229719161987e-01 -1.0399346798658371e-01</leafValues></_>
        <_>
          <internalNodes>
            0 -1 342 8.4337424486875534e-03</internalNodes>
          <leafValues>
            -9.3408003449440002e-02 5.4536294937133789e-01</leafValues></_>
        <_>
          <internalNodes>
            0 -1 301 -4.4070597738027573e-02</internalNodes>
          <leafValues>
            6.5326088666915894e-01 -6.9639898836612701e-02</leafValues></_>
        <_>
          <internalNodes>
            0 -1 155 -2.0704627037048340e-02</internalNodes>
          <leafValues>
            6.5639621019363403e-01 -7.4120141565799713e-02</leafValues></_>
        <_>
          <internalNodes>
            0 -1 177 1.9212484359741211e-02</internalNodes>
          <leafValues>
            -1.2255638092756271e-01 3.9098027348518372e-01</leafValues></_>
        <_>
          <internalNodes>
            0 -1 157 -2.5271866470575333e-02</internalNodes>
          <leafValues>
            -1.1662907898426056e-01 5.1308703422546387e-01</leafValues></_></weakClassifiers></_>
    <!-- stage 5 -->
    <_>
      <maxWeakCount>36</maxWeakCount>
      <stageThreshold>-1.6322576999664307e+00</stageThreshold>
      <weakClassifiers>
        <_>
          <internalNodes>
            0 -1 208 -9.1200038790702820e-02</internalNodes>
          <leafValues>
            4.2424243688583374e-01 -7.5301384925842285e-01</leafValues></_>
        <_>
          <internalNodes>
            0 -1 181 6.2660560011863708e-02</internalNodes>
          <leafValues>
            -3.4615939855575562e-01 2.6539921760559082e-01</leafValues></_>
        <_>
          <internalNodes>
            0 -1 98 3.5632532089948654e-02</internalNodes>
          <leafValues>
            -1.3842487335205078e-01 5.0110334157943726e-01</leafValues></_>
        <_>
          <internalNodes>
            0 -1 378 -1.4697085134685040e-03</internalNodes>
          <leafValues>
            -6.9171589612960815e-01 7.9654134809970856e-02</leafValues></_>
        <_>
          <internalNodes>
            0 -1 135 -4.3409476056694984e-03</internalNodes>
          <leafValues>
            -7.9304933547973633e-01 9.3867741525173187e-02</leafValues></_>
        <_>
          <internalNodes>
            0 -1 210 -7.9067908227443695e-02</internalNodes>
          <leafValues>
            -3.5191607475280762e-01 1.4271582663059235e-01</leafValues></_>
        <_>
          <internalNodes>
            0 -1 266 -4.7515571117401123e-02</internalNodes>
          <leafValues>
            3.6922603845596313e-01 -1.5267761051654816e-01</leafValues></_>
        <_>
          <internalNodes>
            0 -1 326 2.5492075830698013e-02</internalNodes>
          <leafValues>
            -1.1510972678661346e-01 4.8045173287391663e-01</leafValues></_>
        <_>
          <internalNodes>
            0 -1 384 4.2366096749901772e-03</internalNodes>
          <leafValues>
            9.7318075597286224e-02 -5.6409823894500732e-01</leafValues></_>
        <_>
          <internalNodes>
            0 -1 14 -4.0163759142160416e-02</internalNodes>
          <leafValues>
            8.7040200829505920e-02 -5.6316268444061279e-01</leafValues></_>
        <_>
          <internalNodes>
            0 -1 73 -8.9816953986883163e-03</internalNodes>
          <leafValues>
            -1.0120050609111786e-01 5.0492078065872192e-01</leafValues></_>
        <_>
          <internalNodes>
            0 -1 274 -6.8185508251190186e-02</internalNodes>
          <leafValues>
            7.3094338178634644e-01 -7.2899937629699707e-02</leafValues></_>
        <_>
          <internalNodes>
            0 -1 7 -2.7380388975143433e-01</internalNodes>
          <leafValues>
            -7.6126205921173096e-01 7.4871428310871124e-02</leafValues></_>
        <_>
          <internalNodes>
            0 -1 4 3.0828133225440979e-02</internalNodes>
          <leafValues>
            6.3004791736602783e-02 -7.5797069072723389e-01</leafValues></_>
        <_>
          <internalNodes>
            0 -1 215 -1.3095665723085403e-02</internalNodes>
          <leafValues>
            3.5126450657844543e-01 -1.4894931018352509e-01</leafValues></_>
        <_>
          <internalNodes>
            0 -1 83 1.8284589052200317e-02</internalNodes>
          <leafValues>
            -1.8932421505451202e-01 2.8182756900787354e-01</leafValues></_>
        <_>
          <internalNodes>
            0 -1 367 -2.5438658893108368e-02</internalNodes>
          <leafValues>
            -6.4974671602249146e-01 7.8545629978179932e-02</leafValues></_>
        <_>
          <internalNodes>
            0 -1 283 7.1934447623789310e-03</internalNodes>
          <leafValues>
            -2.8448149561882019e-01 2.2119788825511932e-01</leafValues></_>
        <_>
          <internalNodes>
            0 -1 373 -4.3418075889348984e-02</internalNodes>
          <leafValues>
            -4.9175041913986206e-01 1.0971300303936005e-01</leafValues></_>
        <_>
          <internalNodes>
            0 -1 176 2.7399370446801186e-02</internalNodes>
          <leafValues>
            -1.1361330002546310e-01 4.7711431980133057e-01</leafValues></_>
        <_>
          <internalNodes>
            0 -1 144 8.7367761880159378e-03</internalNodes>
          <leafValues>
            -1.3401773571968079e-01 4.7172948718070984e-01</leafValues></_>
        <_>
          <internalNodes>
            0 -1 245 -5.5886972695589066e-03</internalNodes>
          <leafValues>
            1.0089588910341263e-01 -5.6053400039672852e-01</leafValues></_>
        <_>
          <internalNodes>
            0 -1 125 2.1682951599359512e-02</internalNodes>
          <leafValues>
            -9.3435555696487427e-02 6.2556511163711548e-01</leafValues></_>
        <_>
          <internalNodes>
            0 -1 194 -6.4554940909147263e-03</internalNodes>
          <leafValues>
            -3.8752827048301697e-01 1.3593551516532898e-01</leafValues></_>
        <_>
          <internalNodes>
            0 -1 280 -6.6853210330009460e-02</internalNodes>
          <leafValues>
            -5.1868712902069092e-01 9.4926886260509491e-02</leafValues></_>
        <_>
          <internalNodes>
            0 -1 220 -7.8379204496741295e-03</internalNodes>
          <leafValues>
            7.0187687873840332e-01 -8.5929937660694122e-02</leafValues></_>
        <_>
          <internalNodes>
            0 -1 201 -1.1714701540768147e-02</internalNodes>
          <leafValues>
            -7.6575748622417450e-02 5.7461172342300415e-01</leafValues></_>
        <_>
          <internalNodes>
            0 -1 319 -8.1218421459197998e-02</internalNodes>
          <leafValues>
            -5.2567893266677856e-01 1.0112699866294861e-01</leafValues></_>
        <_>
          <internalNodes>
            0 -1 127 -1.6521917656064034e-02</internalNodes>
          <leafValues>
            1.6797900199890137e-01 -3.2239487767219543e-01</leafValues></_>
        <_>
          <internalNodes>
            0 -1 114 -1.3376937247812748e-02</internalNodes>
          <leafValues>
            3.3587625622749329e-01 -1.5335248410701752e-01</leafValues></_>
        <_>
          <internalNodes>
            0 -1 356 7.5735962018370628e-03</internalNodes>
          <leafValues>
            -1.4277474582195282e-01 3.6006733775138855e-01</leafValues></_>
        <_>
          <internalNodes>
            0 -1 327 3.5626240074634552e-02</internalNodes>
          <leafValues>
            -1.4459531009197235e-01 3.9230489730834961e-01</leafValues></_>
        <_>
          <internalNodes>
            0 -1 354 -1.4691099524497986e-02</internalNodes>
          <leafValues>
            -7.4033898115158081e-01 7.3605813086032867e-02</leafValues></_>
        <_>
          <internalNodes>
            0 -1 95 3.0505072325468063e-02</internalNodes>
          <leafValues>
            -2.1827262639999390e-01 2.3102834820747375e-01</leafValues></_>
        <_>
          <internalNodes>
            0 -1 197 3.5601288080215454e-02</internalNodes>
          <leafValues>
            -1.4406387507915497e-01 3.9569324254989624e-01</leafValues></_>
        <_>
          <internalNodes>
            0 -1 102 -2.2332081571221352e-03</internalNodes>
          <leafValues>
            9.0325944125652313e-02 -5.4512256383895874e-01</leafValues></_></weakClassifiers></_>
    <!-- stage 6 -->
    <_>
      <maxWeakCount>46</maxWeakCount>
      <stageThreshold>-1.7755744457244873e+00</stageThreshold>
      <weakClassifiers>
        <_>
          <internalNodes>
            0 -1 112 1.5940377116203308e-01</internalNodes>
          <leafValues>
            -7.5228005647659302e-01 3.5294118523597717e-01</leafValues></_>
        <_>
          <internalNodes>
            0 -1 308 -4.6922616660594940e-02</internalNodes>
          <leafValues>
            -6.2407279014587402e-01 -9.7326643764972687e-02</leafValues></_>
        <_>
          <internalNodes>
            0 -1 32 -6.3921093940734863e-02</internalNodes>
          <leafValues>
            6.6251814365386963e-02 -7.1226638555526733e-01</leafValues></_>
        <_>
          <internalNodes>
            0 -1 163 2.4959547445178032e-02</internalNodes>
          <leafValues>
            1.2306883931159973e-01 -6.4893400669097900e-01</leafValues></_>
        <_>
          <internalNodes>
            0 -1 87 9.2977182939648628e-03</internalNodes>
          <leafValues>
            -1.6595789790153503e-01 3.2256203889846802e-01</leafValues></_>
        <_>
          <internalNodes>
            0 -1 385 -2.8965706005692482e-03</internalNodes>
          <leafValues>
            -6.5817761421203613e-01 1.1053920537233353e-01</leafValues></_>
        <_>
          <internalNodes>
            0 -1 2 -1.3565686531364918e-02</internalNodes>
          <leafValues>
            -6.3639056682586670e-01 4.2187571525573730e-02</leafValues></_>
        <_>
          <internalNodes>
            0 -1 89 -2.9559336602687836e-02</internalNodes>
          <leafValues>
            6.8594348430633545e-01 -6.6240496933460236e-02</leafValues></_>
        <_>
          <internalNodes>
            0 -1 150 -2.4658385664224625e-02</internalNodes>
          <leafValues>
            5.4132145643234253e-01 -8.6212843656539917e-02</leafValues></_>
        <_>
          <internalNodes>
            0 -1 93 -1.6333562135696411e-01</internalNodes>
          <leafValues>
            -8.3513784408569336e-01 5.5853255093097687e-02</leafValues></_>
        <_>
          <internalNodes>
            0 -1 240 -5.0112053751945496e-02</internalNodes>
          <leafValues>
            -2.9766976833343506e-01 1.8117262423038483e-01</leafValues></_>
        <_>
          <internalNodes>
            0 -1 48 1.9633086398243904e-02</internalNodes>
          <leafValues>
            -1.1141448467969894e-01 4.8186734318733215e-01</leafValues></_>
        <_>
          <internalNodes>
            0 -1 381 -1.8912011757493019e-02</internalNodes>
          <leafValues>
            1.0699492692947388e-01 -4.7944629192352295e-01</leafValues></_>
        <_>
          <internalNodes>
            0 -1 156 -3.4195452928543091e-02</internalNodes>
          <leafValues>
            -1.2014344334602356e-01 4.8535367846488953e-01</leafValues></_>
        <_>
          <internalNodes>
            0 -1 252 -1.1636166274547577e-01</internalNodes>
          <leafValues>
            7.5235527753829956e-01 -5.9987723827362061e-02</leafValues></_>
        <_>
          <internalNodes>
            0 -1 297 -4.6262133866548538e-02</internalNodes>
          <leafValues>
            -7.1242183446884155e-01 7.6372362673282623e-02</leafValues></_>
        <_>
          <internalNodes>
            0 -1 309 -1.3687625527381897e-02</internalNodes>
          <leafValues>
            -7.7233040332794189e-01 5.5809579789638519e-02</leafValues></_>
        <_>
          <internalNodes>
            0 -1 140 -1.2043422088027000e-02</internalNodes>
          <leafValues>
            9.3678772449493408e-02 -4.3488687276840210e-01</leafValues></_>
        <_>
          <internalNodes>
            0 -1 78 -5.1808287389576435e-03</internalNodes>
          <leafValues>
            -8.1363981962203979e-01 4.9980249255895615e-02</leafValues></_>
        <_>
          <internalNodes>
            0 -1 358 -1.5093118418008089e-03</internalNodes>
          <leafValues>
            -7.0329689979553223e-01 4.6561148017644882e-02</leafValues></_>
        <_>
          <internalNodes>
            0 -1 109 -1.3862962834537029e-02</internalNodes>
          <leafValues>
            5.9634429216384888e-01 -7.9688832163810730e-02</leafValues></_>
        <_>
          <internalNodes>
            0 -1 23 -1.4760872349143028e-02</internalNodes>
          <leafValues>
            -6.7645184695720673e-02 6.2234193086624146e-01</leafValues></_>
        <_>
          <internalNodes>
            0 -1 113 -4.2684692889451981e-02</internalNodes>
          <leafValues>
            -6.1181325465440750e-02 6.8680596351623535e-01</leafValues></_>
        <_>
          <internalNodes>
            0 -1 302 2.8180252760648727e-02</internalNodes>
          <leafValues>
            -1.0499897599220276e-01 4.0371185541152954e-01</leafValues></_>
        <_>
          <internalNodes>
            0 -1 15 -1.5294717252254486e-01</internalNodes>
          <leafValues>
            5.6983299553394318e-02 -8.1318336725234985e-01</leafValues></_>
        <_>
          <internalNodes>
            0 -1 223 4.2910214513540268e-02</internalNodes>
          <leafValues>
            -8.5371226072311401e-02 6.2952518463134766e-01</leafValues></_>
        <_>
          <internalNodes>
            0 -1 257 -5.5972777307033539e-02</internalNodes>
          <leafValues>
            -4.4630253314971924e-01 1.0854078084230423e-01</leafValues></_>
        <_>
          <internalNodes>
            0 -1 256 -6.9428041577339172e-02</internalNodes>
          <leafValues>
            5.0284051895141602e-01 -1.1046681553125381e-01</leafValues></_>
        <_>
          <internalNodes>
            0 -1 173 -2.4408088065683842e-03</internalNodes>
          <leafValues>
            -4.7187380492687225e-02 8.7048411369323730e-01</leafValues></_>
        <_>
          <internalNodes>
            0 -1 323 -4.4711973518133163e-02</internalNodes>
          <leafValues>
            -9.3447971343994141e-01 5.9166565537452698e-02</leafValues></_>
        <_>
          <internalNodes>
            0 -1 132 1.6651028767228127e-02</internalNodes>
          <leafValues>
            -1.2502399086952209e-01 4.0148407220840454e-01</leafValues></_>
        <_>
          <internalNodes>
            0 -1 188 -1.0393681935966015e-02</internalNodes>
          <leafValues>
            3.3244359493255615e-01 -1.3790926337242126e-01</leafValues></_>
        <_>
          <internalNodes>
            0 -1 117 -1.0082776658236980e-02</internalNodes>
          <leafValues>
            -6.7472934722900391e-02 6.8137311935424805e-01</leafValues></_>
        <_>
          <internalNodes>
            0 -1 160 1.5898279380053282e-03</internalNodes>
          <leafValues>
            8.1393174827098846e-02 -6.1741250753402710e-01</leafValues></_>
        <_>
          <internalNodes>
            0 -1 307 -2.4702843278646469e-02</internalNodes>
          <leafValues>
            -6.1194527894258499e-02 8.1819421052932739e-01</leafValues></_>
        <_>
          <internalNodes>
            0 -1 74 -8.4713883697986603e-02</internalNodes>
          <leafValues>
            6.7727220058441162e-01 -5.7306282222270966e-02</leafValues></_>
        <_>
          <internalNodes>
            0 -1 46 -2.8724959120154381e-02</internalNodes>
          <leafValues>
            1.3005661964416504e-01 -3.6613446474075317e-01</leafValues></_>
        <_>
          <internalNodes>
            0 -1 184 3.1642358750104904e-02</internalNodes>
          <leafValues>
            -1.4632579684257507e-01 2.9630285501480103e-01</leafValues></_>
        <_>
          <internalNodes>
            0 -1 200 2.3145750164985657e-02</internalNodes>
          <leafValues>
            -1.1612686514854431e-01 3.7095218896865845e-01</leafValues></_>
        <_>
          <internalNodes>
            0 -1 159 -4.4567346572875977e-02</internalNodes>
          <leafValues>
            -1.8591086566448212e-01 2.7169224619865417e-01</leafValues></_>
        <_>
          <internalNodes>
            0 -1 193 -9.1765515506267548e-02</internalNodes>
          <leafValues>
            8.0974727869033813e-01 -6.5043501555919647e-02</leafValues></_>
        <_>
          <internalNodes>
            0 -1 123 -4.6167340129613876e-02</internalNodes>
          <leafValues>
            -5.0919896364212036e-01 1.0410480201244354e-01</leafValues></_>
        <_>
          <internalNodes>
            0 -1 261 -1.9105072133243084e-03</internalNodes>
          <leafValues>
            7.1056902408599854e-02 -6.1622774600982666e-01</leafValues></_>
        <_>
          <internalNodes>
            0 -1 344 -3.0842293053865433e-03</internalNodes>
          <leafValues>
            8.6251318454742432e-02 -5.2065926790237427e-01</leafValues></_>
        <_>
          <internalNodes>
            0 -1 300 2.8399556875228882e-02</internalNodes>
          <leafValues>
            -1.1801131069660187e-01 4.2105746269226074e-01</leafValues></_>
        <_>
          <internalNodes>
            0 -1 34 -2.3046745918691158e-03</internalNodes>
          <leafValues>
            -5.0305145978927612e-01 1.0627597570419312e-01</leafValues></_></weakClassifiers></_>
    <!-- stage 7 -->
    <_>
      <maxWeakCount>41</maxWeakCount>
      <stageThreshold>-1.5088608264923096e+00</stageThreshold>
      <weakClassifiers>
        <_>
          <internalNodes>
            0 -1 279 1.6690805554389954e-01</internalNodes>
          <leafValues>
            -7.4730086326599121e-01 6.9999998807907104e-01</leafValues></_>
        <_>
          <internalNodes>
            0 -1 169 2.0547183230519295e-02</internalNodes>
          <leafValues>
            -2.7769154310226440e-01 5.6951713562011719e-01</leafValues></_>
        <_>
          <internalNodes>
            0 -1 63 -1.4600787544623017e-03</internalNodes>
          <leafValues>
            6.3585698604583740e-02 -8.9158362150192261e-01</leafValues></_>
        <_>
          <internalNodes>
            0 -1 337 5.6121647357940674e-02</internalNodes>
          <leafValues>
            -1.1559396982192993e-01 3.9208021759986877e-01</leafValues></_>
        <_>
          <internalNodes>
            0 -1 371 1.4339673332870007e-02</internalNodes>
          <leafValues>
            6.8370841443538666e-02 -6.6633766889572144e-01</leafValues></_>
        <_>
          <internalNodes>
            0 -1 352 9.1607179492712021e-03</internalNodes>
          <leafValues>
            -1.1605793237686157e-01 3.9121359586715698e-01</leafValues></_>
        <_>
          <internalNodes>
            0 -1 227 1.0195094347000122e-01</internalNodes>
          <leafValues>
            -6.7789018154144287e-02 7.5949543714523315e-01</leafValues></_>
        <_>
          <internalNodes>
            0 -1 37 1.8718864768743515e-02</internalNodes>
          <leafValues>
            -7.5632438063621521e-02 5.4049032926559448e-01</leafValues></_>
        <_>
          <internalNodes>
            0 -1 260 1.0877996683120728e-02</internalNodes>
          <leafValues>
            -1.5986955165863037e-01 2.9288008809089661e-01</leafValues></_>
        <_>
          <internalNodes>
            0 -1 345 -5.0700325518846512e-03</internalNodes>
          <leafValues>
            3.2878321409225464e-01 -1.2672337889671326e-01</leafValues></_>
        <_>
          <internalNodes>
            0 -1 310 2.6353769935667515e-03</internalNodes>
          <leafValues>
            1.4091219007968903e-01 -3.1449377536773682e-01</leafValues></_>
        <_>
          <internalNodes>
            0 -1 158 -6.4979150891304016e-02</internalNodes>
          <leafValues>
            -5.3288894891738892e-01 8.1236809492111206e-02</leafValues></_>
        <_>
          <internalNodes>
            0 -1 379 -1.3076406717300415e-01</internalNodes>
          <leafValues>
            -6.1702388525009155e-01 6.0609377920627594e-02</leafValues></_>
        <_>
          <internalNodes>
            0 -1 314 -3.4214064478874207e-02</internalNodes>
          <leafValues>
            6.9095635414123535e-01 -5.4198652505874634e-02</leafValues></_>
        <_>
          <internalNodes>
            0 -1 347 2.8570827096700668e-02</internalNodes>
          <leafValues>
            -1.3930204510688782e-01 2.8862303495407104e-01</leafValues></_>
        <_>
          <internalNodes>
            0 -1 375 -2.4321742355823517e-02</internalNodes>
          <leafValues>
            -4.9315464496612549e-01 9.0654559433460236e-02</leafValues></_>
        <_>
          <internalNodes>
            0 -1 24 6.6098719835281372e-03</internalNodes>
          <leafValues>
            -1.2619578838348389e-01 3.5106247663497925e-01</leafValues></_>
        <_>
          <internalNodes>
            0 -1 96 1.3594505144283175e-03</internalNodes>
          <leafValues>
            7.7026955783367157e-02 -5.8881902694702148e-01</leafValues></_>
        <_>
          <internalNodes>
            0 -1 183 2.7469713240861893e-02</internalNodes>
          <leafValues>
            -6.3911221921443939e-02 7.6550322771072388e-01</leafValues></_>
        <_>
          <internalNodes>
            0 -1 126 3.8003843277692795e-02</internalNodes>
          <leafValues>
            9.3677952885627747e-02 -5.2502429485321045e-01</leafValues></_>
        <_>
          <internalNodes>
            0 -1 128 -1.8537438008934259e-03</internalNodes>
          <leafValues>
            -7.0001691579818726e-01 5.4504811763763428e-02</leafValues></_>
        <_>
          <internalNodes>
            0 -1 10 -4.0110394358634949e-02</internalNodes>
          <leafValues>
            -9.3169242143630981e-01 3.3730197697877884e-02</leafValues></_>
        <_>
          <internalNodes>
            0 -1 17 4.8000030219554901e-03</internalNodes>
          <leafValues>
            6.2073592096567154e-02 -5.7516634464263916e-01</leafValues></_>
        <_>
          <internalNodes>
            0 -1 53 -2.8015267848968506e-01</internalNodes>
          <leafValues>
            -9.1110867261886597e-01 3.6339461803436279e-02</leafValues></_>
        <_>
          <internalNodes>
            0 -1 282 -4.6467343345284462e-03</internalNodes>
          <leafValues>
            3.2104954123497009e-01 -1.2897905707359314e-01</leafValues></_>
        <_>
          <internalNodes>
            0 -1 285 -3.0831017065793276e-03</internalNodes>
          <leafValues>
            -5.1484441757202148e-01 7.2034820914268494e-02</leafValues></_>
        <_>
          <internalNodes>
            0 -1 222 5.8056805282831192e-03</internalNodes>
          <leafValues>
            6.3886553049087524e-02 -5.6898772716522217e-01</leafValues></_>
        <_>
          <internalNodes>
            0 -1 51 -1.1923668906092644e-02</internalNodes>
          <leafValues>
            4.4374027848243713e-01 -1.0104992240667343e-01</leafValues></_>
        <_>
          <internalNodes>
            0 -1 346 -6.3059469684958458e-03</internalNodes>
          <leafValues>
            6.4846463501453400e-02 -7.4124699831008911e-01</leafValues></_>
        <_>
          <internalNodes>
            0 -1 99 -1.3018266856670380e-01</internalNodes>
          <leafValues>
            2.9045528173446655e-01 -1.6458013653755188e-01</leafValues></_>
        <_>
          <internalNodes>
            0 -1 361 9.6641900017857552e-03</internalNodes>
          <leafValues>
            -1.6028806567192078e-01 3.0240222811698914e-01</leafValues></_>
        <_>
          <internalNodes>
            0 -1 267 -8.6381942033767700e-02</internalNodes>
          <leafValues>
            5.2672785520553589e-01 -9.2576198279857635e-02</leafValues></_>
        <_>
          <internalNodes>
            0 -1 286 -2.3784339427947998e-02</internalNodes>
          <leafValues>
            3.2066646218299866e-01 -1.2924608588218689e-01</leafValues></_>
        <_>
          <internalNodes>
            0 -1 86 -1.3417299836874008e-02</internalNodes>
          <leafValues>
            5.1088070869445801e-01 -8.4443487226963043e-02</leafValues></_>
        <_>
          <internalNodes>
            0 -1 139 -4.8793572932481766e-03</internalNodes>
          <leafValues>
            -7.3810762166976929e-01 5.9071961790323257e-02</leafValues></_>
        <_>
          <internalNodes>
            0 -1 88 2.1175213158130646e-02</internalNodes>
          <leafValues>
            3.0653977766633034e-02 -9.3816316127777100e-01</leafValues></_>
        <_>
          <internalNodes>
            0 -1 383 -1.4319747686386108e-02</internalNodes>
          <leafValues>
            -5.4718226194381714e-01 5.3671255707740784e-02</leafValues></_>
        <_>
          <internalNodes>
            0 -1 105 -1.3119352050125599e-02</internalNodes>
          <leafValues>
            3.0294767022132874e-01 -1.3709038496017456e-01</leafValues></_>
        <_>
          <internalNodes>
            0 -1 36 9.3211308121681213e-03</internalNodes>
          <leafValues>
            -9.9268928170204163e-02 4.4601058959960938e-01</leafValues></_>
        <_>
          <internalNodes>
            0 -1 171 -9.8466649651527405e-03</internalNodes>
          <leafValues>
            5.9198415279388428e-01 -6.5170399844646454e-02</leafValues></_>
        <_>
          <internalNodes>
            0 -1 170 -2.5843843817710876e-02</internalNodes>
          <leafValues>
            -1.3393937051296234e-01 3.4101608395576477e-01</leafValues></_></weakClassifiers></_>
    <!-- stage 8 -->
    <_>
      <maxWeakCount>38</maxWeakCount>
      <stageThreshold>-1.5840778350830078e+00</stageThreshold>
      <weakClassifiers>
        <_>
          <internalNodes>
            0 -1 292 -1.2716965377330780e-01</internalNodes>
          <leafValues>
            8.0000001192092896e-01 -7.4846804141998291e-01</leafValues></_>
        <_>
          <internalNodes>
            0 -1 239 -2.3409388959407806e-01</internalNodes>
          <leafValues>
            -5.9963759034872055e-02 -7.0290458202362061e-01</leafValues></_>
        <_>
          <internalNodes>
            0 -1 119 -9.8339444957673550e-04</internalNodes>
          <leafValues>
            4.2311143130064011e-02 -9.9319797754287720e-01</leafValues></_>
        <_>
          <internalNodes>
            0 -1 131 -3.7212353199720383e-03</internalNodes>
          <leafValues>
            2.4797280132770538e-01 -2.7314996719360352e-01</leafValues></_>
        <_>
          <internalNodes>
            0 -1 237 8.6174577474594116e-02</internalNodes>
          <leafValues>
            7.2144791483879089e-02 -9.0570133924484253e-01</leafValues></_>
        <_>
          <internalNodes>
            0 -1 45 2.1843593567609787e-02</internalNodes>
          <leafValues>
            -2.1410563588142395e-01 2.4816127121448517e-01</leafValues></_>
        <_>
          <internalNodes>
            0 -1 219 8.0087557435035706e-03</internalNodes>
          <leafValues>
            -5.8884672820568085e-02 6.2839347124099731e-01</leafValues></_>
        <_>
          <internalNodes>
            0 -1 294 2.4500388652086258e-02</internalNodes>
          <leafValues>
            -9.0887129306793213e-02 4.9044641852378845e-01</leafValues></_>
        <_>
          <internalNodes>
            0 -1 153 -4.2215424776077271e-01</internalNodes>
          <leafValues>
            -3.5819023847579956e-01 1.2937328219413757e-01</leafValues></_>
        <_>
          <internalNodes>
            0 -1 94 -6.0065947473049164e-03</internalNodes>
          <leafValues>
            1.1874130368232727e-01 -3.6286109685897827e-01</leafValues></_>
        <_>
          <internalNodes>
            0 -1 75 -7.1540787816047668e-02</internalNodes>
          <leafValues>
            5.0538092851638794e-02 -8.2912820577621460e-01</leafValues></_>
        <_>
          <internalNodes>
            0 -1 69 -1.6778081655502319e-01</internalNodes>
          <leafValues>
            -2.0368944108486176e-01 2.7115678787231445e-01</leafValues></_>
        <_>
          <internalNodes>
            0 -1 198 3.7129718810319901e-02</internalNodes>
          <leafValues>
            -1.0536442697048187e-01 4.5528346300125122e-01</leafValues></_>
        <_>
          <internalNodes>
            0 -1 348 -3.0350893735885620e-02</internalNodes>
          <leafValues>
            7.8217899799346924e-01 -5.3102444857358932e-02</leafValues></_>
        <_>
          <internalNodes>
            0 -1 1 -1.4911519363522530e-02</internalNodes>
          <leafValues>
            -7.7149480581283569e-01 7.1000821888446808e-02</leafValues></_>
        <_>
          <internalNodes>
            0 -1 336 8.2622505724430084e-03</internalNodes>
          <leafValues>
            6.0441430658102036e-02 -5.7982397079467773e-01</leafValues></_>
        <_>
          <internalNodes>
            0 -1 121 2.1952241659164429e-02</internalNodes>
          <leafValues>
            -7.0278041064739227e-02 6.6992932558059692e-01</leafValues></_>
        <_>
          <internalNodes>
            0 -1 295 -4.7667615115642548e-02</internalNodes>
          <leafValues>
            4.9659129977226257e-01 -7.5930185616016388e-02</leafValues></_>
        <_>
          <internalNodes>
            0 -1 202 -4.3902069330215454e-02</internalNodes>
          <leafValues>
            4.4697856903076172e-01 -1.0796080529689789e-01</leafValues></_>
        <_>
          <internalNodes>
            0 -1 389 -5.9361942112445831e-03</internalNodes>
          <leafValues>
            -5.0419199466705322e-01 9.1494247317314148e-02</leafValues></_>
        <_>
          <internalNodes>
            0 -1 44 8.0459993332624435e-03</internalNodes>
          <leafValues>
            5.9627033770084381e-02 -6.9129025936126709e-01</leafValues></_>
        <_>
          <internalNodes>
            0 -1 13 8.3118416368961334e-03</internalNodes>
          <leafValues>
            5.5686142295598984e-02 -6.9025057554244995e-01</leafValues></_>
        <_>
          <internalNodes>
            0 -1 25 1.2657444179058075e-01</internalNodes>
          <leafValues>
            6.7247591912746429e-02 -5.7953423261642456e-01</leafValues></_>
        <_>
          <internalNodes>
            0 -1 298 -3.3677287399768829e-02</internalNodes>
          <leafValues>
            -7.2875356674194336e-01 4.7720033675432205e-02</leafValues></_>
        <_>
          <internalNodes>
            0 -1 161 -6.9477865472435951e-03</internalNodes>
          <leafValues>
            -6.6321468353271484e-01 5.2953634411096573e-02</leafValues></_>
        <_>
          <internalNodes>
            0 -1 164 -7.1077272295951843e-03</internalNodes>
          <leafValues>
            5.8226418495178223e-01 -7.9301469027996063e-02</leafValues></_>
        <_>
          <internalNodes>
            0 -1 241 -1.0602576285600662e-01</internalNodes>
          <leafValues>
            -4.6919450163841248e-01 9.9751703441143036e-02</leafValues></_>
        <_>
          <internalNodes>
            0 -1 281 -2.2516276687383652e-02</internalNodes>
          <leafValues>
            6.5836593508720398e-02 -7.2315579652786255e-01</leafValues></_>
        <_>
          <internalNodes>
            0 -1 18 -6.8085420131683350e-01</internalNodes>
          <leafValues>
            -6.2302845716476440e-01 5.2788749337196350e-02</leafValues></_>
        <_>
          <internalNodes>
            0 -1 65 -6.1527633666992188e-01</internalNodes>
          <leafValues>
            5.1841515302658081e-01 -9.4924814999103546e-02</leafValues></_>
        <_>
          <internalNodes>
            0 -1 42 -7.7452627010643482e-03</internalNodes>
          <leafValues>
            -9.7906208038330078e-01 5.0151381641626358e-02</leafValues></_>
        <_>
          <internalNodes>
            0 -1 365 -1.3452270068228245e-03</internalNodes>
          <leafValues>
            -5.9750294685363770e-01 4.9025960266590118e-02</leafValues></_>
        <_>
          <internalNodes>
            0 -1 35 -5.7480610907077789e-02</internalNodes>
          <leafValues>
            -8.3781021833419800e-01 3.6886744201183319e-02</leafValues></_>
        <_>
          <internalNodes>
            0 -1 180 -5.2561119198799133e-02</internalNodes>
          <leafValues>
            -9.6902020275592804e-02 4.0037101507186890e-01</leafValues></_>
        <_>
          <internalNodes>
            0 -1 388 -2.1665412932634354e-02</internalNodes>
          <leafValues>
            -7.7640599012374878e-01 4.7852098941802979e-02</leafValues></_>
        <_>
          <internalNodes>
            0 -1 141 -3.3773176372051239e-02</internalNodes>
          <leafValues>
            7.0325672626495361e-01 -6.1374306678771973e-02</leafValues></_>
        <_>
          <internalNodes>
            0 -1 296 1.9584942609071732e-02</internalNodes>
          <leafValues>
            -9.6988111734390259e-02 3.8899919390678406e-01</leafValues></_>
        <_>
          <internalNodes>
            0 -1 272 -5.3880112245678902e-03</internalNodes>
          <leafValues>
            4.7805806994438171e-01 -7.4825964868068695e-02</leafValues></_></weakClassifiers></_>
    <!-- stage 9 -->
    <_>
      <maxWeakCount>45</maxWeakCount>
      <stageThreshold>-1.6691884994506836e+00</stageThreshold>
      <weakClassifiers>
        <_>
          <internalNodes>
            0 -1 236 -1.4153093099594116e-02</internalNodes>
          <leafValues>
            -1.5533980727195740e-01 -7.6694267988204956e-01</leafValues></_>
        <_>
          <internalNodes>
            0 -1 137 -3.6167182028293610e-02</internalNodes>
          <leafValues>
            5.4718440771102905e-01 -2.8916767239570618e-01</leafValues></_>
        <_>
          <internalNodes>
            0 -1 293 -4.3746162205934525e-02</internalNodes>
          <leafValues>
            8.8281765580177307e-02 -5.7633179426193237e-01</leafValues></_>
        <_>
          <internalNodes>
            0 -1 168 8.5731729865074158e-02</internalNodes>
          <leafValues>
            -1.1584957689046860e-01 4.0518701076507568e-01</leafValues></_>
        <_>
          <internalNodes>
            0 -1 234 -2.3909611999988556e-01</internalNodes>
          <leafValues>
            -1.9493953883647919e-01 2.5143891572952271e-01</leafValues></_>
        <_>
          <internalNodes>
            0 -1 229 -6.8275406956672668e-02</internalNodes>
          <leafValues>
            -1.6671193297952414e-03 -9.1058135032653809e-01</leafValues></_>
        <_>
          <internalNodes>
            0 -1 333 -2.4292375892400742e-02</internalNodes>
          <leafValues>
            -6.9942462444305420e-01 6.4240097999572754e-02</leafValues></_>
        <_>
          <internalNodes>
            0 -1 76 -7.7091515064239502e-02</internalNodes>
          <leafValues>
            -9.1250681877136230e-01 4.9950022250413895e-02</leafValues></_>
        <_>
          <internalNodes>
            0 -1 162 -1.2315203249454498e-01</internalNodes>
          <leafValues>
            -8.5290807485580444e-01 3.7622492760419846e-02</leafValues></_>
        <_>
          <internalNodes>
            0 -1 211 -1.4017321169376373e-02</internalNodes>
          <leafValues>
            5.3134661912918091e-01 -9.0724863111972809e-02</leafValues></_>
        <_>
          <internalNodes>
            0 -1 39 8.1707397475838661e-03</internalNodes>
          <leafValues>
            -1.2546148896217346e-01 3.4662568569183350e-01</leafValues></_>
        <_>
          <internalNodes>
            0 -1 394 -3.2672686502337456e-03</internalNodes>
          <leafValues>
            -4.1020998358726501e-01 1.0665792226791382e-01</leafValues></_>
        <_>
          <internalNodes>
            0 -1 71 -7.6458337716758251e-03</internalNodes>
          <leafValues>
            -7.4046808481216431e-01 4.4740878045558929e-02</leafValues></_>
        <_>
          <internalNodes>
            0 -1 190 -4.8742783255875111e-03</internalNodes>
          <leafValues>
            4.7404116392135620e-01 -9.4144180417060852e-02</leafValues></_>
        <_>
          <internalNodes>
            0 -1 60 -1.1376045644283295e-02</internalNodes>
          <leafValues>
            2.8958278894424438e-01 -1.6718848049640656e-01</leafValues></_>
        <_>
          <internalNodes>
            0 -1 106 2.9092850163578987e-02</internalNodes>
          <leafValues>
            -6.5544255077838898e-02 5.3551018238067627e-01</leafValues></_>
        <_>
          <internalNodes>
            0 -1 299 -3.6246939562261105e-03</internalNodes>
          <leafValues>
            3.9621809124946594e-01 -9.9666230380535126e-02</leafValues></_>
        <_>
          <internalNodes>
            0 -1 324 6.8271785974502563e-02</internalNodes>
          <leafValues>
            -6.5742515027523041e-02 5.3334701061248779e-01</leafValues></_>
        <_>
          <internalNodes>
            0 -1 55 -4.0246176719665527e-01</internalNodes>
          <leafValues>
            -6.9020056724548340e-01 5.8539718389511108e-02</leafValues></_>
        <_>
          <internalNodes>
            0 -1 148 1.5571572817862034e-02</internalNodes>
          <leafValues>
            -8.2412600517272949e-02 4.8718792200088501e-01</leafValues></_>
        <_>
          <internalNodes>
            0 -1 47 -3.8791298866271973e-02</internalNodes>
          <leafValues>
            5.9971833229064941e-01 -6.1282940208911896e-02</leafValues></_>
        <_>
          <internalNodes>
            0 -1 287 -1.5280893445014954e-01</internalNodes>
          <leafValues>
            1.2040947377681732e-01 -3.4590974450111389e-01</leafValues></_>
        <_>
          <internalNodes>
            0 -1 254 -7.7939756214618683e-02</internalNodes>
          <leafValues>
            -3.5560676455497742e-01 1.0776516050100327e-01</leafValues></_>
        <_>
          <internalNodes>
            0 -1 290 4.3720446527004242e-02</internalNodes>
          <leafValues>
            -1.2540277838706970e-01 3.3773964643478394e-01</leafValues></_>
        <_>
          <internalNodes>
            0 -1 322 -5.1889386028051376e-02</internalNodes>
          <leafValues>
            -7.6535217463970184e-02 5.1487749814987183e-01</leafValues></_>
        <_>
          <internalNodes>
            0 -1 334 -5.4784738458693027e-03</internalNodes>
          <leafValues>
            1.0889662802219391e-01 -4.3856468796730042e-01</leafValues></_>
        <_>
          <internalNodes>
            0 -1 28 -3.3491992950439453e-01</internalNodes>
          <leafValues>
            -8.2383078336715698e-01 4.2084433138370514e-02</leafValues></_>
        <_>
          <internalNodes>
            0 -1 390 -9.4562210142612457e-03</internalNodes>
          <leafValues>
            -5.0207829475402832e-01 6.8876065313816071e-02</leafValues></_>
        <_>
          <internalNodes>
            0 -1 136 7.9404274001717567e-03</internalNodes>
          <leafValues>
            4.7479592263698578e-02 -7.1493184566497803e-01</leafValues></_>
        <_>
          <internalNodes>
            0 -1 355 -6.1849497258663177e-02</internalNodes>
          <leafValues>
            4.2478099465370178e-02 -7.0883023738861084e-01</leafValues></_>
        <_>
          <internalNodes>
            0 -1 278 -6.2960861250758171e-03</internalNodes>
          <leafValues>
            3.5881111025810242e-01 -1.1046212911605835e-01</leafValues></_>
        <_>
          <internalNodes>
            0 -1 276 -1.1371266841888428e-01</internalNodes>
          <leafValues>
            6.6449415683746338e-01 -5.7351283729076385e-02</leafValues></_>
        <_>
          <internalNodes>
            0 -1 59 -1.6822388861328363e-03</internalNodes>
          <leafValues>
            -6.9498819112777710e-01 6.1195317655801773e-02</leafValues></_>
        <_>
          <internalNodes>
            0 -1 149 -1.6220377758145332e-02</internalNodes>
          <leafValues>
            5.2357935905456543e-01 -8.2863874733448029e-02</leafValues></_>
        <_>
          <internalNodes>
            0 -1 175 -8.3297360688447952e-03</internalNodes>
          <leafValues>
            -2.2564926743507385e-01 1.7887432873249054e-01</leafValues></_>
        <_>
          <internalNodes>
            0 -1 50 -1.1275199055671692e-01</internalNodes>
          <leafValues>
            -1.1560678482055664e-01 3.0457836389541626e-01</leafValues></_>
        <_>
          <internalNodes>
            0 -1 232 -5.4017279297113419e-02</internalNodes>
          <leafValues>
            7.0405729115009308e-02 -5.8180493116378784e-01</leafValues></_>
        <_>
          <internalNodes>
            0 -1 20 -3.6494147032499313e-02</internalNodes>
          <leafValues>
            2.4517962336540222e-01 -1.4889061450958252e-01</leafValues></_>
        <_>
          <internalNodes>
            0 -1 362 -7.9807437956333160e-02</internalNodes>
          <leafValues>
            -4.0163108706474304e-01 9.3422800302505493e-02</leafValues></_>
        <_>
          <internalNodes>
            0 -1 321 8.6903534829616547e-03</internalNodes>
          <leafValues>
            -9.1021791100502014e-02 4.3306756019592285e-01</leafValues></_>
        <_>
          <internalNodes>
            0 -1 91 5.3807161748409271e-02</internalNodes>
          <leafValues>
            -1.3442315161228180e-01 2.7849960327148438e-01</leafValues></_>
        <_>
          <internalNodes>
            0 -1 262 -7.7055141329765320e-02</internalNodes>
          <leafValues>
            -7.4866551160812378e-01 5.2666500210762024e-02</leafValues></_>
        <_>
          <internalNodes>
            0 -1 205 -8.2420557737350464e-02</internalNodes>
          <leafValues>
            6.7339825630187988e-01 -6.5702088177204132e-02</leafValues></_>
        <_>
          <internalNodes>
            0 -1 225 -1.3439269736409187e-02</internalNodes>
          <leafValues>
            2.9507339000701904e-01 -1.3493207097053528e-01</leafValues></_>
        <_>
          <internalNodes>
            0 -1 224 -1.0654218494892120e-01</internalNodes>
          <leafValues>
            4.8922652006149292e-01 -9.0387806296348572e-02</leafValues></_></weakClassifiers></_>
    <!-- stage 10 -->
    <_>
      <maxWeakCount>42</maxWeakCount>
      <stageThreshold>-1.4472904205322266e+00</stageThreshold>
      <weakClassifiers>
        <_>
          <internalNodes>
            0 -1 304 -9.3132413923740387e-02</internalNodes>
          <leafValues>
            8.4615385532379150e-01 -7.4251669645309448e-01</leafValues></_>
        <_>
          <internalNodes>
            0 -1 107 -3.9698712527751923e-02</internalNodes>
          <leafValues>
            -8.0540210008621216e-02 -9.5275807380676270e-01</leafValues></_>
        <_>
          <internalNodes>
            0 -1 33 -1.4494087081402540e-03</internalNodes>
          <leafValues>
            1.2782000005245209e-02 -9.5852220058441162e-01</leafValues></_>
        <_>
          <internalNodes>
            0 -1 275 -2.2107818722724915e-01</internalNodes>
          <leafValues>
            -5.7241451740264893e-01 9.6512772142887115e-02</leafValues></_>
        <_>
          <internalNodes>
            0 -1 104 -5.1491096615791321e-02</internalNodes>
          <leafValues>
            -8.3897662162780762e-01 4.7693602740764618e-02</leafValues></_>
        <_>
          <internalNodes>
            0 -1 57 -5.7453066110610962e-03</internalNodes>
          <leafValues>
            2.4148133397102356e-01 -1.9362489879131317e-01</leafValues></_>
        <_>
          <internalNodes>
            0 -1 0 -1.4728035777807236e-02</internalNodes>
          <leafValues>
            -6.2772727012634277e-01 7.2778917849063873e-02</leafValues></_>
        <_>
          <internalNodes>
            0 -1 182 -8.3716139197349548e-02</internalNodes>
          <leafValues>
            3.3350744843482971e-01 -1.3066983222961426e-01</leafValues></_>
        <_>
          <internalNodes>
            0 -1 315 1.4625622425228357e-03</internalNodes>
          <leafValues>
            -1.6041237115859985e-01 2.7129840850830078e-01</leafValues></_>
        <_>
          <internalNodes>
            0 -1 235 -1.3976811897009611e-03</internalNodes>
          <leafValues>
            3.7455657124519348e-01 -1.2313722074031830e-01</leafValues></_>
        <_>
          <internalNodes>
            0 -1 247 -2.6526387780904770e-02</internalNodes>
          <leafValues>
            7.8633055090904236e-02 -5.2585583925247192e-01</leafValues></_>
        <_>
          <internalNodes>
            0 -1 386 2.0131831988692284e-03</internalNodes>
          <leafValues>
            7.3727153241634369e-02 -5.5044984817504883e-01</leafValues></_>
        <_>
          <internalNodes>
            0 -1 142 -3.3492982387542725e-02</internalNodes>
          <leafValues>
            -5.7207144796848297e-02 8.3143818378448486e-01</leafValues></_>
        <_>
          <internalNodes>
            0 -1 58 -7.3694437742233276e-02</internalNodes>
          <leafValues>
            -6.9611865282058716e-01 6.3709728419780731e-02</leafValues></_>
        <_>
          <internalNodes>
            0 -1 331 -6.1106674373149872e-02</internalNodes>
          <leafValues>
            5.5186241865158081e-01 -7.2272829711437225e-02</leafValues></_>
        <_>
          <internalNodes>
            0 -1 332 8.3378085400909185e-04</internalNodes>
          <leafValues>
            -1.6151976585388184e-01 2.1806840598583221e-01</leafValues></_>
        <_>
          <internalNodes>
            0 -1 3 5.1875626668334007e-03</internalNodes>
          <leafValues>
            1.0294777899980545e-01 -3.4376889467239380e-01</leafValues></_>
        <_>
          <internalNodes>
            0 -1 251 1.0262546129524708e-02</internalNodes>
          <leafValues>
            -1.0701292753219604e-01 3.4950292110443115e-01</leafValues></_>
        <_>
          <internalNodes>
            0 -1 340 5.0951242446899414e-03</internalNodes>
          <leafValues>
            -1.3870555162429810e-01 2.9614162445068359e-01</leafValues></_>
        <_>
          <internalNodes>
            0 -1 101 -3.0800056457519531e-01</internalNodes>
          <leafValues>
            -9.3540704250335693e-01 4.1879151016473770e-02</leafValues></_>
        <_>
          <internalNodes>
            0 -1 242 -3.8491927087306976e-02</internalNodes>
          <leafValues>
            -1.8649621307849884e-01 2.2981654107570648e-01</leafValues></_>
        <_>
          <internalNodes>
            0 -1 31 2.0407664123922586e-03</internalNodes>
          <leafValues>
            6.0440156608819962e-02 -6.0526061058044434e-01</leafValues></_>
        <_>
          <internalNodes>
            0 -1 124 8.8272690773010254e-03</internalNodes>
          <leafValues>
            -1.0162094980478287e-01 4.0529501438140869e-01</leafValues></_>
        <_>
          <internalNodes>
            0 -1 370 -5.0059398636221886e-03</internalNodes>
          <leafValues>
            -6.0309380292892456e-01 6.1005614697933197e-02</leafValues></_>
        <_>
          <internalNodes>
            0 -1 249 -1.5382693707942963e-01</internalNodes>
          <leafValues>
            3.7674096226692200e-01 -1.0879466682672501e-01</leafValues></_>
        <_>
          <internalNodes>
            0 -1 243 -7.5697088614106178e-03</internalNodes>
          <leafValues>
            -7.9245263338088989e-01 4.8570577055215836e-02</leafValues></_>
        <_>
          <internalNodes>
            0 -1 244 5.9792380779981613e-03</internalNodes>
          <leafValues>
            -1.1200570315122604e-01 3.8068151473999023e-01</leafValues></_>
        <_>
          <internalNodes>
            0 -1 100 -4.1821729391813278e-02</internalNodes>
          <leafValues>
            4.9756303429603577e-02 -8.7589734792709351e-01</leafValues></_>
        <_>
          <internalNodes>
            0 -1 338 5.1355704665184021e-02</internalNodes>
          <leafValues>
            -1.1939033120870590e-01 3.5717874765396118e-01</leafValues></_>
        <_>
          <internalNodes>
            0 -1 350 -2.2764239460229874e-02</internalNodes>
          <leafValues>
            4.4812780618667603e-01 -9.6360981464385986e-02</leafValues></_>
        <_>
          <internalNodes>
            0 -1 382 1.6225359868258238e-03</internalNodes>
          <leafValues>
            5.9978038072586060e-02 -6.4372438192367554e-01</leafValues></_>
        <_>
          <internalNodes>
            0 -1 387 -6.2487618997693062e-03</internalNodes>
          <leafValues>
            -4.5087009668350220e-01 7.2777025401592255e-02</leafValues></_>
        <_>
          <internalNodes>
            0 -1 288 -3.6511532962322235e-02</internalNodes>
          <leafValues>
            2.5697630643844604e-01 -1.3568937778472900e-01</leafValues></_>
        <_>
          <internalNodes>
            0 -1 335 -1.1085106991231441e-02</internalNodes>
          <leafValues>
            -8.0431950092315674e-01 4.8635557293891907e-02</leafValues></_>
        <_>
          <internalNodes>
            0 -1 329 3.1646929681301117e-02</internalNodes>
          <leafValues>
            -6.5110892057418823e-02 6.6273504495620728e-01</leafValues></_>
        <_>
          <internalNodes>
            0 -1 374 -6.3548590987920761e-03</internalNodes>
          <leafValues>
            1.2950879335403442e-01 -3.1130036711692810e-01</leafValues></_>
        <_>
          <internalNodes>
            0 -1 263 -1.8862015008926392e-01</internalNodes>
          <leafValues>
            -1.0205315053462982e-01 3.7909767031669617e-01</leafValues></_>
        <_>
          <internalNodes>
            0 -1 253 -6.7281089723110199e-02</internalNodes>
          <leafValues>
            7.3657268285751343e-01 -5.1229238510131836e-02</leafValues></_>
        <_>
          <internalNodes>
            0 -1 353 -2.8429920785129070e-03</internalNodes>
          <leafValues>
            3.1051507592201233e-01 -1.1303620040416718e-01</leafValues></_>
        <_>
          <internalNodes>
            0 -1 311 1.3953053392469883e-02</internalNodes>
          <leafValues>
            -9.5037885010242462e-02 4.1471260786056519e-01</leafValues></_>
        <_>
          <internalNodes>
            0 -1 214 2.3419678211212158e-02</internalNodes>
          <leafValues>
            -1.1688177287578583e-01 3.1603589653968811e-01</leafValues></_>
        <_>
          <internalNodes>
            0 -1 166 -3.9041694253683090e-03</internalNodes>
          <leafValues>
            3.6537018418312073e-01 -9.4763390719890594e-02</leafValues></_></weakClassifiers></_>
    <!-- stage 11 -->
    <_>
      <maxWeakCount>39</maxWeakCount>
      <stageThreshold>-1.4726123809814453e+00</stageThreshold>
      <weakClassifiers>
        <_>
          <internalNodes>
            0 -1 313 4.1172161698341370e-02</internalNodes>
          <leafValues>
            -8.1013131141662598e-01 -4.6633416414260864e-01</leafValues></_>
        <_>
          <internalNodes>
            0 -1 61 -5.4708577692508698e-02</internalNodes>
          <leafValues>
            -3.7466683983802795e-01 2.1738713979721069e-01</leafValues></_>
        <_>
          <internalNodes>
            0 -1 196 4.2526282370090485e-02</internalNodes>
          <leafValues>
            8.4193363785743713e-02 -6.2703198194503784e-01</leafValues></_>
        <_>
          <internalNodes>
            0 -1 218 -2.5030486285686493e-02</internalNodes>
          <leafValues>
            -1.9634243845939636e-01 2.2487154603004456e-01</leafValues></_>
        <_>
          <internalNodes>
            0 -1 220 5.9926323592662811e-03</internalNodes>
          <leafValues>
            -1.3395641744136810e-01 4.7076791524887085e-01</leafValues></_>
        <_>
          <internalNodes>
            0 -1 250 -2.6031492277979851e-02</internalNodes>
          <leafValues>
            2.7735713124275208e-01 -1.3882105052471161e-01</leafValues></_>
        <_>
          <internalNodes>
            0 -1 351 -1.2725680135190487e-03</internalNodes>
          <leafValues>
            3.9418151974678040e-01 -1.3211823999881744e-01</leafValues></_>
        <_>
          <internalNodes>
            0 -1 172 2.3979529738426208e-02</internalNodes>
          <leafValues>
            -1.2913939356803894e-01 3.8111495971679688e-01</leafValues></_>
        <_>
          <internalNodes>
            0 -1 84 6.8322690203785896e-03</internalNodes>
          <leafValues>
            -1.2157530337572098e-01 4.4035825133323669e-01</leafValues></_>
        <_>
          <internalNodes>
            0 -1 203 3.7484299391508102e-03</internalNodes>
          <leafValues>
            -1.3711193203926086e-01 3.8266727328300476e-01</leafValues></_>
        <_>
          <internalNodes>
            0 -1 19 -4.6998374164104462e-03</internalNodes>
          <leafValues>
            2.0488639175891876e-01 -2.3224365711212158e-01</leafValues></_>
        <_>
          <internalNodes>
            0 -1 133 -8.1156957894563675e-03</internalNodes>
          <leafValues>
            -4.3828120827674866e-01 1.0149138420820236e-01</leafValues></_>
        <_>
          <internalNodes>
            0 -1 41 -1.1603095568716526e-02</internalNodes>
          <leafValues>
            -3.9661163091659546e-01 1.0858028382062912e-01</leafValues></_>
        <_>
          <internalNodes>
            0 -1 259 -6.0378480702638626e-03</internalNodes>
          <leafValues>
            4.6844896674156189e-01 -9.3579307198524475e-02</leafValues></_>
        <_>
          <internalNodes>
            0 -1 392 5.0836643204092979e-03</internalNodes>
          <leafValues>
            9.8456613719463348e-02 -4.1260522603988647e-01</leafValues></_>
        <_>
          <internalNodes>
            0 -1 11 7.3353923857212067e-02</internalNodes>
          <leafValues>
            6.7720323801040649e-02 -4.9539890885353088e-01</leafValues></_>
        <_>
          <internalNodes>
            0 -1 16 -3.7595670670270920e-02</internalNodes>
          <leafValues>
            -4.0594869852066040e-01 9.6966333687305450e-02</leafValues></_>
        <_>
          <internalNodes>
            0 -1 120 -7.7132536098361015e-03</internalNodes>
          <leafValues>
            4.0451687574386597e-01 -1.2484762817621231e-01</leafValues></_>
        <_>
          <internalNodes>
            0 -1 52 -6.5477773547172546e-02</internalNodes>
          <leafValues>
            1.8451267480850220e-01 -2.1996037662029266e-01</leafValues></_>
        <_>
          <internalNodes>
            0 -1 143 6.8641304969787598e-03</internalNodes>
          <leafValues>
            -1.6107071936130524e-01 2.8757280111312866e-01</leafValues></_>
        <_>
          <internalNodes>
            0 -1 209 -2.2405486553907394e-02</internalNodes>
          <leafValues>
            5.7359296083450317e-01 -6.5598152577877045e-02</leafValues></_>
        <_>
          <internalNodes>
            0 -1 339 6.0232440009713173e-03</internalNodes>
          <leafValues>
            -6.9189481437206268e-02 4.9961996078491211e-01</leafValues></_>
        <_>
          <internalNodes>
            0 -1 152 1.5007358789443970e-01</internalNodes>
          <leafValues>
            -5.8457214385271072e-02 5.8600884675979614e-01</leafValues></_>
        <_>
          <internalNodes>
            0 -1 258 -4.4438992626965046e-03</internalNodes>
          <leafValues>
            5.8267879486083984e-01 -5.9035927057266235e-02</leafValues></_>
        <_>
          <internalNodes>
            0 -1 103 5.5225184187293053e-03</internalNodes>
          <leafValues>
            -1.2869456410408020e-01 2.8960344195365906e-01</leafValues></_>
        <_>
          <internalNodes>
            0 -1 216 -1.7432220280170441e-02</internalNodes>
          <leafValues>
            4.9893409013748169e-01 -8.2527831196784973e-02</leafValues></_>
        <_>
          <internalNodes>
            0 -1 305 7.7334553934633732e-03</internalNodes>
          <leafValues>
            -1.1608196049928665e-01 3.8585898280143738e-01</leafValues></_>
        <_>
          <internalNodes>
            0 -1 341 -3.2789266109466553e-01</internalNodes>
          <leafValues>
            -7.4049872159957886e-01 5.7016506791114807e-02</leafValues></_>
        <_>
          <internalNodes>
            0 -1 62 -2.0434344187378883e-03</internalNodes>
          <leafValues>
            -5.8589202165603638e-01 5.4003518074750900e-02</leafValues></_>
        <_>
          <internalNodes>
            0 -1 130 -7.3670811951160431e-02</internalNodes>
          <leafValues>
            -1.9442436099052429e-01 1.8479230999946594e-01</leafValues></_>
        <_>
          <internalNodes>
            0 -1 246 -4.8526022583246231e-03</internalNodes>
          <leafValues>
            7.2665229439735413e-02 -5.2264332771301270e-01</leafValues></_>
        <_>
          <internalNodes>
            0 -1 284 -5.8616835623979568e-02</internalNodes>
          <leafValues>
            -8.1301844120025635e-01 4.0722463279962540e-02</leafValues></_>
        <_>
          <internalNodes>
            0 -1 306 4.1006375104188919e-03</internalNodes>
          <leafValues>
            -1.3522502779960632e-01 2.9074150323867798e-01</leafValues></_>
        <_>
          <internalNodes>
            0 -1 192 -2.5323484092950821e-02</internalNodes>
          <leafValues>
            -8.7261193990707397e-01 4.2357377707958221e-02</leafValues></_>
        <_>
          <internalNodes>
            0 -1 255 -3.5201446153223515e-03</internalNodes>
          <leafValues>
            3.8378301262855530e-01 -1.0855050384998322e-01</leafValues></_>
        <_>
          <internalNodes>
            0 -1 312 -1.8815295770764351e-02</internalNodes>
          <leafValues>
            8.5767984390258789e-02 -4.6876317262649536e-01</leafValues></_>
        <_>
          <internalNodes>
            0 -1 85 -7.6751424930989742e-03</internalNodes>
          <leafValues>
            4.4722467660903931e-01 -9.3883879482746124e-02</leafValues></_>
        <_>
          <internalNodes>
            0 -1 122 -1.2775641866028309e-02</internalNodes>
          <leafValues>
            -4.5206371694803238e-02 7.4876242876052856e-01</leafValues></_>
        <_>
          <internalNodes>
            0 -1 291 -1.1969055235385895e-01</internalNodes>
          <leafValues>
            -3.7899151444435120e-01 1.2256751954555511e-01</leafValues></_></weakClassifiers></_></stages>
  <features>
    <_>
      <rects>
        <_>
          0 0 1 20 -1.</_>
        <_>
          0 10 1 10 2.</_></rects>
      <tilted>0</tilted></_>
    <_>
      <rects>
        <_>
          0 0 2 24 -1.</_>
        <_>
          1 0 1 24 2.</_></rects>
      <tilted>0</tilted></_>
    <_>
      <rects>
        <_>
          0 0 6 1 -1.</_>
        <_>
          2 0 2 1 2.</_></rects>
      <tilted>0</tilted></_>
    <_>
      <rects>
        <_>
          0 0 12 1 -1.</_>
        <_>
          6 0 6 1 2.</_></rects>
      <tilted>0</tilted></_>
    <_>
      <rects>
        <_>
          0 0 16 2 -1.</_>
        <_>
          8 0 8 2 2.</_></rects>
      <tilted>0</tilted></_>
    <_>
      <rects>
        <_>
          0 0 20 24 -1.</_>
        <_>
          10 0 10 24 2.</_></rects>
      <tilted>0</tilted></_>
    <_>
      <rects>
        <_>
          0 0 22 23 -1.</_>
        <_>
          11 0 11 23 2.</_></rects>
      <tilted>0</tilted></_>
    <_>
      <rects>
        <_>
          0 0 24 22 -1.</_>
        <_>
          12 0 12 22 2.</_></rects>
      <tilted>0</tilted></_>
    <_>
      <rects>
        <_>
          0 0 24 16 -1.</_>
        <_>
          0 8 24 8 2.</_></rects>
      <tilted>0</tilted></_>
    <_>
      <rects>
        <_>
          0 0 24 24 -1.</_>
        <_>
          0 8 24 8 2.</_></rects>
      <tilted>0</tilted></_>
    <_>
      <rects>
        <_>
          0 1 3 6 -1.</_>
        <_>
          1 1 1 6 2.</_></rects>
      <tilted>0</tilted></_>
    <_>
      <rects>
        <_>
          0 1 5 18 -1.</_>
        <_>
          0 10 5 9 2.</_></rects>
      <tilted>0</tilted></_>
    <_>
      <rects>
        <_>
          0 1 24 3 -1.</_>
        <_>
          0 2 24 1 2.</_></rects>
      <tilted>0</tilted></_>
    <_>
      <rects>
        <_>
          0 2 1 8 -1.</_>
        <_>
          0 6 1 4 2.</_></rects>
      <tilted>0</tilted></_>
    <_>
      <rects>
        <_>
          0 2 3 12 -1.</_>
        <_>
          1 2 1 12 2.</_></rects>
      <tilted>0</tilted></_>
    <_>
      <rects>
        <_>
          0 2 9 17 -1.</_>
        <_>
          3 2 3 17 2.</_></rects>
      <tilted>0</tilted></_>
    <_>
      <rects>
        <_>
          0 2 7 3 -1.</_>
        <_>
          0 3 7 1 2.</_></rects>
      <tilted>0</tilted></_>
    <_>
      <rects>
        <_>
          0 3 2 8 -1.</_>
        <_>
          1 3 1 8 2.</_></rects>
      <tilted>0</tilted></_>
    <_>
      <rects>
        <_>
          0 3 24 15 -1.</_>
        <_>
          0 8 24 5 2.</_></rects>
      <tilted>0</tilted></_>
    <_>
      <rects>
        <_>
          0 4 10 16 -1.</_>
        <_>
          5 4 5 16 2.</_></rects>
      <tilted>0</tilted></_>
    <_>
      <rects>
        <_>
          0 4 10 20 -1.</_>
        <_>
          5 4 5 20 2.</_></rects>
      <tilted>0</tilted></_>
    <_>
      <rects>
        <_>
          0 6 14 4 -1.</_>
        <_>
          0 6 7 2 2.</_>
        <_>
          7 8 7 2 2.</_></rects>
      <tilted>0</tilted></_>
    <_>
      <rects>
        <_>
          0 7 18 1 -1.</_>
        <_>
          6 7 6 1 2.</_></rects>
      <tilted>0</tilted></_>
    <_>
      <rects>
        <_>
          0 7 18 2 -1.</_>
        <_>
          6 7 6 2 2.</_></rects>
      <tilted>0</tilted></_>
    <_>
      <rects>
        <_>
          0 10 6 4 -1.</_>
        <_>
          0 10 3 2 2.</_>
        <_>
          3 12 3 2 2.</_></rects>
      <tilted>0</tilted></_>
    <_>
      <rects>
        <_>
          0 11 20 8 -1.</_>
        <_>
          10 11 10 8 2.</_></rects>
      <tilted>0</tilted></_>
    <_>
      <rects>
        <_>
          0 12 2 11 -1.</_>
        <_>
          1 12 1 11 2.</_></rects>
      <tilted>0</tilted></_>
    <_>
      <rects>
        <_>
          0 13 24 8 -1.</_>
        <_>
          12 13 12 8 2.</_></rects>
      <tilted>0</tilted></_>
    <_>
      <rects>
        <_>
          0 14 24 6 -1.</_>
        <_>
          8 14 8 6 2.</_></rects>
      <tilted>0</tilted></_>
    <_>
      <rects>
        <_>
          0 14 24 5 -1.</_>
        <_>
          12 14 12 5 2.</_></rects>
      <tilted>0</tilted></_>
    <_>
      <rects>
        <_>
          0 14 18 3 -1.</_>
        <_>
          0 15 18 1 2.</_></rects>
      <tilted>0</tilted></_>
    <_>
      <rects>
        <_>
          0 15 2 2 -1.</_>
        <_>
          1 15 1 2 2.</_></rects>
      <tilted>0</tilted></_>
    <_>
      <rects>
        <_>
          0 17 22 3 -1.</_>
        <_>
          0 18 22 1 2.</_></rects>
      <tilted>0</tilted></_>
    <_>
      <rects>
        <_>
          0 18 3 1 -1.</_>
        <_>
          1 18 1 1 2.</_></rects>
      <tilted>0</tilted></_>
    <_>
      <rects>
        <_>
          0 19 2 3 -1.</_>
        <_>
          1 19 1 3 2.</_></rects>
      <tilted>0</tilted></_>
    <_>
      <rects>
        <_>
          0 19 23 4 -1.</_>
        <_>
          0 21 23 2 2.</_></rects>
      <tilted>0</tilted></_>
    <_>
      <rects>
        <_>
          0 20 18 2 -1.</_>
        <_>
          0 21 18 1 2.</_></rects>
      <tilted>0</tilted></_>
    <_>
      <rects>
        <_>
          0 21 12 2 -1.</_>
        <_>
          6 21 6 2 2.</_></rects>
      <tilted>0</tilted></_>
    <_>
      <rects>
        <_>
          0 22 2 2 -1.</_>
        <_>
          0 22 1 1 2.</_>
        <_>
          1 23 1 1 2.</_></rects>
      <tilted>0</tilted></_>
    <_>
      <rects>
        <_>
          0 22 18 2 -1.</_>
        <_>
          0 23 18 1 2.</_></rects>
      <tilted>0</tilted></_>
    <_>
      <rects>
        <_>
          1 0 2 5 -1.</_>
        <_>
          2 0 1 5 2.</_></rects>
      <tilted>0</tilted></_>
    <_>
      <rects>
        <_>
          1 0 8 5 -1.</_>
        <_>
          5 0 4 5 2.</_></rects>
      <tilted>0</tilted></_>
    <_>
      <rects>
        <_>
          1 1 3 1 -1.</_>
        <_>
          2 1 1 1 2.</_></rects>
      <tilted>0</tilted></_>
    <_>
      <rects>
        <_>
          1 1 4 21 -1.</_>
        <_>
          3 1 2 21 2.</_></rects>
      <tilted>0</tilted></_>
    <_>
      <rects>
        <_>
          1 2 2 20 -1.</_>
        <_>
          2 2 1 20 2.</_></rects>
      <tilted>0</tilted></_>
    <_>
      <rects>
        <_>
          1 2 12 4 -1.</_>
        <_>
          7 2 6 4 2.</_></rects>
      <tilted>0</tilted></_>
    <_>
      <rects>
        <_>
          1 3 3 8 -1.</_>
        <_>
          2 3 1 8 2.</_></rects>
      <tilted>0</tilted></_>
    <_>
      <rects>
        <_>
          1 3 8 6 -1.</_>
        <_>
          1 6 8 3 2.</_></rects>
      <tilted>0</tilted></_>
    <_>
      <rects>
        <_>
          1 4 6 10 -1.</_>
        <_>
          1 4 3 5 2.</_>
        <_>
          4 9 3 5 2.</_></rects>
      <tilted>0</tilted></_>
    <_>
      <rects>
        <_>
          1 4 8 10 -1.</_>
        <_>
          1 4 4 5 2.</_>
        <_>
          5 9 4 5 2.</_></rects>
      <tilted>0</tilted></_>
    <_>
      <rects>
        <_>
          1 4 11 9 -1.</_>
        <_>
          1 7 11 3 2.</_></rects>
      <tilted>0</tilted></_>
    <_>
      <rects>
        <_>
          1 5 8 2 -1.</_>
        <_>
          5 5 4 2 2.</_></rects>
      <tilted>0</tilted></_>
    <_>
      <rects>
        <_>
          1 8 14 3 -1.</_>
        <_>
          1 9 14 1 2.</_></rects>
      <tilted>0</tilted></_>
    <_>
      <rects>
        <_>
          1 8 18 16 -1.</_>
        <_>
          1 16 18 8 2.</_></rects>
      <tilted>0</tilted></_>
    <_>
      <rects>
        <_>
          1 9 8 4 -1.</_>
        <_>
          5 9 4 4 2.</_></rects>
      <tilted>0</tilted></_>
    <_>
      <rects>
        <_>
          1 13 23 9 -1.</_>
        <_>
          1 16 23 3 2.</_></rects>
      <tilted>0</tilted></_>
    <_>
      <rects>
        <_>
          1 14 1 3 -1.</_>
        <_>
          1 15 1 1 2.</_></rects>
      <tilted>0</tilted></_>
    <_>
      <rects>
        <_>
          1 15 3 8 -1.</_>
        <_>
          1 19 3 4 2.</_></rects>
      <tilted>0</tilted></_>
    <_>
      <rects>
        <_>
          1 18 22 6 -1.</_>
        <_>
          1 21 22 3 2.</_></rects>
      <tilted>0</tilted></_>
    <_>
      <rects>
        <_>
          1 19 2 1 -1.</_>
        <_>
          2 19 1 1 2.</_></rects>
      <tilted>0</tilted></_>
    <_>
      <rects>
        <_>
          1 19 10 4 -1.</_>
        <_>
          6 19 5 4 2.</_></rects>
      <tilted>0</tilted></_>
    <_>
      <rects>
        <_>
          1 20 12 4 -1.</_>
        <_>
          5 20 4 4 2.</_></rects>
      <tilted>0</tilted></_>
    <_>
      <rects>
        <_>
          1 22 2 2 -1.</_>
        <_>
          2 22 1 2 2.</_></rects>
      <tilted>0</tilted></_>
    <_>
      <rects>
        <_>
          1 23 3 1 -1.</_>
        <_>
          2 23 1 1 2.</_></rects>
      <tilted>0</tilted></_>
    <_>
      <rects>
        <_>
          2 0 3 1 -1.</_>
        <_>
          3 0 1 1 2.</_></rects>
      <tilted>0</tilted></_>
    <_>
      <rects>
        <_>
          2 0 19 18 -1.</_>
        <_>
          2 6 19 6 2.</_></rects>
      <tilted>0</tilted></_>
    <_>
      <rects>
        <_>
          2 2 10 6 -1.</_>
        <_>
          7 2 5 6 2.</_></rects>
      <tilted>0</tilted></_>
    <_>
      <rects>
        <_>
          2 4 3 14 -1.</_>
        <_>
          3 4 1 14 2.</_></rects>
      <tilted>0</tilted></_>
    <_>
      <rects>
        <_>
          2 4 14 6 -1.</_>
        <_>
          2 4 7 3 2.</_>
        <_>
          9 7 7 3 2.</_></rects>
      <tilted>0</tilted></_>
    <_>
      <rects>
        <_>
          2 4 20 6 -1.</_>
        <_>
          2 6 20 2 2.</_></rects>
      <tilted>0</tilted></_>
    <_>
      <rects>
        <_>
          2 6 22 18 -1.</_>
        <_>
          2 12 22 6 2.</_></rects>
      <tilted>0</tilted></_>
    <_>
      <rects>
        <_>
          2 7 3 1 -1.</_>
        <_>
          3 7 1 1 2.</_></rects>
      <tilted>0</tilted></_>
    <_>
      <rects>
        <_>
          2 7 10 8 -1.</_>
        <_>
          2 7 5 4 2.</_>
        <_>
          7 11 5 4 2.</_></rects>
      <tilted>0</tilted></_>
    <_>
      <rects>
        <_>
          2 7 18 1 -1.</_>
        <_>
          8 7 6 1 2.</_></rects>
      <tilted>0</tilted></_>
    <_>
      <rects>
        <_>
          2 10 12 10 -1.</_>
        <_>
          2 10 6 5 2.</_>
        <_>
          8 15 6 5 2.</_></rects>
      <tilted>0</tilted></_>
    <_>
      <rects>
        <_>
          2 10 14 6 -1.</_>
        <_>
          2 12 14 2 2.</_></rects>
      <tilted>0</tilted></_>
    <_>
      <rects>
        <_>
          2 13 22 4 -1.</_>
        <_>
          2 15 22 2 2.</_></rects>
      <tilted>0</tilted></_>
    <_>
      <rects>
        <_>
          2 15 2 3 -1.</_>
        <_>
          3 15 1 3 2.</_></rects>
      <tilted>0</tilted></_>
    <_>
      <rects>
        <_>
          2 15 2 6 -1.</_>
        <_>
          2 15 1 3 2.</_>
        <_>
          3 18 1 3 2.</_></rects>
      <tilted>0</tilted></_>
    <_>
      <rects>
        <_>
          2 15 19 6 -1.</_>
        <_>
          2 17 19 2 2.</_></rects>
      <tilted>0</tilted></_>
    <_>
      <rects>
        <_>
          2 15 22 6 -1.</_>
        <_>
          2 17 22 2 2.</_></rects>
      <tilted>0</tilted></_>
    <_>
      <rects>
        <_>
          2 17 3 6 -1.</_>
        <_>
          2 20 3 3 2.</_></rects>
      <tilted>0</tilted></_>
    <_>
      <rects>
        <_>
          2 19 22 3 -1.</_>
        <_>
          2 20 22 1 2.</_></rects>
      <tilted>0</tilted></_>
    <_>
      <rects>
        <_>
          2 20 18 3 -1.</_>
        <_>
          11 20 9 3 2.</_></rects>
      <tilted>0</tilted></_>
    <_>
      <rects>
        <_>
          2 21 10 2 -1.</_>
        <_>
          2 22 10 1 2.</_></rects>
      <tilted>0</tilted></_>
    <_>
      <rects>
        <_>
          2 21 11 2 -1.</_>
        <_>
          2 22 11 1 2.</_></rects>
      <tilted>0</tilted></_>
    <_>
      <rects>
        <_>
          2 22 20 2 -1.</_>
        <_>
          2 22 10 1 2.</_>
        <_>
          12 23 10 1 2.</_></rects>
      <tilted>0</tilted></_>
    <_>
      <rects>
        <_>
          2 22 17 2 -1.</_>
        <_>
          2 23 17 1 2.</_></rects>
      <tilted>0</tilted></_>
    <_>
      <rects>
        <_>
          3 0 8 2 -1.</_>
        <_>
          7 0 4 2 2.</_></rects>
      <tilted>0</tilted></_>
    <_>
      <rects>
        <_>
          3 0 4 6 -1.</_>
        <_>
          3 3 4 3 2.</_></rects>
      <tilted>0</tilted></_>
    <_>
      <rects>
        <_>
          3 0 12 4 -1.</_>
        <_>
          3 0 6 2 2.</_>
        <_>
          9 2 6 2 2.</_></rects>
      <tilted>0</tilted></_>
    <_>
      <rects>
        <_>
          3 0 12 8 -1.</_>
        <_>
          9 0 6 8 2.</_></rects>
      <tilted>0</tilted></_>
    <_>
      <rects>
        <_>
          3 0 14 2 -1.</_>
        <_>
          10 0 7 2 2.</_></rects>
      <tilted>0</tilted></_>
    <_>
      <rects>
        <_>
          3 0 13 16 -1.</_>
        <_>
          3 8 13 8 2.</_></rects>
      <tilted>0</tilted></_>
    <_>
      <rects>
        <_>
          3 1 6 1 -1.</_>
        <_>
          5 1 2 1 2.</_></rects>
      <tilted>0</tilted></_>
    <_>
      <rects>
        <_>
          3 1 14 7 -1.</_>
        <_>
          10 1 7 7 2.</_></rects>
      <tilted>0</tilted></_>
    <_>
      <rects>
        <_>
          3 2 2 2 -1.</_>
        <_>
          3 2 1 1 2.</_>
        <_>
          4 3 1 1 2.</_></rects>
      <tilted>0</tilted></_>
    <_>
      <rects>
        <_>
          3 2 3 15 -1.</_>
        <_>
          4 2 1 15 2.</_></rects>
      <tilted>0</tilted></_>
    <_>
      <rects>
        <_>
          3 4 7 6 -1.</_>
        <_>
          3 7 7 3 2.</_></rects>
      <tilted>0</tilted></_>
    <_>
      <rects>
        <_>
          3 5 12 18 -1.</_>
        <_>
          3 14 12 9 2.</_></rects>
      <tilted>0</tilted></_>
    <_>
      <rects>
        <_>
          3 6 17 3 -1.</_>
        <_>
          3 7 17 1 2.</_></rects>
      <tilted>0</tilted></_>
    <_>
      <rects>
        <_>
          3 7 20 16 -1.</_>
        <_>
          3 15 20 8 2.</_></rects>
      <tilted>0</tilted></_>
    <_>
      <rects>
        <_>
          3 17 3 1 -1.</_>
        <_>
          4 17 1 1 2.</_></rects>
      <tilted>0</tilted></_>
    <_>
      <rects>
        <_>
          3 17 20 2 -1.</_>
        <_>
          3 17 10 1 2.</_>
        <_>
          13 18 10 1 2.</_></rects>
      <tilted>0</tilted></_>
    <_>
      <rects>
        <_>
          3 18 21 4 -1.</_>
        <_>
          3 20 21 2 2.</_></rects>
      <tilted>0</tilted></_>
    <_>
      <rects>
        <_>
          3 19 13 4 -1.</_>
        <_>
          3 21 13 2 2.</_></rects>
      <tilted>0</tilted></_>
    <_>
      <rects>
        <_>
          3 20 10 3 -1.</_>
        <_>
          8 20 5 3 2.</_></rects>
      <tilted>0</tilted></_>
    <_>
      <rects>
        <_>
          3 20 18 3 -1.</_>
        <_>
          3 21 18 1 2.</_></rects>
      <tilted>0</tilted></_>
    <_>
      <rects>
        <_>
          3 20 19 3 -1.</_>
        <_>
          3 21 19 1 2.</_></rects>
      <tilted>0</tilted></_>
    <_>
      <rects>
        <_>
          3 22 16 2 -1.</_>
        <_>
          3 23 16 1 2.</_></rects>
      <tilted>0</tilted></_>
    <_>
      <rects>
        <_>
          4 0 3 5 -1.</_>
        <_>
          5 0 1 5 2.</_></rects>
      <tilted>0</tilted></_>
    <_>
      <rects>
        <_>
          4 0 3 23 -1.</_>
        <_>
          5 0 1 23 2.</_></rects>
      <tilted>0</tilted></_>
    <_>
      <rects>
        <_>
          4 0 17 8 -1.</_>
        <_>
          4 4 17 4 2.</_></rects>
      <tilted>0</tilted></_>
    <_>
      <rects>
        <_>
          4 1 7 9 -1.</_>
        <_>
          4 4 7 3 2.</_></rects>
      <tilted>0</tilted></_>
    <_>
      <rects>
        <_>
          4 3 4 8 -1.</_>
        <_>
          4 7 4 4 2.</_></rects>
      <tilted>0</tilted></_>
    <_>
      <rects>
        <_>
          4 3 14 6 -1.</_>
        <_>
          4 3 7 3 2.</_>
        <_>
          11 6 7 3 2.</_></rects>
      <tilted>0</tilted></_>
    <_>
      <rects>
        <_>
          4 3 8 6 -1.</_>
        <_>
          4 6 8 3 2.</_></rects>
      <tilted>0</tilted></_>
    <_>
      <rects>
        <_>
          4 4 12 2 -1.</_>
        <_>
          8 4 4 2 2.</_></rects>
      <tilted>0</tilted></_>
    <_>
      <rects>
        <_>
          4 4 15 2 -1.</_>
        <_>
          9 4 5 2 2.</_></rects>
      <tilted>0</tilted></_>
    <_>
      <rects>
        <_>
          4 5 2 3 -1.</_>
        <_>
          4 6 2 1 2.</_></rects>
      <tilted>0</tilted></_>
    <_>
      <rects>
        <_>
          4 5 3 4 -1.</_>
        <_>
          4 7 3 2 2.</_></rects>
      <tilted>0</tilted></_>
    <_>
      <rects>
        <_>
          4 5 18 2 -1.</_>
        <_>
          4 5 9 1 2.</_>
        <_>
          13 6 9 1 2.</_></rects>
      <tilted>0</tilted></_>
    <_>
      <rects>
        <_>
          4 7 18 5 -1.</_>
        <_>
          10 7 6 5 2.</_></rects>
      <tilted>0</tilted></_>
    <_>
      <rects>
        <_>
          4 8 3 8 -1.</_>
        <_>
          5 8 1 8 2.</_></rects>
      <tilted>0</tilted></_>
    <_>
      <rects>
        <_>
          4 8 3 4 -1.</_>
        <_>
          4 10 3 2 2.</_></rects>
      <tilted>0</tilted></_>
    <_>
      <rects>
        <_>
          4 8 6 4 -1.</_>
        <_>
          4 10 6 2 2.</_></rects>
      <tilted>0</tilted></_>
    <_>
      <rects>
        <_>
          4 10 13 14 -1.</_>
        <_>
          4 17 13 7 2.</_></rects>
      <tilted>0</tilted></_>
    <_>
      <rects>
        <_>
          4 10 20 12 -1.</_>
        <_>
          4 16 20 6 2.</_></rects>
      <tilted>0</tilted></_>
    <_>
      <rects>
        <_>
          4 12 2 2 -1.</_>
        <_>
          4 12 1 1 2.</_>
        <_>
          5 13 1 1 2.</_></rects>
      <tilted>0</tilted></_>
    <_>
      <rects>
        <_>
          4 15 2 2 -1.</_>
        <_>
          4 15 1 1 2.</_>
        <_>
          5 16 1 1 2.</_></rects>
      <tilted>0</tilted></_>
    <_>
      <rects>
        <_>
          4 15 9 6 -1.</_>
        <_>
          4 17 9 2 2.</_></rects>
      <tilted>0</tilted></_>
