<?xml version="1.0"?>
<opencv_storage>
<stage7>
  <maxWeakCount>41</maxWeakCount>
  <stageThreshold>-1.5088608264923096e+00</stageThreshold>
  <weakClassifiers>
    <_>
      <internalNodes>
        0 -1 111681 1.6690805554389954e-01</internalNodes>
      <leafValues>
        -7.4730086326599121e-01 6.9999998807907104e-01</leafValues></_>
    <_>
      <internalNodes>
        0 -1 73145 2.0547183230519295e-02</internalNodes>
      <leafValues>
        -2.7769154310226440e-01 5.6951713562011719e-01</leafValues></_>
    <_>
      <internalNodes>
        0 -1 25787 -1.4600787544623017e-03</internalNodes>
      <leafValues>
        6.3585698604583740e-02 -8.9158362150192261e-01</leafValues></_>
    <_>
      <internalNodes>
        0 -1 139893 5.6121647357940674e-02</internalNodes>
      <leafValues>
        -1.1559396982192993e-01 3.9208021759986877e-01</leafValues></_>
    <_>
      <internalNodes>
        0 -1 157678 1.4339673332870007e-02</internalNodes>
      <leafValues>
        6.8370841443538666e-02 -6.6633766889572144e-01</leafValues></_>
    <_>
      <internalNodes>
        0 -1 146547 9.1607179492712021e-03</internalNodes>
      <leafValues>
        -1.1605793237686157e-01 3.9121359586715698e-01</leafValues></_>
    <_>
      <internalNodes>
        0 -1 91607 1.0195094347000122e-01</internalNodes>
      <leafValues>
        -6.7789018154144287e-02 7.5949543714523315e-01</leafValues></_>
    <_>
      <internalNodes>
        0 -1 13226 1.8718864768743515e-02</internalNodes>
      <leafValues>
        -7.5632438063621521e-02 5.4049032926559448e-01</leafValues></_>
    <_>
      <internalNodes>
        0 -1 106779 1.0877996683120728e-02</internalNodes>
      <leafValues>
        -1.5986955165863037e-01 2.9288008809089661e-01</leafValues></_>
    <_>
      <internalNodes>
        0 -1 143396 -5.0700325518846512e-03</internalNodes>
      <leafValues>
        3.2878321409225464e-01 -1.2672337889671326e-01</leafValues></_>
    <_>
      <internalNodes>
        0 -1 127572 2.6353769935667515e-03</internalNodes>
      <leafValues>
        1.4091219007968903e-01 -3.1449377536773682e-01</leafValues></_>
    <_>
      <internalNodes>
        0 -1 69808 -6.4979150891304016e-02</internalNodes>
      <leafValues>
        -5.3288894891738892e-01 8.1236809492111206e-02</leafValues></_>
    <_>
      <internalNodes>
        0 -1 159926 -1.3076406717300415e-01</internalNodes>
      <leafValues>
        -6.1702388525009155e-01 6.0609377920627594e-02</leafValues></_>
    <_>
      <internalNodes>
        0 -1 129751 -3.4214064478874207e-02</internalNodes>
      <leafValues>
        6.9095635414123535e-01 -5.4198652505874634e-02</leafValues></_>
    <_>
      <internalNodes>
        0 -1 144666 2.8570827096700668e-02</internalNodes>
      <leafValues>
        -1.3930204510688782e-01 2.8862303495407104e-01</leafValues></_>
    <_>
      <internalNodes>
        0 -1 158546 -2.4321742355823517e-02</internalNodes>
      <leafValues>
        -4.9315464496612549e-01 9.0654559433460236e-02</leafValues></_>
    <_>
      <internalNodes>
        0 -1 8909 6.6098719835281372e-03</internalNodes>
      <leafValues>
        -1.2619578838348389e-01 3.5106247663497925e-01</leafValues></_>
    <_>
      <internalNodes>
        0 -1 39811 1.3594505144283175e-03</internalNodes>
      <leafValues>
        7.7026955783367157e-02 -5.8881902694702148e-01</leafValues></_>
    <_>
      <internalNodes>
        0 -1 77552 2.7469713240861893e-02</internalNodes>
      <leafValues>
        -6.3911221921443939e-02 7.6550322771072388e-01</leafValues></_>
    <_>
      <internalNodes>
        0 -1 57122 3.8003843277692795e-02</internalNodes>
      <leafValues>
        9.3677952885627747e-02 -5.2502429485321045e-01</leafValues></_>
    <_>
      <internalNodes>
        0 -1 57672 -1.8537438008934259e-03</internalNodes>
      <leafValues>
        -7.0001691579818726e-01 5.4504811763763428e-02</leafValues></_>
    <_>
      <internalNodes>
        0 -1 1131 -4.0110394358634949e-02</internalNodes>
      <leafValues>
        -9.3169242143630981e-01 3.3730197697877884e-02</leafValues></_>
    <_>
      <internalNodes>
        0 -1 3167 4.8000030219554901e-03</internalNodes>
      <leafValues>
        6.2073592096567154e-02 -5.7516634464263916e-01</leafValues></_>
    <_>
      <internalNodes>
        0 -1 20869 -2.8015267848968506e-01</internalNodes>
      <leafValues>
        -9.1110867261886597e-01 3.6339461803436279e-02</leafValues></_>
    <_>
      <internalNodes>
        0 -1 113230 -4.6467343345284462e-03</internalNodes>
      <leafValues>
        3.2104954123497009e-01 -1.2897905707359314e-01</leafValues></_>
    <_>
      <internalNodes>
        0 -1 114492 -3.0831017065793276e-03</internalNodes>
      <leafValues>
        -5.1484441757202148e-01 7.2034820914268494e-02</leafValues></_>
    <_>
      <internalNodes>
        0 -1 90064 5.8056805282831192e-03</internalNodes>
      <leafValues>
        6.3886553049087524e-02 -5.6898772716522217e-01</leafValues></_>
    <_>
      <internalNodes>
        0 -1 18204 -1.1923668906092644e-02</internalNodes>
      <leafValues>
        4.4374027848243713e-01 -1.0104992240667343e-01</leafValues></_>
    <_>
      <internalNodes>
        0 -1 143967 -6.3059469684958458e-03</internalNodes>
      <leafValues>
        6.4846463501453400e-02 -7.4124699831008911e-01</leafValues></_>
    <_>
      <internalNodes>
        0 -1 42851 -1.3018266856670380e-01</internalNodes>
      <leafValues>
        2.9045528173446655e-01 -1.6458013653755188e-01</leafValues></_>
    <_>
      <internalNodes>
        0 -1 152596 9.6641900017857552e-03</internalNodes>
      <leafValues>
        -1.6028806567192078e-01 3.0240222811698914e-01</leafValues></_>
    <_>
      <internalNodes>
        0 -1 107767 -8.6381942033767700e-02</internalNodes>
      <leafValues>
        5.2672785520553589e-01 -9.2576198279857635e-02</leafValues></_>
    <_>
      <internalNodes>
        0 -1 115170 -2.3784339427947998e-02</internalNodes>
      <leafValues>
        3.2066646218299866e-01 -1.2924608588218689e-01</leafValues></_>
    <_>
      <internalNodes>
        0 -1 37945 -1.3417299836874008e-02</internalNodes>
      <leafValues>
        5.1088070869445801e-01 -8.4443487226963043e-02</leafValues></_>
    <_>
      <internalNodes>
        0 -1 61304 -4.8793572932481766e-03</internalNodes>
      <leafValues>
        -7.3810762166976929e-01 5.9071961790323257e-02</leafValues></_>
    <_>
      <internalNodes>
        0 -1 38225 2.1175213158130646e-02</internalNodes>
      <leafValues>
        3.0653977766633034e-02 -9.3816316127777100e-01</leafValues></_>
    <_>
      <internalNodes>
        0 -1 160463 -1.4319747686386108e-02</internalNodes>
      <leafValues>
        -5.4718226194381714e-01 5.3671255707740784e-02</leafValues></_>
    <_>
      <internalNodes>
        0 -1 49115 -1.3119352050125599e-02</internalNodes>
      <leafValues>
        3.0294767022132874e-01 -1.3709038496017456e-01</leafValues></_>
    <_>
      <internalNodes>
        0 -1 13155 9.3211308121681213e-03</internalNodes>
      <leafValues>
        -9.9268928170204163e-02 4.4601058959960938e-01</leafValues></_>
    <_>
      <internalNodes>
        0 -1 73848 -9.8466649651527405e-03</internalNodes>
      <leafValues>
        5.9198415279388428e-01 -6.5170399844646454e-02</leafValues></_>
    <_>
      <internalNodes>
        0 -1 73216 -2.5843843817710876e-02</internalNodes>
      <leafValues>
        -1.3393937051296234e-01 3.4101608395576477e-01</leafValues></_></weakClassifiers></stage7>
</opencv_storage>
