<?xml version="1.0"?>
<opencv_storage>
<stage6>
  <maxWeakCount>45</maxWeakCount>
  <stageThreshold>-1.6083312034606934e+00</stageThreshold>
  <weakClassifiers>
    <_>
      <internalNodes>
        0 -1 93433 -8.5615798830986023e-02</internalNodes>
      <leafValues>
        1.8421052396297455e-01 -8.0778867006301880e-01</leafValues></_>
    <_>
      <internalNodes>
        0 -1 96783 -2.3429957032203674e-01</internalNodes>
      <leafValues>
        -1.2547974288463593e-01 -7.4763584136962891e-01</leafValues></_>
    <_>
      <internalNodes>
        0 -1 114343 9.2909354716539383e-03</internalNodes>
      <leafValues>
        -2.9665783047676086e-01 2.2198903560638428e-01</leafValues></_>
    <_>
      <internalNodes>
        0 -1 13377 -4.5686149969696999e-03</internalNodes>
      <leafValues>
        6.2794610857963562e-02 -8.2045632600784302e-01</leafValues></_>
    <_>
      <internalNodes>
        0 -1 4809 -8.5426464676856995e-02</internalNodes>
      <leafValues>
        -5.8195883035659790e-01 8.4548003971576691e-02</leafValues></_>
    <_>
      <internalNodes>
        0 -1 154781 -4.8445075750350952e-02</internalNodes>
      <leafValues>
        -6.9380182027816772e-01 6.7248478531837463e-02</leafValues></_>
    <_>
      <internalNodes>
        0 -1 158541 -2.0078111439943314e-02</internalNodes>
      <leafValues>
        -7.0075577497482300e-01 6.2005203217267990e-02</leafValues></_>
    <_>
      <internalNodes>
        0 -1 143967 -6.2962416559457779e-03</internalNodes>
      <leafValues>
        5.0886474549770355e-02 -6.7826592922210693e-01</leafValues></_>
    <_>
      <internalNodes>
        0 -1 145272 3.2291278243064880e-02</internalNodes>
      <leafValues>
        -1.0846178978681564e-01 4.0758144855499268e-01</leafValues></_>
    <_>
      <internalNodes>
        0 -1 62381 -5.9020940214395523e-02</internalNodes>
      <leafValues>
        6.6952896118164063e-01 -5.5001929402351379e-02</leafValues></_>
    <_>
      <internalNodes>
        0 -1 64969 -7.6192632317543030e-02</internalNodes>
      <leafValues>
        -3.0318188667297363e-01 1.4339758455753326e-01</leafValues></_>
    <_>
      <internalNodes>
        0 -1 141829 2.4449303746223450e-02</internalNodes>
      <leafValues>
        -7.5842887163162231e-02 6.0652071237564087e-01</leafValues></_>
    <_>
      <internalNodes>
        0 -1 14421 2.3212812375277281e-03</internalNodes>
      <leafValues>
        7.2918511927127838e-02 -6.1989718675613403e-01</leafValues></_>
    <_>
      <internalNodes>
        0 -1 47048 -3.2700598239898682e-03</internalNodes>
      <leafValues>
        1.1067391932010651e-01 -3.4770226478576660e-01</leafValues></_>
    <_>
      <internalNodes>
        0 -1 139316 -4.4778790324926376e-03</internalNodes>
      <leafValues>
        -8.2424670457839966e-01 4.5072574168443680e-02</leafValues></_>
    <_>
      <internalNodes>
        0 -1 119178 1.1497868597507477e-01</internalNodes>
      <leafValues>
        -6.3863873481750488e-02 7.4025911092758179e-01</leafValues></_>
    <_>
      <internalNodes>
        0 -1 96727 -6.6674351692199707e-02</internalNodes>
      <leafValues>
        -4.8928368091583252e-01 9.7547911107540131e-02</leafValues></_>
    <_>
      <internalNodes>
        0 -1 73980 -2.2282732650637627e-02</internalNodes>
      <leafValues>
        7.4518877267837524e-01 -6.4858883619308472e-02</leafValues></_>
    <_>
      <internalNodes>
        0 -1 157544 -2.4971771985292435e-02</internalNodes>
      <leafValues>
        -6.2698173522949219e-01 7.7393315732479095e-02</leafValues></_>
    <_>
      <internalNodes>
        0 -1 61366 -1.2044656090438366e-02</internalNodes>
      <leafValues>
        8.9676953852176666e-02 -4.3204098939895630e-01</leafValues></_>
    <_>
      <internalNodes>
        0 -1 155242 -3.5557285882532597e-03</internalNodes>
      <leafValues>
        -6.9660860300064087e-01 5.4894760251045227e-02</leafValues></_>
    <_>
      <internalNodes>
        0 -1 92788 3.7161502987146378e-02</internalNodes>
      <leafValues>
        -9.5751769840717316e-02 4.6708980202674866e-01</leafValues></_>
    <_>
      <internalNodes>
        0 -1 37738 1.8744327127933502e-02</internalNodes>
      <leafValues>
        -9.0501703321933746e-02 4.3066719174385071e-01</leafValues></_>
    <_>
      <internalNodes>
        0 -1 53691 -1.9488617777824402e-02</internalNodes>
      <leafValues>
        5.4586106538772583e-01 -6.6492602229118347e-02</leafValues></_>
    <_>
      <internalNodes>
        0 -1 73284 -4.3429937213659286e-03</internalNodes>
      <leafValues>
        -4.4402893632650375e-02 7.3937028646469116e-01</leafValues></_>
    <_>
      <internalNodes>
        0 -1 3162 -7.7333580702543259e-03</internalNodes>
      <leafValues>
        -7.9136222600936890e-01 5.9479679912328720e-02</leafValues></_>
    <_>
      <internalNodes>
        0 -1 2175 6.9581884890794754e-03</internalNodes>
      <leafValues>
        5.4717928171157837e-02 -6.5534991025924683e-01</leafValues></_>
    <_>
      <internalNodes>
        0 -1 102585 7.1373232640326023e-03</internalNodes>
      <leafValues>
        -1.3257774710655212e-01 2.8633987903594971e-01</leafValues></_>
    <_>
      <internalNodes>
        0 -1 85015 -8.4558889269828796e-02</internalNodes>
      <leafValues>
        4.4504505395889282e-01 -9.2327781021595001e-02</leafValues></_>
    <_>
      <internalNodes>
        0 -1 95123 1.1448979377746582e-02</internalNodes>
      <leafValues>
        -8.0418236553668976e-02 5.0150537490844727e-01</leafValues></_>
    <_>
      <internalNodes>
        0 -1 33354 -1.7599809914827347e-02</internalNodes>
      <leafValues>
        5.3537821769714355e-01 -6.6972292959690094e-02</leafValues></_>
    <_>
      <internalNodes>
        0 -1 62879 8.6472257971763611e-03</internalNodes>
      <leafValues>
        6.2968105077743530e-02 -6.2790173292160034e-01</leafValues></_>
    <_>
      <internalNodes>
        0 -1 98438 -1.0334771126508713e-02</internalNodes>
      <leafValues>
        4.2384114861488342e-01 -9.7497932612895966e-02</leafValues></_>
    <_>
      <internalNodes>
        0 -1 160369 -1.4488124288618565e-03</internalNodes>
      <leafValues>
        -4.7969242930412292e-01 8.3529449999332428e-02</leafValues></_>
    <_>
      <internalNodes>
        0 -1 22957 3.5927526652812958e-02</internalNodes>
      <leafValues>
        -6.7781582474708557e-02 6.3913726806640625e-01</leafValues></_>
    <_>
      <internalNodes>
        0 -1 81005 -1.6277931630611420e-02</internalNodes>
      <leafValues>
        -8.0689024925231934e-01 5.4077111184597015e-02</leafValues></_>
    <_>
      <internalNodes>
        0 -1 59209 -2.0764055661857128e-03</internalNodes>
      <leafValues>
        -4.5832407474517822e-01 7.1089260280132294e-02</leafValues></_>
    <_>
      <internalNodes>
        0 -1 73939 2.7679724618792534e-02</internalNodes>
      <leafValues>
        -1.1603391915559769e-01 3.7028270959854126e-01</leafValues></_>
    <_>
      <internalNodes>
        0 -1 84290 -2.2105511277914047e-02</internalNodes>
      <leafValues>
        2.6455596089363098e-01 -1.5953874588012695e-01</leafValues></_>
    <_>
      <internalNodes>
        0 -1 161000 -2.4048272520303726e-02</internalNodes>
      <leafValues>
        1.3203927874565125e-01 -2.9432311654090881e-01</leafValues></_>
    <_>
      <internalNodes>
        0 -1 103651 -7.9090669751167297e-02</internalNodes>
      <leafValues>
        -4.1158279776573181e-01 1.1085810512304306e-01</leafValues></_>
    <_>
      <internalNodes>
        0 -1 121623 -7.6712429523468018e-02</internalNodes>
      <leafValues>
        5.7054209709167480e-01 -7.2995252907276154e-02</leafValues></_>
    <_>
      <internalNodes>
        0 -1 81990 -9.0872058644890785e-03</internalNodes>
      <leafValues>
        3.7894061207771301e-01 -9.6439950168132782e-02</leafValues></_>
    <_>
      <internalNodes>
        0 -1 20288 -5.9284237213432789e-03</internalNodes>
      <leafValues>
        -5.2326852083206177e-01 7.9242147505283356e-02</leafValues></_>
    <_>
      <internalNodes>
        0 -1 89936 -9.8593056201934814e-02</internalNodes>
      <leafValues>
        -7.8781455755233765e-01 3.9948254823684692e-02</leafValues></_></weakClassifiers></stage6>
</opencv_storage>
