<?xml version="1.0"?>
<opencv_storage>
<stage1>
  <maxWeakCount>18</maxWeakCount>
  <stageThreshold>-1.6220780611038208e+00</stageThreshold>
  <weakClassifiers>
    <_>
      <internalNodes>
        0 -1 84964 6.4917281270027161e-02</internalNodes>
      <leafValues>
        -8.2692748308181763e-01 4.9180328845977783e-01</leafValues></_>
    <_>
      <internalNodes>
        0 -1 49138 -1.1272975802421570e-01</internalNodes>
      <leafValues>
        -8.4901893138885498e-01 -7.5654871761798859e-02</leafValues></_>
    <_>
      <internalNodes>
        0 -1 31352 1.7571218311786652e-02</internalNodes>
      <leafValues>
        -2.8814306855201721e-01 5.5461341142654419e-01</leafValues></_>
    <_>
      <internalNodes>
        0 -1 140618 2.9006712138652802e-02</internalNodes>
      <leafValues>
        -1.6841635107994080e-01 6.9335883855819702e-01</leafValues></_>
    <_>
      <internalNodes>
        0 -1 60258 -1.1596731841564178e-01</internalNodes>
      <leafValues>
        -7.6236629486083984e-01 1.5437708795070648e-01</leafValues></_>
    <_>
      <internalNodes>
        0 -1 99323 -2.2162058949470520e-01</internalNodes>
      <leafValues>
        -6.9736802577972412e-01 2.1126335859298706e-01</leafValues></_>
    <_>
      <internalNodes>
        0 -1 100803 -5.6365530937910080e-02</internalNodes>
      <leafValues>
        6.2674331665039063e-01 -1.8714682757854462e-01</leafValues></_>
    <_>
      <internalNodes>
        0 -1 99671 -5.5422317236661911e-02</internalNodes>
      <leafValues>
        5.7274240255355835e-01 -1.8644775450229645e-01</leafValues></_>
    <_>
      <internalNodes>
        0 -1 76048 2.0885799080133438e-02</internalNodes>
      <leafValues>
        -1.7676955461502075e-01 6.0565376281738281e-01</leafValues></_>
    <_>
      <internalNodes>
        0 -1 85062 -4.0931478142738342e-02</internalNodes>
      <leafValues>
        6.7154711484909058e-01 -1.4899307489395142e-01</leafValues></_>
    <_>
      <internalNodes>
        0 -1 73133 -1.1200724542140961e-01</internalNodes>
      <leafValues>
        -6.2450879812240601e-01 1.4664371311664581e-01</leafValues></_>
    <_>
      <internalNodes>
        0 -1 97356 -3.6965809762477875e-02</internalNodes>
      <leafValues>
        1.1549197137355804e-01 -8.5271179676055908e-01</leafValues></_>
    <_>
      <internalNodes>
        0 -1 1909 3.6780577898025513e-01</internalNodes>
      <leafValues>
        7.5363785028457642e-02 -9.1694629192352295e-01</leafValues></_>
    <_>
      <internalNodes>
        0 -1 8005 -1.4526520855724812e-02</internalNodes>
      <leafValues>
        1.9017560780048370e-01 -3.7593051791191101e-01</leafValues></_>
    <_>
      <internalNodes>
        0 -1 101476 4.1505046188831329e-02</internalNodes>
      <leafValues>
        -1.2173452228307724e-01 7.0743590593338013e-01</leafValues></_>
    <_>
      <internalNodes>
        0 -1 89826 -6.4325025305151939e-03</internalNodes>
      <leafValues>
        -5.8525425195693970e-01 1.5648630261421204e-01</leafValues></_>
    <_>
      <internalNodes>
        0 -1 51708 -2.9398016631603241e-03</internalNodes>
      <leafValues>
        3.5983213782310486e-01 -2.4386070668697357e-01</leafValues></_>
    <_>
      <internalNodes>
        0 -1 60042 3.4585744142532349e-02</internalNodes>
      <leafValues>
        -1.3105875253677368e-01 5.2773594856262207e-01</leafValues></_></weakClassifiers></stage1>
</opencv_storage>
