<?xml version="1.0"?>
<opencv_storage>
<stage8>
  <maxWeakCount>54</maxWeakCount>
  <stageThreshold>-1.8111087083816528e+00</stageThreshold>
  <weakClassifiers>
    <_>
      <internalNodes>
        0 -1 75610 -1.1579601466655731e-01</internalNodes>
      <leafValues>
        4.1176471114158630e-01 -8.0480074882507324e-01</leafValues></_>
    <_>
      <internalNodes>
        0 -1 60767 -3.4965347498655319e-02</internalNodes>
      <leafValues>
        4.8006293177604675e-01 -3.5983908176422119e-01</leafValues></_>
    <_>
      <internalNodes>
        0 -1 55592 -4.4823765754699707e-02</internalNodes>
      <leafValues>
        7.1945644915103912e-02 -7.9809457063674927e-01</leafValues></_>
    <_>
      <internalNodes>
        0 -1 148410 1.4808443374931812e-02</internalNodes>
      <leafValues>
        8.0780103802680969e-02 -7.7298259735107422e-01</leafValues></_>
    <_>
      <internalNodes>
        0 -1 59953 -5.3760059177875519e-02</internalNodes>
      <leafValues>
        -9.0990042686462402e-01 3.5379871726036072e-02</leafValues></_>
    <_>
      <internalNodes>
        0 -1 162302 -6.1066495254635811e-03</internalNodes>
      <leafValues>
        -4.8205748200416565e-01 5.7169280946254730e-02</leafValues></_>
    <_>
      <internalNodes>
        0 -1 62578 9.6470341086387634e-02</internalNodes>
      <leafValues>
        -1.0315373539924622e-01 3.9020049571990967e-01</leafValues></_>
    <_>
      <internalNodes>
        0 -1 98928 -7.0931628346443176e-02</internalNodes>
      <leafValues>
        -8.1821930408477783e-01 6.7545533180236816e-02</leafValues></_>
    <_>
      <internalNodes>
        0 -1 126771 1.5215571969747543e-02</internalNodes>
      <leafValues>
        -1.2393196672201157e-01 3.5978010296821594e-01</leafValues></_>
    <_>
      <internalNodes>
        0 -1 13413 1.2612457387149334e-02</internalNodes>
      <leafValues>
        4.3115250766277313e-02 -7.5544959306716919e-01</leafValues></_>
    <_>
      <internalNodes>
        0 -1 96820 -5.0119511783123016e-02</internalNodes>
      <leafValues>
        -2.8189593553543091e-01 1.4994712173938751e-01</leafValues></_>
    <_>
      <internalNodes>
        0 -1 100880 -1.0133997350931168e-01</internalNodes>
      <leafValues>
        4.6338084340095520e-01 -8.8430225849151611e-02</leafValues></_>
    <_>
      <internalNodes>
        0 -1 145541 1.6513969749212265e-02</internalNodes>
      <leafValues>
        -1.0464248061180115e-01 3.5589501261711121e-01</leafValues></_>
    <_>
      <internalNodes>
        0 -1 158666 2.7028035838156939e-03</internalNodes>
      <leafValues>
        6.2299989163875580e-02 -6.5536427497863770e-01</leafValues></_>
    <_>
      <internalNodes>
        0 -1 15591 -3.4971646964550018e-02</internalNodes>
      <leafValues>
        1.7225837707519531e-01 -2.0945538580417633e-01</leafValues></_>
    <_>
      <internalNodes>
        0 -1 118170 -9.8143387585878372e-03</internalNodes>
      <leafValues>
        4.1161593794822693e-01 -8.5349768400192261e-02</leafValues></_>
    <_>
      <internalNodes>
        0 -1 565 3.0873047187924385e-02</internalNodes>
      <leafValues>
        4.7894317656755447e-02 -7.2740066051483154e-01</leafValues></_>
    <_>
      <internalNodes>
        0 -1 106807 -6.9600585848093033e-03</internalNodes>
      <leafValues>
        1.0970959067344666e-01 -3.0442020297050476e-01</leafValues></_>
    <_>
      <internalNodes>
        0 -1 97109 -5.8409851044416428e-03</internalNodes>
      <leafValues>
        4.2106043547391891e-02 -7.8998589515686035e-01</leafValues></_>
    <_>
      <internalNodes>
        0 -1 158041 5.5886865593492985e-03</internalNodes>
      <leafValues>
        -2.1613742411136627e-01 1.5772369503974915e-01</leafValues></_>
    <_>
      <internalNodes>
        0 -1 151844 -3.7729654461145401e-02</internalNodes>
      <leafValues>
        -5.5792051553726196e-01 6.6809296607971191e-02</leafValues></_>
    <_>
      <internalNodes>
        0 -1 162020 -1.0864150710403919e-02</internalNodes>
      <leafValues>
        -6.5453237295150757e-01 4.7115072607994080e-02</leafValues></_>
    <_>
      <internalNodes>
        0 -1 25516 2.6493828743696213e-02</internalNodes>
      <leafValues>
        -8.6360566318035126e-02 4.5153003931045532e-01</leafValues></_>
    <_>
      <internalNodes>
        0 -1 25332 -1.1405762284994125e-02</internalNodes>
      <leafValues>
        2.6001328229904175e-01 -1.4227484166622162e-01</leafValues></_>
    <_>
      <internalNodes>
        0 -1 41526 1.4759721234440804e-02</internalNodes>
      <leafValues>
        8.2773067057132721e-02 -4.8692378401756287e-01</leafValues></_>
    <_>
      <internalNodes>
        0 -1 3168 -1.5104198828339577e-02</internalNodes>
      <leafValues>
        -7.4871540069580078e-01 4.7205656766891479e-02</leafValues></_>
    <_>
      <internalNodes>
        0 -1 39241 -3.1702898442745209e-02</internalNodes>
      <leafValues>
        -8.1245243549346924e-02 5.2314221858978271e-01</leafValues></_>
    <_>
      <internalNodes>
        0 -1 17785 -1.1274507641792297e-01</internalNodes>
      <leafValues>
        -1.2694855034351349e-01 3.5725140571594238e-01</leafValues></_>
    <_>
      <internalNodes>
        0 -1 85291 -1.5673123300075531e-02</internalNodes>
      <leafValues>
        5.8871817588806152e-01 -6.9922700524330139e-02</leafValues></_>
    <_>
      <internalNodes>
        0 -1 59596 -1.7640825361013412e-02</internalNodes>
      <leafValues>
        3.1032949686050415e-01 -1.3049283623695374e-01</leafValues></_>
    <_>
      <internalNodes>
        0 -1 36606 -7.1063678478822112e-04</internalNodes>
      <leafValues>
        -3.6002039909362793e-01 1.0572177916765213e-01</leafValues></_>
    <_>
      <internalNodes>
        0 -1 61375 -2.1429374814033508e-02</internalNodes>
      <leafValues>
        6.3804364204406738e-01 -6.8666443228721619e-02</leafValues></_>
    <_>
      <internalNodes>
        0 -1 119372 -5.4281963966786861e-03</internalNodes>
      <leafValues>
        2.3984907567501068e-01 -1.4512012898921967e-01</leafValues></_>
    <_>
      <internalNodes>
        0 -1 150364 -3.6802664399147034e-02</internalNodes>
      <leafValues>
        6.6357880830764771e-02 -5.9245592355728149e-01</leafValues></_>
    <_>
      <internalNodes>
        0 -1 128883 -6.2215402722358704e-02</internalNodes>
      <leafValues>
        6.6436380147933960e-01 -6.7285925149917603e-02</leafValues></_>
    <_>
      <internalNodes>
        0 -1 133778 -3.6696001887321472e-02</internalNodes>
      <leafValues>
        -9.1589993238449097e-01 4.9818120896816254e-02</leafValues></_>
    <_>
      <internalNodes>
        0 -1 56383 -4.5950454659759998e-03</internalNodes>
      <leafValues>
        -8.1373475492000580e-02 5.3382760286331177e-01</leafValues></_>
    <_>
      <internalNodes>
        0 -1 125912 -5.5533409118652344e-02</internalNodes>
      <leafValues>
        -4.9896508455276489e-02 7.1782350540161133e-01</leafValues></_>
    <_>
      <internalNodes>
        0 -1 66790 5.9447567909955978e-03</internalNodes>
      <leafValues>
        -1.0813423246145248e-01 3.3991223573684692e-01</leafValues></_>
    <_>
      <internalNodes>
        0 -1 16 -2.4537378922104836e-03</internalNodes>
      <leafValues>
        -3.0029210448265076e-01 1.1571538448333740e-01</leafValues></_>
    <_>
      <internalNodes>
        0 -1 49805 1.2223023921251297e-02</internalNodes>
      <leafValues>
        -1.2600131332874298e-01 2.7638995647430420e-01</leafValues></_>
    <_>
      <internalNodes>
        0 -1 98547 -3.8858167827129364e-03</internalNodes>
      <leafValues>
        3.7762066721916199e-01 -9.1250963509082794e-02</leafValues></_>
    <_>
      <internalNodes>
        0 -1 133400 -8.4698321297764778e-03</internalNodes>
      <leafValues>
        -8.0139762163162231e-01 4.6472351998090744e-02</leafValues></_>
    <_>
      <internalNodes>
        0 -1 12813 2.2765398025512695e-03</internalNodes>
      <leafValues>
        5.1286585628986359e-02 -5.6751656532287598e-01</leafValues></_>
    <_>
      <internalNodes>
        0 -1 13557 8.7346024811267853e-03</internalNodes>
      <leafValues>
        4.6350929886102676e-02 -6.3166409730911255e-01</leafValues></_>
    <_>
      <internalNodes>
        0 -1 32290 5.8198310434818268e-02</internalNodes>
      <leafValues>
        -4.8141866922378540e-02 8.3475345373153687e-01</leafValues></_>
    <_>
      <internalNodes>
        0 -1 1112 -1.2511274777352810e-02</internalNodes>
      <leafValues>
        -4.7365534305572510e-01 8.5416004061698914e-02</leafValues></_>
    <_>
      <internalNodes>
        0 -1 161182 1.3811817625537515e-03</internalNodes>
      <leafValues>
        5.2546024322509766e-02 -6.1828893423080444e-01</leafValues></_>
    <_>
      <internalNodes>
        0 -1 80842 -4.0508303791284561e-03</internalNodes>
      <leafValues>
        5.5507238954305649e-02 -5.5969583988189697e-01</leafValues></_>
    <_>
      <internalNodes>
        0 -1 25772 -1.2409358285367489e-02</internalNodes>
      <leafValues>
        4.2096221446990967e-01 -9.2200301587581635e-02</leafValues></_>
    <_>
      <internalNodes>
        0 -1 136085 1.7197944223880768e-02</internalNodes>
      <leafValues>
        -1.2552793323993683e-01 2.8599229454994202e-01</leafValues></_>
    <_>
      <internalNodes>
        0 -1 145523 -1.5022546052932739e-02</internalNodes>
      <leafValues>
        4.5117467641830444e-01 -1.0192502290010452e-01</leafValues></_>
    <_>
      <internalNodes>
        0 -1 66234 4.4619850814342499e-03</internalNodes>
      <leafValues>
        -9.1921441256999969e-02 3.7123611569404602e-01</leafValues></_>
    <_>
      <internalNodes>
        0 -1 86303 -3.8851350545883179e-02</internalNodes>
      <leafValues>
        -2.3484669625759125e-01 1.5347613394260406e-01</leafValues></_></weakClassifiers></stage8>
</opencv_storage>
