<?xml version="1.0"?>
<opencv_storage>
<stage7>
  <maxWeakCount>44</maxWeakCount>
  <stageThreshold>-1.6555842161178589e+00</stageThreshold>
  <weakClassifiers>
    <_>
      <internalNodes>
        0 -1 64513 1.0695613455027342e-03</internalNodes>
      <leafValues>
        -8.1081080436706543e-01 6.9306932389736176e-02</leafValues></_>
    <_>
      <internalNodes>
        0 -1 162059 -1.2872837483882904e-02</internalNodes>
      <leafValues>
        -1.1338341981172562e-01 -6.6811114549636841e-01</leafValues></_>
    <_>
      <internalNodes>
        0 -1 20906 -2.1438661217689514e-01</internalNodes>
      <leafValues>
        -8.4892916679382324e-01 5.7403303682804108e-02</leafValues></_>
    <_>
      <internalNodes>
        0 -1 68118 -4.6358816325664520e-02</internalNodes>
      <leafValues>
        3.2549017667770386e-01 -2.5162363052368164e-01</leafValues></_>
    <_>
      <internalNodes>
        0 -1 116881 9.7471000626683235e-03</internalNodes>
      <leafValues>
        -1.2891185283660889e-01 5.4213303327560425e-01</leafValues></_>
    <_>
      <internalNodes>
        0 -1 9456 -6.1311186291277409e-03</internalNodes>
      <leafValues>
        -7.1423101425170898e-01 7.5137034058570862e-02</leafValues></_>
    <_>
      <internalNodes>
        0 -1 160295 -3.1165888532996178e-02</internalNodes>
      <leafValues>
        -5.7657396793365479e-01 8.1371657550334930e-02</leafValues></_>
    <_>
      <internalNodes>
        0 -1 75011 -1.7825239896774292e-01</internalNodes>
      <leafValues>
        2.7166226878762245e-02 -9.3512743711471558e-01</leafValues></_>
    <_>
      <internalNodes>
        0 -1 61190 -2.3530401289463043e-02</internalNodes>
      <leafValues>
        4.1772451996803284e-01 -1.3700346648693085e-01</leafValues></_>
    <_>
      <internalNodes>
        0 -1 2144 8.3257490769028664e-03</internalNodes>
      <leafValues>
        7.4880361557006836e-02 -6.5061253309249878e-01</leafValues></_>
    <_>
      <internalNodes>
        0 -1 102590 -1.8487626314163208e-01</internalNodes>
      <leafValues>
        5.6363576650619507e-01 -8.8541120290756226e-02</leafValues></_>
    <_>
      <internalNodes>
        0 -1 106879 -1.3984075188636780e-01</internalNodes>
      <leafValues>
        -5.8651155233383179e-01 7.7361702919006348e-02</leafValues></_>
    <_>
      <internalNodes>
        0 -1 89489 -4.3020145967602730e-03</internalNodes>
      <leafValues>
        4.0711420774459839e-01 -1.1738473922014236e-01</leafValues></_>
    <_>
      <internalNodes>
        0 -1 54697 8.7773175910115242e-03</internalNodes>
      <leafValues>
        -1.1890470236539841e-01 3.3965730667114258e-01</leafValues></_>
    <_>
      <internalNodes>
        0 -1 109824 -3.4380576107650995e-03</internalNodes>
      <leafValues>
        3.0390676856040955e-01 -1.2097544223070145e-01</leafValues></_>
    <_>
      <internalNodes>
        0 -1 60959 1.5478487312793732e-01</internalNodes>
      <leafValues>
        -8.2323156297206879e-02 4.6368807554244995e-01</leafValues></_>
    <_>
      <internalNodes>
        0 -1 38052 -1.6113895922899246e-02</internalNodes>
      <leafValues>
        -7.5753802061080933e-01 5.5771365761756897e-02</leafValues></_>
    <_>
      <internalNodes>
        0 -1 125896 3.2459419220685959e-02</internalNodes>
      <leafValues>
        -7.3013573884963989e-02 6.0432296991348267e-01</leafValues></_>
    <_>
      <internalNodes>
        0 -1 58265 1.1217193678021431e-02</internalNodes>
      <leafValues>
        -1.5309897065162659e-01 2.7188536524772644e-01</leafValues></_>
    <_>
      <internalNodes>
        0 -1 6789 1.2757420539855957e-02</internalNodes>
      <leafValues>
        -1.1297471076250076e-01 3.6398461461067200e-01</leafValues></_>
    <_>
      <internalNodes>
        0 -1 50937 7.7486895024776459e-03</internalNodes>
      <leafValues>
        -1.1516927182674408e-01 4.2059278488159180e-01</leafValues></_>
    <_>
      <internalNodes>
        0 -1 144000 1.3714397326111794e-02</internalNodes>
      <leafValues>
        5.1395505666732788e-02 -9.1826009750366211e-01</leafValues></_>
    <_>
      <internalNodes>
        0 -1 89739 5.0027454271912575e-03</internalNodes>
      <leafValues>
        -1.2850299477577209e-01 3.3321240544319153e-01</leafValues></_>
    <_>
      <internalNodes>
        0 -1 159721 -1.7987695755437016e-03</internalNodes>
      <leafValues>
        -5.6684994697570801e-01 7.6103620231151581e-02</leafValues></_>
    <_>
      <internalNodes>
        0 -1 130599 -3.6479335278272629e-02</internalNodes>
      <leafValues>
        5.5225342512130737e-01 -7.6858311891555786e-02</leafValues></_>
    <_>
      <internalNodes>
        0 -1 114458 -7.4841871857643127e-02</internalNodes>
      <leafValues>
        -9.8032969236373901e-01 4.4842887669801712e-02</leafValues></_>
    <_>
      <internalNodes>
        0 -1 100383 -2.5398431345820427e-02</internalNodes>
      <leafValues>
        1.7862120270729065e-01 -2.1911682188510895e-01</leafValues></_>
    <_>
      <internalNodes>
        0 -1 39234 -2.5294894352555275e-02</internalNodes>
      <leafValues>
        6.7742890119552612e-01 -5.3851075470447540e-02</leafValues></_>
    <_>
      <internalNodes>
        0 -1 80715 8.3047095686197281e-03</internalNodes>
      <leafValues>
        -6.3474893569946289e-02 5.5270522832870483e-01</leafValues></_>
    <_>
      <internalNodes>
        0 -1 60756 -8.1410892307758331e-03</internalNodes>
      <leafValues>
        -6.7348289489746094e-01 6.8130843341350555e-02</leafValues></_>
    <_>
      <internalNodes>
        0 -1 59543 -3.0982664320617914e-03</internalNodes>
      <leafValues>
        2.0621141791343689e-01 -1.7715808749198914e-01</leafValues></_>
    <_>
      <internalNodes>
        0 -1 111593 6.0734122991561890e-02</internalNodes>
      <leafValues>
        -5.7359207421541214e-02 6.5633821487426758e-01</leafValues></_>
    <_>
      <internalNodes>
        0 -1 32082 -5.9948712587356567e-03</internalNodes>
      <leafValues>
        -6.9768153131008148e-02 5.3240615129470825e-01</leafValues></_>
    <_>
      <internalNodes>
        0 -1 134114 4.4860437512397766e-02</internalNodes>
      <leafValues>
        -1.2237973511219025e-01 3.9621311426162720e-01</leafValues></_>
    <_>
      <internalNodes>
        0 -1 21021 -1.3796333223581314e-02</internalNodes>
      <leafValues>
        3.7833380699157715e-01 -1.0098472237586975e-01</leafValues></_>
    <_>
      <internalNodes>
        0 -1 161513 -1.2051299214363098e-02</internalNodes>
      <leafValues>
        1.0686685889959335e-01 -3.4650811553001404e-01</leafValues></_>
    <_>
      <internalNodes>
        0 -1 4818 7.6079726219177246e-02</internalNodes>
      <leafValues>
        -1.0927341133356094e-01 3.4537959098815918e-01</leafValues></_>
    <_>
      <internalNodes>
        0 -1 115181 -3.2588519155979156e-02</internalNodes>
      <leafValues>
        3.1999841332435608e-01 -1.1369508504867554e-01</leafValues></_>
    <_>
      <internalNodes>
        0 -1 130399 8.0937389284372330e-03</internalNodes>
      <leafValues>
        -9.8867952823638916e-02 3.8214391469955444e-01</leafValues></_>
    <_>
      <internalNodes>
        0 -1 83065 7.3347821831703186e-02</internalNodes>
      <leafValues>
        -5.8385577052831650e-02 6.3823550939559937e-01</leafValues></_>
    <_>
      <internalNodes>
        0 -1 128515 -1.2914922554045916e-03</internalNodes>
      <leafValues>
        5.8365412056446075e-02 -7.9151511192321777e-01</leafValues></_>
    <_>
      <internalNodes>
        0 -1 11451 -1.2549099326133728e-01</internalNodes>
      <leafValues>
        -5.8483970165252686e-01 5.2016347646713257e-02</leafValues></_>
    <_>
      <internalNodes>
        0 -1 984 -2.3629084229469299e-02</internalNodes>
      <leafValues>
        -8.5543292760848999e-01 3.6745462566614151e-02</leafValues></_>
    <_>
      <internalNodes>
        0 -1 6641 -7.7552449703216553e-01</internalNodes>
      <leafValues>
        -5.2847784757614136e-01 5.9273608028888702e-02</leafValues></_></weakClassifiers></stage7>
</opencv_storage>
