<?xml version="1.0"?>
<opencv_storage>
<stage9>
  <maxWeakCount>50</maxWeakCount>
  <stageThreshold>-1.5010410547256470e+00</stageThreshold>
  <weakClassifiers>
    <_>
      <internalNodes>
        0 -1 124359 -9.1527268290519714e-02</internalNodes>
      <leafValues>
        6.1290323734283447e-01 -8.0072134733200073e-01</leafValues></_>
    <_>
      <internalNodes>
        0 -1 109732 -7.1795493364334106e-02</internalNodes>
      <leafValues>
        -1.3450889289379120e-01 -5.4900401830673218e-01</leafValues></_>
    <_>
      <internalNodes>
        0 -1 162332 -3.8091095630079508e-03</internalNodes>
      <leafValues>
        -6.6272425651550293e-01 4.2737092822790146e-02</leafValues></_>
    <_>
      <internalNodes>
        0 -1 36243 -1.7051568627357483e-01</internalNodes>
      <leafValues>
        8.2059301435947418e-02 -8.4901607036590576e-01</leafValues></_>
    <_>
      <internalNodes>
        0 -1 89743 -2.8704572468996048e-02</internalNodes>
      <leafValues>
        -1.4268678426742554e-01 4.0504482388496399e-01</leafValues></_>
    <_>
      <internalNodes>
        0 -1 98594 -3.7740014959126711e-03</internalNodes>
      <leafValues>
        5.4826870560646057e-02 -6.8343919515609741e-01</leafValues></_>
    <_>
      <internalNodes>
        0 -1 109757 -2.1989732980728149e-01</internalNodes>
      <leafValues>
        -5.2665203809738159e-01 7.9916052520275116e-02</leafValues></_>
    <_>
      <internalNodes>
        0 -1 38311 -4.1313745081424713e-02</internalNodes>
      <leafValues>
        6.8136829137802124e-01 -7.0153310894966125e-02</leafValues></_>
    <_>
      <internalNodes>
        0 -1 162234 -6.1697950586676598e-03</internalNodes>
      <leafValues>
        -8.3134979009628296e-01 4.8103276640176773e-02</leafValues></_>
    <_>
      <internalNodes>
        0 -1 161387 -1.5142736956477165e-02</internalNodes>
      <leafValues>
        -7.0210802555084229e-01 5.0284519791603088e-02</leafValues></_>
    <_>
      <internalNodes>
        0 -1 71308 -5.5311392061412334e-03</internalNodes>
      <leafValues>
        -3.3226430416107178e-01 1.1125548183917999e-01</leafValues></_>
    <_>
      <internalNodes>
        0 -1 13216 -1.1823592707514763e-02</internalNodes>
      <leafValues>
        8.2385981082916260e-01 -4.1188944131135941e-02</leafValues></_>
    <_>
      <internalNodes>
        0 -1 122852 7.6538197696208954e-02</internalNodes>
      <leafValues>
        -8.5429392755031586e-02 3.8482594490051270e-01</leafValues></_>
    <_>
      <internalNodes>
        0 -1 144648 3.0484352260828018e-02</internalNodes>
      <leafValues>
        -1.4121051132678986e-01 2.9651689529418945e-01</leafValues></_>
    <_>
      <internalNodes>
        0 -1 114976 1.6547401249408722e-01</internalNodes>
      <leafValues>
        7.6019957661628723e-02 -5.1934903860092163e-01</leafValues></_>
    <_>
      <internalNodes>
        0 -1 25787 -1.1700680479407310e-03</internalNodes>
      <leafValues>
        2.7041764929890633e-02 -1.</leafValues></_>
    <_>
      <internalNodes>
        0 -1 5023 7.3954323306679726e-03</internalNodes>
      <leafValues>
        9.9221862852573395e-02 -3.3553320169448853e-01</leafValues></_>
    <_>
      <internalNodes>
        0 -1 98541 -4.8445239663124084e-03</internalNodes>
      <leafValues>
        3.9290833473205566e-01 -9.0430915355682373e-02</leafValues></_>
    <_>
      <internalNodes>
        0 -1 76274 -1.2722640531137586e-03</internalNodes>
      <leafValues>
        -6.0627702623605728e-02 5.7634574174880981e-01</leafValues></_>
    <_>
      <internalNodes>
        0 -1 152842 9.4196759164333344e-03</internalNodes>
      <leafValues>
        -1.4521600306034088e-01 2.5741338729858398e-01</leafValues></_>
    <_>
      <internalNodes>
        0 -1 116098 -6.1155065894126892e-02</internalNodes>
      <leafValues>
        5.6198574602603912e-02 -7.5632810592651367e-01</leafValues></_>
    <_>
      <internalNodes>
        0 -1 79839 -6.7540004849433899e-02</internalNodes>
      <leafValues>
        -1.3302321732044220e-01 2.8066894412040710e-01</leafValues></_>
    <_>
      <internalNodes>
        0 -1 120027 -2.2456619888544083e-02</internalNodes>
      <leafValues>
        5.4804033041000366e-01 -6.6282965242862701e-02</leafValues></_>
    <_>
      <internalNodes>
        0 -1 44885 -2.1743661165237427e-01</internalNodes>
      <leafValues>
        -8.2839196920394897e-01 4.4709123671054840e-02</leafValues></_>
    <_>
      <internalNodes>
        0 -1 59469 -7.0948541164398193e-02</internalNodes>
      <leafValues>
        -5.4740154743194580e-01 5.3425747901201248e-02</leafValues></_>
    <_>
      <internalNodes>
        0 -1 110028 3.0578348785638809e-02</internalNodes>
      <leafValues>
        -9.3189783394336700e-02 3.9388260245323181e-01</leafValues></_>
    <_>
      <internalNodes>
        0 -1 132535 -2.0170757174491882e-01</internalNodes>
      <leafValues>
        -6.6208481788635254e-01 5.0188977271318436e-02</leafValues></_>
    <_>
      <internalNodes>
        0 -1 152048 -1.1110605672001839e-02</internalNodes>
      <leafValues>
        -7.7365046739578247e-01 3.3928170800209045e-02</leafValues></_>
    <_>
      <internalNodes>
        0 -1 36727 -2.6684306561946869e-02</internalNodes>
      <leafValues>
        3.6359685659408569e-01 -9.5778025686740875e-02</leafValues></_>
    <_>
      <internalNodes>
        0 -1 10828 9.9960334599018097e-02</internalNodes>
      <leafValues>
        5.4919499903917313e-02 -7.5722539424896240e-01</leafValues></_>
    <_>
      <internalNodes>
        0 -1 98121 1.4349183067679405e-02</internalNodes>
      <leafValues>
        -1.0251729935407639e-01 4.3033602833747864e-01</leafValues></_>
    <_>
      <internalNodes>
        0 -1 25534 -5.0234878435730934e-03</internalNodes>
      <leafValues>
        3.5651272535324097e-01 -9.3682974576950073e-02</leafValues></_>
    <_>
      <internalNodes>
        0 -1 49232 7.7407257631421089e-03</internalNodes>
      <leafValues>
        -7.5730696320533752e-02 5.1707905530929565e-01</leafValues></_>
    <_>
      <internalNodes>
        0 -1 123087 -2.1476792171597481e-02</internalNodes>
      <leafValues>
        2.9202103614807129e-01 -1.3368061184883118e-01</leafValues></_>
    <_>
      <internalNodes>
        0 -1 49317 -3.1558945775032043e-02</internalNodes>
      <leafValues>
        -1.5452834963798523e-01 2.4227951467037201e-01</leafValues></_>
    <_>
      <internalNodes>
        0 -1 161163 -2.7962289750576019e-03</internalNodes>
      <leafValues>
        7.8309625387191772e-02 -4.3764123320579529e-01</leafValues></_>
    <_>
      <internalNodes>
        0 -1 158255 3.4585425164550543e-03</internalNodes>
      <leafValues>
        3.9436608552932739e-02 -7.8030222654342651e-01</leafValues></_>
    <_>
      <internalNodes>
        0 -1 59053 -1.0578855872154236e-02</internalNodes>
      <leafValues>
        5.2675706148147583e-01 -7.5471796095371246e-02</leafValues></_>
    <_>
      <internalNodes>
        0 -1 42994 -1.3109620660543442e-02</internalNodes>
      <leafValues>
        -4.9472671747207642e-01 7.3977351188659668e-02</leafValues></_>
    <_>
      <internalNodes>
        0 -1 7733 -8.3351433277130127e-02</internalNodes>
      <leafValues>
        2.8056359291076660e-01 -1.3756994903087616e-01</leafValues></_>
    <_>
      <internalNodes>
        0 -1 97269 1.3733334839344025e-02</internalNodes>
      <leafValues>
        -1.2127957493066788e-01 3.0996477603912354e-01</leafValues></_>
    <_>
      <internalNodes>
        0 -1 120793 2.7033181395381689e-03</internalNodes>
      <leafValues>
        -1.2383931130170822e-01 3.1051298975944519e-01</leafValues></_>
    <_>
      <internalNodes>
        0 -1 60157 -8.9902523905038834e-03</internalNodes>
      <leafValues>
        -9.0534992516040802e-02 4.0903782844543457e-01</leafValues></_>
    <_>
      <internalNodes>
        0 -1 4245 1.6507785767316818e-02</internalNodes>
      <leafValues>
        -1.2601761519908905e-01 2.8138074278831482e-01</leafValues></_>
    <_>
      <internalNodes>
        0 -1 3373 -7.3326140642166138e-02</internalNodes>
      <leafValues>
        6.9710451364517212e-01 -6.2441371381282806e-02</leafValues></_>
    <_>
      <internalNodes>
        0 -1 49405 -6.6525628790259361e-03</internalNodes>
      <leafValues>
        5.2791044116020203e-02 -8.0093795061111450e-01</leafValues></_>
    <_>
      <internalNodes>
        0 -1 49291 -1.2828203616663814e-03</internalNodes>
      <leafValues>
        -5.8156043291091919e-01 4.8537347465753555e-02</leafValues></_>
    <_>
      <internalNodes>
        0 -1 75060 1.6398277133703232e-02</internalNodes>
      <leafValues>
        -9.5755726099014282e-02 3.7440568208694458e-01</leafValues></_>
    <_>
      <internalNodes>
        0 -1 117402 -1.5141487121582031e-02</internalNodes>
      <leafValues>
        6.1177146434783936e-01 -5.4713845252990723e-02</leafValues></_>
    <_>
      <internalNodes>
        0 -1 73853 -4.2736637406051159e-03</internalNodes>
      <leafValues>
        2.5597745180130005e-01 -1.3495695590972900e-01</leafValues></_></weakClassifiers></stage9>
</opencv_storage>
