<?xml version="1.0"?>
<opencv_storage>
<stage8>
  <maxWeakCount>36</maxWeakCount>
  <stageThreshold>-9.9414992332458496e-01</stageThreshold>
  <weakClassifiers>
    <_>
      <internalNodes>
        0 -1 67362 -7.9759798943996429e-02</internalNodes>
      <leafValues>
        8.1999999284744263e-01 -2.9882043600082397e-01</leafValues></_>
    <_>
      <internalNodes>
        0 -1 145767 -1.7332032322883606e-02</internalNodes>
      <leafValues>
        4.9720585346221924e-01 -1.6122859716415405e-01</leafValues></_>
    <_>
      <internalNodes>
        0 -1 144560 -1.3997113704681396e-01</internalNodes>
      <leafValues>
        6.0972708463668823e-01 -9.9787272512912750e-02</leafValues></_>
    <_>
      <internalNodes>
        0 -1 21218 -3.8434761762619019e-01</internalNodes>
      <leafValues>
        -6.3196456432342529e-01 1.2016361951828003e-01</leafValues></_>
    <_>
      <internalNodes>
        0 -1 11222 3.1361086294054985e-03</internalNodes>
      <leafValues>
        1.5891359746456146e-01 -4.8708871006965637e-01</leafValues></_>
    <_>
      <internalNodes>
        0 -1 76197 -7.0902615785598755e-02</internalNodes>
      <leafValues>
        5.3036812692880630e-02 -9.2034375667572021e-01</leafValues></_>
    <_>
      <internalNodes>
        0 -1 98654 -7.5229625217616558e-03</internalNodes>
      <leafValues>
        -4.8161080479621887e-01 8.9687608182430267e-02</leafValues></_>
    <_>
      <internalNodes>
        0 -1 154290 3.0401004478335381e-03</internalNodes>
      <leafValues>
        -1.5301290154457092e-01 3.2344529032707214e-01</leafValues></_>
    <_>
      <internalNodes>
        0 -1 135946 -7.6087161898612976e-02</internalNodes>
      <leafValues>
        9.0805852413177490e-01 -7.6935939490795135e-02</leafValues></_>
    <_>
      <internalNodes>
        0 -1 11312 4.2738155461847782e-03</internalNodes>
      <leafValues>
        -2.7977386116981506e-01 1.9593879580497742e-01</leafValues></_>
    <_>
      <internalNodes>
        0 -1 54373 -7.1806786581873894e-03</internalNodes>
      <leafValues>
        9.1121107339859009e-02 -7.4360525608062744e-01</leafValues></_>
    <_>
      <internalNodes>
        0 -1 46529 -4.0726637840270996e-01</internalNodes>
      <leafValues>
        -6.8349611759185791e-01 7.4407935142517090e-02</leafValues></_>
    <_>
      <internalNodes>
        0 -1 75612 1.8882464617490768e-02</internalNodes>
      <leafValues>
        -1.2973636388778687e-01 4.4496685266494751e-01</leafValues></_>
    <_>
      <internalNodes>
        0 -1 87819 -1.9992586225271225e-02</internalNodes>
      <leafValues>
        -5.7034182548522949e-01 9.7488708794116974e-02</leafValues></_>
    <_>
      <internalNodes>
        0 -1 110243 -4.5725606381893158e-02</internalNodes>
      <leafValues>
        5.2037179470062256e-01 -1.0231390595436096e-01</leafValues></_>
    <_>
      <internalNodes>
        0 -1 121923 -4.4428385794162750e-02</internalNodes>
      <leafValues>
        -6.1405467987060547e-01 8.6928777396678925e-02</leafValues></_>
    <_>
      <internalNodes>
        0 -1 114082 -1.3192145852372050e-03</internalNodes>
      <leafValues>
        4.6183530241250992e-02 -9.3029421567916870e-01</leafValues></_>
    <_>
      <internalNodes>
        0 -1 918 -2.8814315795898438e-01</internalNodes>
      <leafValues>
        -8.2434409856796265e-01 4.1960775852203369e-02</leafValues></_>
    <_>
      <internalNodes>
        0 -1 139604 -2.5026332587003708e-02</internalNodes>
      <leafValues>
        1.6589528322219849e-01 -2.6806899905204773e-01</leafValues></_>
    <_>
      <internalNodes>
        0 -1 4619 3.1387805938720703e-02</internalNodes>
      <leafValues>
        -1.2361063808202744e-01 4.7361221909523010e-01</leafValues></_>
    <_>
      <internalNodes>
        0 -1 158103 2.3066147696226835e-03</internalNodes>
      <leafValues>
        5.8114875108003616e-02 -8.5172474384307861e-01</leafValues></_>
    <_>
      <internalNodes>
        0 -1 92015 -1.7794467508792877e-02</internalNodes>
      <leafValues>
        2.4885538220405579e-01 -1.9532626867294312e-01</leafValues></_>
    <_>
      <internalNodes>
        0 -1 97710 -3.3891568891704082e-03</internalNodes>
      <leafValues>
        -9.8109938204288483e-02 5.9883213043212891e-01</leafValues></_>
    <_>
      <internalNodes>
        0 -1 143899 -1.8278921488672495e-03</internalNodes>
      <leafValues>
        6.6764712333679199e-02 -8.3567059040069580e-01</leafValues></_>
    <_>
      <internalNodes>
        0 -1 116691 7.8834794461727142e-02</internalNodes>
      <leafValues>
        -7.6892308890819550e-02 8.1395202875137329e-01</leafValues></_>
    <_>
      <internalNodes>
        0 -1 104060 -3.8236158434301615e-04</internalNodes>
      <leafValues>
        -6.4145855605602264e-02 7.1454507112503052e-01</leafValues></_>
    <_>
      <internalNodes>
        0 -1 73163 -4.2252562940120697e-02</internalNodes>
      <leafValues>
        7.6311963796615601e-01 -6.1874531209468842e-02</leafValues></_>
    <_>
      <internalNodes>
        0 -1 108013 -1.8232786096632481e-03</internalNodes>
      <leafValues>
        6.1584010720252991e-02 -8.5846239328384399e-01</leafValues></_>
    <_>
      <internalNodes>
        0 -1 25596 -1.1989382095634937e-02</internalNodes>
      <leafValues>
        -8.9945715665817261e-01 3.8692794740200043e-02</leafValues></_>
    <_>
      <internalNodes>
        0 -1 3136 -1.6123759560286999e-03</internalNodes>
      <leafValues>
        -6.0132122039794922e-01 6.3460730016231537e-02</leafValues></_>
    <_>
      <internalNodes>
        0 -1 4144 6.0597211122512817e-03</internalNodes>
      <leafValues>
        6.3938923180103302e-02 -6.2181311845779419e-01</leafValues></_>
    <_>
      <internalNodes>
        0 -1 37857 3.8193404674530029e-02</internalNodes>
      <leafValues>
        5.2358619868755341e-02 -7.9897969961166382e-01</leafValues></_>
    <_>
      <internalNodes>
        0 -1 49096 3.3974461257457733e-02</internalNodes>
      <leafValues>
        -1.6680015623569489e-01 3.4771513938903809e-01</leafValues></_>
    <_>
      <internalNodes>
        0 -1 127313 -9.5752831548452377e-03</internalNodes>
      <leafValues>
        -3.2914271950721741e-01 1.5765951573848724e-01</leafValues></_>
    <_>
      <internalNodes>
        0 -1 147273 1.6643088310956955e-02</internalNodes>
      <leafValues>
        -6.4799547195434570e-02 8.3272904157638550e-01</leafValues></_>
    <_>
      <internalNodes>
        0 -1 112960 -5.5959559977054596e-02</internalNodes>
      <leafValues>
        8.0457264184951782e-01 -4.8493769019842148e-02</leafValues></_></weakClassifiers></stage8>
</opencv_storage>
