<?xml version="1.0"?>
<opencv_storage>
<stage6>
  <maxWeakCount>34</maxWeakCount>
  <stageThreshold>-1.1711088418960571e+00</stageThreshold>
  <weakClassifiers>
    <_>
      <internalNodes>
        0 -1 86344 -5.0188392400741577e-02</internalNodes>
      <leafValues>
        8.9690721035003662e-01 -3.0150425434112549e-01</leafValues></_>
    <_>
      <internalNodes>
        0 -1 11747 -2.6192333549261093e-02</internalNodes>
      <leafValues>
        4.3867182731628418e-01 -2.1638515591621399e-01</leafValues></_>
    <_>
      <internalNodes>
        0 -1 64620 -4.8847767710685730e-01</internalNodes>
      <leafValues>
        -7.8268921375274658e-01 8.3815529942512512e-02</leafValues></_>
    <_>
      <internalNodes>
        0 -1 133677 -6.4088571816682816e-03</internalNodes>
      <leafValues>
        1.7729234695434570e-01 -4.5929750800132751e-01</leafValues></_>
    <_>
      <internalNodes>
        0 -1 55065 -4.7121126204729080e-02</internalNodes>
      <leafValues>
        -1.3745538890361786e-01 4.9184748530387878e-01</leafValues></_>
    <_>
      <internalNodes>
        0 -1 135141 2.6215324178338051e-02</internalNodes>
      <leafValues>
        -1.3264638185501099e-01 5.1377749443054199e-01</leafValues></_>
    <_>
      <internalNodes>
        0 -1 161999 -1.5038137789815664e-03</internalNodes>
      <leafValues>
        -5.9940654039382935e-01 1.0160212963819504e-01</leafValues></_>
    <_>
      <internalNodes>
        0 -1 83322 -1.3493245467543602e-02</internalNodes>
      <leafValues>
        -6.8262207508087158e-01 9.4240665435791016e-02</leafValues></_>
    <_>
      <internalNodes>
        0 -1 109746 6.7323133349418640e-02</internalNodes>
      <leafValues>
        -8.5626110434532166e-02 8.1098943948745728e-01</leafValues></_>
    <_>
      <internalNodes>
        0 -1 92599 1.9872725009918213e-02</internalNodes>
      <leafValues>
        -1.0390828549861908e-01 5.1811581850051880e-01</leafValues></_>
    <_>
      <internalNodes>
        0 -1 114688 -1.8474824726581573e-02</internalNodes>
      <leafValues>
        1.9637888669967651e-01 -3.5191625356674194e-01</leafValues></_>
    <_>
      <internalNodes>
        0 -1 43574 -5.6607174873352051e-01</internalNodes>
      <leafValues>
        -1. 5.9113491326570511e-02</leafValues></_>
    <_>
      <internalNodes>
        0 -1 35182 -1.1115231364965439e-01</internalNodes>
      <leafValues>
        -7.0211553573608398e-01 7.7082082629203796e-02</leafValues></_>
    <_>
      <internalNodes>
        0 -1 75819 -2.4439632892608643e-02</internalNodes>
      <leafValues>
        4.1872140765190125e-01 -1.5254808962345123e-01</leafValues></_>
    <_>
      <internalNodes>
        0 -1 85295 3.4575930330902338e-03</internalNodes>
      <leafValues>
        -1.7533783614635468e-01 3.6735716462135315e-01</leafValues></_>
    <_>
      <internalNodes>
        0 -1 145715 2.2035807371139526e-02</internalNodes>
      <leafValues>
        -1.1557550728321075e-01 5.2586752176284790e-01</leafValues></_>
    <_>
      <internalNodes>
        0 -1 83072 8.5000723600387573e-02</internalNodes>
      <leafValues>
        -7.2475239634513855e-02 7.5840932130813599e-01</leafValues></_>
    <_>
      <internalNodes>
        0 -1 120193 -1.5194352716207504e-02</internalNodes>
      <leafValues>
        -4.2341101169586182e-01 1.5181837975978851e-01</leafValues></_>
    <_>
      <internalNodes>
        0 -1 119303 3.2727411016821861e-03</internalNodes>
      <leafValues>
        -1.2883013486862183e-01 5.2180093526840210e-01</leafValues></_>
    <_>
      <internalNodes>
        0 -1 107557 -1.6436046361923218e-01</internalNodes>
      <leafValues>
        5.0555932521820068e-01 -1.2357617914676666e-01</leafValues></_>
    <_>
      <internalNodes>
        0 -1 80910 -3.2720409333705902e-02</internalNodes>
      <leafValues>
        4.7344020009040833e-01 -1.2429374456405640e-01</leafValues></_>
    <_>
      <internalNodes>
        0 -1 65673 -1.7570368945598602e-02</internalNodes>
      <leafValues>
        -7.7683992683887482e-02 6.7346906661987305e-01</leafValues></_>
    <_>
      <internalNodes>
        0 -1 147597 2.2527832537889481e-02</internalNodes>
      <leafValues>
        -5.2926085889339447e-02 8.8156533241271973e-01</leafValues></_>
    <_>
      <internalNodes>
        0 -1 118683 -4.8046540468931198e-03</internalNodes>
      <leafValues>
        3.9059802889823914e-01 -1.3853032886981964e-01</leafValues></_>
    <_>
      <internalNodes>
        0 -1 6663 -3.4073723945766687e-03</internalNodes>
      <leafValues>
        1.1924834549427032e-01 -5.1441502571105957e-01</leafValues></_>
    <_>
      <internalNodes>
        0 -1 19888 -5.0410139560699463e-01</internalNodes>
      <leafValues>
        -6.6918212175369263e-01 6.4020626246929169e-02</leafValues></_>
    <_>
      <internalNodes>
        0 -1 26781 -1.0325092077255249e+00</internalNodes>
      <leafValues>
        5.8209192752838135e-01 -1.0275337100028992e-01</leafValues></_>
    <_>
      <internalNodes>
        0 -1 117571 3.2379213720560074e-02</internalNodes>
      <leafValues>
        -7.6127827167510986e-02 6.8533247709274292e-01</leafValues></_>
    <_>
      <internalNodes>
        0 -1 120921 -1.1055823415517807e-02</internalNodes>
      <leafValues>
        -4.3821406364440918e-01 1.3464097678661346e-01</leafValues></_>
    <_>
      <internalNodes>
        0 -1 77951 8.2813829183578491e-02</internalNodes>
      <leafValues>
        -8.0294765532016754e-02 8.2639414072036743e-01</leafValues></_>
    <_>
      <internalNodes>
        0 -1 36456 3.0680805444717407e-02</internalNodes>
      <leafValues>
        -7.9580679535865784e-02 6.8263787031173706e-01</leafValues></_>
    <_>
      <internalNodes>
        0 -1 137100 -2.8726090677082539e-03</internalNodes>
      <leafValues>
        3.9708408713340759e-01 -1.2703317403793335e-01</leafValues></_>
    <_>
      <internalNodes>
        0 -1 141893 -5.3037184989079833e-04</internalNodes>
      <leafValues>
        2.7179247140884399e-01 -1.9726034998893738e-01</leafValues></_>
    <_>
      <internalNodes>
        0 -1 101191 -1.0624583810567856e-02</internalNodes>
      <leafValues>
        3.5468694567680359e-01 -1.5713781118392944e-01</leafValues></_></weakClassifiers></stage6>
</opencv_storage>
