<?xml version="1.0"?>
<opencv_storage>
<stage5>
  <maxWeakCount>29</maxWeakCount>
  <stageThreshold>-1.1760307550430298e+00</stageThreshold>
  <weakClassifiers>
    <_>
      <internalNodes>
        0 -1 77439 -7.3156714439392090e-02</internalNodes>
      <leafValues>
        9.7619044780731201e-01 -3.7657865881919861e-01</leafValues></_>
    <_>
      <internalNodes>
        0 -1 24392 -5.1434583961963654e-02</internalNodes>
      <leafValues>
        9.4713650643825531e-02 -9.8322010040283203e-01</leafValues></_>
    <_>
      <internalNodes>
        0 -1 27284 -2.3004360496997833e-02</internalNodes>
      <leafValues>
        2.5133588910102844e-01 -3.0722784996032715e-01</leafValues></_>
    <_>
      <internalNodes>
        0 -1 117157 -5.8981936424970627e-02</internalNodes>
      <leafValues>
        -1.0265815258026123e-01 7.8849518299102783e-01</leafValues></_>
    <_>
      <internalNodes>
        0 -1 24658 1.4108294248580933e-01</internalNodes>
      <leafValues>
        9.7323901951313019e-02 -7.9216778278350830e-01</leafValues></_>
    <_>
      <internalNodes>
        0 -1 127182 -2.4314612150192261e-02</internalNodes>
      <leafValues>
        8.3280891180038452e-01 -1.1512463539838791e-01</leafValues></_>
    <_>
      <internalNodes>
        0 -1 25599 -1.1425951495766640e-02</internalNodes>
      <leafValues>
        -8.6621928215026855e-01 1.0423874855041504e-01</leafValues></_>
    <_>
      <internalNodes>
        0 -1 119659 -4.0413588285446167e-02</internalNodes>
      <leafValues>
        9.1604912281036377e-01 -9.3031495809555054e-02</leafValues></_>
    <_>
      <internalNodes>
        0 -1 121775 -9.8657049238681793e-03</internalNodes>
      <leafValues>
        -4.7275182604789734e-01 1.6805240511894226e-01</leafValues></_>
    <_>
      <internalNodes>
        0 -1 104111 -1.0050205513834953e-02</internalNodes>
      <leafValues>
        -1.2668694555759430e-01 5.6302398443222046e-01</leafValues></_>
    <_>
      <internalNodes>
        0 -1 7357 -7.6218314468860626e-02</internalNodes>
      <leafValues>
        9.5783077180385590e-02 -7.6922339200973511e-01</leafValues></_>
    <_>
      <internalNodes>
        0 -1 161053 -3.9067561738193035e-03</internalNodes>
      <leafValues>
        -7.1545249223709106e-01 6.9934420287609100e-02</leafValues></_>
    <_>
      <internalNodes>
        0 -1 141114 2.9265277087688446e-02</internalNodes>
      <leafValues>
        -9.9912852048873901e-02 7.0238882303237915e-01</leafValues></_>
    <_>
      <internalNodes>
        0 -1 114521 -1.6858525574207306e-02</internalNodes>
      <leafValues>
        4.8151150345802307e-01 -1.3064828515052795e-01</leafValues></_>
    <_>
      <internalNodes>
        0 -1 55060 -3.2654892653226852e-02</internalNodes>
      <leafValues>
        -1.0261678695678711e-01 5.9545117616653442e-01</leafValues></_>
    <_>
      <internalNodes>
        0 -1 33578 -1.5765458345413208e-01</internalNodes>
      <leafValues>
        -8.2925581932067871e-01 6.5650373697280884e-02</leafValues></_>
    <_>
      <internalNodes>
        0 -1 76372 -1.8658317625522614e-02</internalNodes>
      <leafValues>
        3.8624402880668640e-01 -1.6499815881252289e-01</leafValues></_>
    <_>
      <internalNodes>
        0 -1 99802 2.5868171453475952e-01</internalNodes>
      <leafValues>
        6.1617922037839890e-02 -9.8689222335815430e-01</leafValues></_>
    <_>
      <internalNodes>
        0 -1 113206 -2.2788230329751968e-02</internalNodes>
      <leafValues>
        -4.0656834840774536e-01 1.4914032816886902e-01</leafValues></_>
    <_>
      <internalNodes>
        0 -1 66304 4.9225995317101479e-03</internalNodes>
      <leafValues>
        -2.1407809853553772e-01 3.1283903121948242e-01</leafValues></_>
    <_>
      <internalNodes>
        0 -1 151886 -8.7977629154920578e-03</internalNodes>
      <leafValues>
        -7.3757141828536987e-01 9.4166547060012817e-02</leafValues></_>
    <_>
      <internalNodes>
        0 -1 4147 -3.3517451956868172e-03</internalNodes>
      <leafValues>
        -7.0374107360839844e-01 6.2671199440956116e-02</leafValues></_>
    <_>
      <internalNodes>
        0 -1 23937 -2.5152266025543213e-02</internalNodes>
      <leafValues>
        -5.0258243083953857e-01 1.1647734045982361e-01</leafValues></_>
    <_>
      <internalNodes>
        0 -1 108699 -3.0386116355657578e-02</internalNodes>
      <leafValues>
        5.0325858592987061e-01 -1.2718690931797028e-01</leafValues></_>
    <_>
      <internalNodes>
        0 -1 117466 4.2078141123056412e-03</internalNodes>
      <leafValues>
        -1.8400768935680389e-01 3.3573487401008606e-01</leafValues></_>
    <_>
      <internalNodes>
        0 -1 19746 1.9984211772680283e-02</internalNodes>
      <leafValues>
        -1.0025817155838013e-01 5.8448690176010132e-01</leafValues></_>
    <_>
      <internalNodes>
        0 -1 19448 -1.0331089794635773e-01</internalNodes>
      <leafValues>
        -6.6214406490325928e-01 9.6179060637950897e-02</leafValues></_>
    <_>
      <internalNodes>
        0 -1 49294 -2.2140792571008205e-03</internalNodes>
      <leafValues>
        6.4153671264648438e-02 -8.1693547964096069e-01</leafValues></_>
    <_>
      <internalNodes>
        0 -1 28616 -1.5768878161907196e-02</internalNodes>
      <leafValues>
        -6.4307969808578491e-01 7.9445317387580872e-02</leafValues></_></weakClassifiers></stage5>
</opencv_storage>
