<?xml version="1.0"?>
<opencv_storage>
<stage0>
  <maxWeakCount>11</maxWeakCount>
  <stageThreshold>-1.8679829835891724e+00</stageThreshold>
  <weakClassifiers>
    <_>
      <internalNodes>
        0 -1 1099 -9.4084215164184570e-01</internalNodes>
      <leafValues>
        -9.4900852441787720e-01 -1.8875502049922943e-01</leafValues></_>
    <_>
      <internalNodes>
        0 -1 49553 -1.1911626160144806e-01</internalNodes>
      <leafValues>
        -8.6807674169540405e-01 1.3190957903862000e-01</leafValues></_>
    <_>
      <internalNodes>
        0 -1 152141 -3.8475688546895981e-02</internalNodes>
      <leafValues>
        -8.7839728593826294e-01 1.5182305872440338e-01</leafValues></_>
    <_>
      <internalNodes>
        0 -1 37622 -1.3001486659049988e-01</internalNodes>
      <leafValues>
        -8.8427537679672241e-01 1.4914146065711975e-01</leafValues></_>
    <_>
      <internalNodes>
        0 -1 108936 -4.3340563774108887e-02</internalNodes>
      <leafValues>
        4.8020094633102417e-01 -2.8484135866165161e-01</leafValues></_>
    <_>
      <internalNodes>
        0 -1 72769 8.5666470229625702e-02</internalNodes>
      <leafValues>
        -1.4910709857940674e-01 8.2534056901931763e-01</leafValues></_>
    <_>
      <internalNodes>
        0 -1 1098 -1.8776258826255798e-01</internalNodes>
      <leafValues>
        -8.6653989553451538e-01 1.9585770368576050e-01</leafValues></_>
    <_>
      <internalNodes>
        0 -1 135991 -2.2534186020493507e-02</internalNodes>
      <leafValues>
        7.3394995927810669e-01 -2.2024624049663544e-01</leafValues></_>
    <_>
      <internalNodes>
        0 -1 36602 -2.3469734191894531e-01</internalNodes>
      <leafValues>
        -5.8746814727783203e-01 2.2858855128288269e-01</leafValues></_>
    <_>
      <internalNodes>
        0 -1 157569 -5.7429419830441475e-03</internalNodes>
      <leafValues>
        1.7969508469104767e-01 -6.6687005758285522e-01</leafValues></_>
    <_>
      <internalNodes>
        0 -1 84408 7.0863440632820129e-02</internalNodes>
      <leafValues>
        -1.7157378792762756e-01 7.7468234300613403e-01</leafValues></_></weakClassifiers></stage0>
</opencv_storage>
