<?xml version="1.0"?>
<opencv_storage>
<stage6>
  <maxWeakCount>46</maxWeakCount>
  <stageThreshold>-1.7755744457244873e+00</stageThreshold>
  <weakClassifiers>
    <_>
      <internalNodes>
        0 -1 50306 1.5940377116203308e-01</internalNodes>
      <leafValues>
        -7.5228005647659302e-01 3.5294118523597717e-01</leafValues></_>
    <_>
      <internalNodes>
        0 -1 126821 -4.6922616660594940e-02</internalNodes>
      <leafValues>
        -6.2407279014587402e-01 -9.7326643764972687e-02</leafValues></_>
    <_>
      <internalNodes>
        0 -1 12514 -6.3921093940734863e-02</internalNodes>
      <leafValues>
        6.6251814365386963e-02 -7.1226638555526733e-01</leafValues></_>
    <_>
      <internalNodes>
        0 -1 71312 2.4959547445178032e-02</internalNodes>
      <leafValues>
        1.2306883931159973e-01 -6.4893400669097900e-01</leafValues></_>
    <_>
      <internalNodes>
        0 -1 37956 9.2977182939648628e-03</internalNodes>
      <leafValues>
        -1.6595789790153503e-01 3.2256203889846802e-01</leafValues></_>
    <_>
      <internalNodes>
        0 -1 161150 -2.8965706005692482e-03</internalNodes>
      <leafValues>
        -6.5817761421203613e-01 1.1053920537233353e-01</leafValues></_>
    <_>
      <internalNodes>
        0 -1 82 -1.3565686531364918e-02</internalNodes>
      <leafValues>
        -6.3639056682586670e-01 4.2187571525573730e-02</leafValues></_>
    <_>
      <internalNodes>
        0 -1 38231 -2.9559336602687836e-02</internalNodes>
      <leafValues>
        6.8594348430633545e-01 -6.6240496933460236e-02</leafValues></_>
    <_>
      <internalNodes>
        0 -1 64460 -2.4658385664224625e-02</internalNodes>
      <leafValues>
        5.4132145643234253e-01 -8.6212843656539917e-02</leafValues></_>
    <_>
      <internalNodes>
        0 -1 38762 -1.6333562135696411e-01</internalNodes>
      <leafValues>
        -8.3513784408569336e-01 5.5853255093097687e-02</leafValues></_>
    <_>
      <internalNodes>
        0 -1 96820 -5.0112053751945496e-02</internalNodes>
      <leafValues>
        -2.9766976833343506e-01 1.8117262423038483e-01</leafValues></_>
    <_>
      <internalNodes>
        0 -1 17331 1.9633086398243904e-02</internalNodes>
      <leafValues>
        -1.1141448467969894e-01 4.8186734318733215e-01</leafValues></_>
    <_>
      <internalNodes>
        0 -1 160300 -1.8912011757493019e-02</internalNodes>
      <leafValues>
        1.0699492692947388e-01 -4.7944629192352295e-01</leafValues></_>
    <_>
      <internalNodes>
        0 -1 68292 -3.4195452928543091e-02</internalNodes>
      <leafValues>
        -1.2014344334602356e-01 4.8535367846488953e-01</leafValues></_>
    <_>
      <internalNodes>
        0 -1 102961 -1.1636166274547577e-01</internalNodes>
      <leafValues>
        7.5235527753829956e-01 -5.9987723827362061e-02</leafValues></_>
    <_>
      <internalNodes>
        0 -1 120708 -4.6262133866548538e-02</internalNodes>
      <leafValues>
        -7.1242183446884155e-01 7.6372362673282623e-02</leafValues></_>
    <_>
      <internalNodes>
        0 -1 127448 -1.3687625527381897e-02</internalNodes>
      <leafValues>
        -7.7233040332794189e-01 5.5809579789638519e-02</leafValues></_>
    <_>
      <internalNodes>
        0 -1 61366 -1.2043422088027000e-02</internalNodes>
      <leafValues>
        9.3678772449493408e-02 -4.3488687276840210e-01</leafValues></_>
    <_>
      <internalNodes>
        0 -1 36260 -5.1808287389576435e-03</internalNodes>
      <leafValues>
        -8.1363981962203979e-01 4.9980249255895615e-02</leafValues></_>
    <_>
      <internalNodes>
        0 -1 151879 -1.5093118418008089e-03</internalNodes>
      <leafValues>
        -7.0329689979553223e-01 4.6561148017644882e-02</leafValues></_>
    <_>
      <internalNodes>
        0 -1 49453 -1.3862962834537029e-02</internalNodes>
      <leafValues>
        5.9634429216384888e-01 -7.9688832163810730e-02</leafValues></_>
    <_>
      <internalNodes>
        0 -1 6942 -1.4760872349143028e-02</internalNodes>
      <leafValues>
        -6.7645184695720673e-02 6.2234193086624146e-01</leafValues></_>
    <_>
      <internalNodes>
        0 -1 50840 -4.2684692889451981e-02</internalNodes>
      <leafValues>
        -6.1181325465440750e-02 6.8680596351623535e-01</leafValues></_>
    <_>
      <internalNodes>
        0 -1 124217 2.8180252760648727e-02</internalNodes>
      <leafValues>
        -1.0499897599220276e-01 4.0371185541152954e-01</leafValues></_>
    <_>
      <internalNodes>
        0 -1 2336 -1.5294717252254486e-01</internalNodes>
      <leafValues>
        5.6983299553394318e-02 -8.1318336725234985e-01</leafValues></_>
    <_>
      <internalNodes>
        0 -1 90158 4.2910214513540268e-02</internalNodes>
      <leafValues>
        -8.5371226072311401e-02 6.2952518463134766e-01</leafValues></_>
    <_>
      <internalNodes>
        0 -1 104777 -5.5972777307033539e-02</internalNodes>
      <leafValues>
        -4.4630253314971924e-01 1.0854078084230423e-01</leafValues></_>
    <_>
      <internalNodes>
        0 -1 104569 -6.9428041577339172e-02</internalNodes>
      <leafValues>
        5.0284051895141602e-01 -1.1046681553125381e-01</leafValues></_>
    <_>
      <internalNodes>
        0 -1 74052 -2.4408088065683842e-03</internalNodes>
      <leafValues>
        -4.7187380492687225e-02 8.7048411369323730e-01</leafValues></_>
    <_>
      <internalNodes>
        0 -1 134235 -4.4711973518133163e-02</internalNodes>
      <leafValues>
        -9.3447971343994141e-01 5.9166565537452698e-02</leafValues></_>
    <_>
      <internalNodes>
        0 -1 60186 1.6651028767228127e-02</internalNodes>
      <leafValues>
        -1.2502399086952209e-01 4.0148407220840454e-01</leafValues></_>
    <_>
      <internalNodes>
        0 -1 80516 -1.0393681935966015e-02</internalNodes>
      <leafValues>
        3.3244359493255615e-01 -1.3790926337242126e-01</leafValues></_>
    <_>
      <internalNodes>
        0 -1 53021 -1.0082776658236980e-02</internalNodes>
      <leafValues>
        -6.7472934722900391e-02 6.8137311935424805e-01</leafValues></_>
    <_>
      <internalNodes>
        0 -1 70646 1.5898279380053282e-03</internalNodes>
      <leafValues>
        8.1393174827098846e-02 -6.1741250753402710e-01</leafValues></_>
    <_>
      <internalNodes>
        0 -1 125903 -2.4702843278646469e-02</internalNodes>
      <leafValues>
        -6.1194527894258499e-02 8.1819421052932739e-01</leafValues></_>
    <_>
      <internalNodes>
        0 -1 34066 -8.4713883697986603e-02</internalNodes>
      <leafValues>
        6.7727220058441162e-01 -5.7306282222270966e-02</leafValues></_>
    <_>
      <internalNodes>
        0 -1 16333 -2.8724959120154381e-02</internalNodes>
      <leafValues>
        1.3005661964416504e-01 -3.6613446474075317e-01</leafValues></_>
    <_>
      <internalNodes>
        0 -1 78772 3.1642358750104904e-02</internalNodes>
      <leafValues>
        -1.4632579684257507e-01 2.9630285501480103e-01</leafValues></_>
    <_>
      <internalNodes>
        0 -1 83686 2.3145750164985657e-02</internalNodes>
      <leafValues>
        -1.1612686514854431e-01 3.7095218896865845e-01</leafValues></_>
    <_>
      <internalNodes>
        0 -1 70109 -4.4567346572875977e-02</internalNodes>
      <leafValues>
        -1.8591086566448212e-01 2.7169224619865417e-01</leafValues></_>
    <_>
      <internalNodes>
        0 -1 81109 -9.1765515506267548e-02</internalNodes>
      <leafValues>
        8.0974727869033813e-01 -6.5043501555919647e-02</leafValues></_>
    <_>
      <internalNodes>
        0 -1 55575 -4.6167340129613876e-02</internalNodes>
      <leafValues>
        -5.0919896364212036e-01 1.0410480201244354e-01</leafValues></_>
    <_>
      <internalNodes>
        0 -1 106789 -1.9105072133243084e-03</internalNodes>
      <leafValues>
        7.1056902408599854e-02 -6.1622774600982666e-01</leafValues></_>
    <_>
      <internalNodes>
        0 -1 142826 -3.0842293053865433e-03</internalNodes>
      <leafValues>
        8.6251318454742432e-02 -5.2065926790237427e-01</leafValues></_>
    <_>
      <internalNodes>
        0 -1 123742 2.8399556875228882e-02</internalNodes>
      <leafValues>
        -1.1801131069660187e-01 4.2105746269226074e-01</leafValues></_>
    <_>
      <internalNodes>
        0 -1 12813 -2.3046745918691158e-03</internalNodes>
      <leafValues>
        -5.0305145978927612e-01 1.0627597570419312e-01</leafValues></_></weakClassifiers></stage6>
</opencv_storage>
