<?xml version="1.0"?>
<opencv_storage>
<cascade>
  <stageType>BOOST</stageType>
  <featureType>HAAR</featureType>
  <height>24</height>
  <width>24</width>
  <stageParams>
    <boostType>GAB</boostType>
    <minHitRate>9.9900001287460327e-01</minHitRate>
    <maxFalseAlarm>3.0000001192092896e-01</maxFalseAlarm>
    <weightTrimRate>9.4999999999999996e-01</weightTrimRate>
    <maxDepth>1</maxDepth>
    <maxWeakCount>100</maxWeakCount></stageParams>
  <featureParams>
    <maxCatCount>0</maxCatCount>
    <featSize>1</featSize>
    <mode>BASIC</mode></featureParams>
  <stageNum>12</stageNum>
  <stages>
    <!-- stage 0 -->
    <_>
      <maxWeakCount>7</maxWeakCount>
      <stageThreshold>-1.2264103889465332e+00</stageThreshold>
      <weakClassifiers>
        <_>
          <internalNodes>
            0 -1 66 -7.1405530907213688e-03</internalNodes>
          <leafValues>
            -7.9687500000000000e-01 6.3636362552642822e-01</leafValues></_>
        <_>
          <internalNodes>
            0 -1 32 -5.9636089950799942e-02</internalNodes>
          <leafValues>
            -9.3771684169769287e-01 2.0332489907741547e-01</leafValues></_>
        <_>
          <internalNodes>
            0 -1 5 -3.2774902880191803e-02</internalNodes>
          <leafValues>
            5.3219795227050781e-01 -5.3897875547409058e-01</leafValues></_>
        <_>
          <internalNodes>
            0 -1 29 -9.1354206204414368e-02</internalNodes>
          <leafValues>
            -7.3052817583084106e-01 2.7448996901512146e-01</leafValues></_>
        <_>
          <internalNodes>
            0 -1 34 -4.5965470373630524e-02</internalNodes>
          <leafValues>
            1.8013523519039154e-01 -1.</leafValues></_>
        <_>
          <internalNodes>
            0 -1 46 -3.0556812882423401e-02</internalNodes>
          <leafValues>
            8.0002838373184204e-01 -3.1757602095603943e-01</leafValues></_>
        <_>
          <internalNodes>
            0 -1 63 -2.7993958443403244e-02</internalNodes>
          <leafValues>
            9.1011101007461548e-01 -2.1402658522129059e-01</leafValues></_></weakClassifiers></_>
    <!-- stage 1 -->
    <_>
      <maxWeakCount>7</maxWeakCount>
      <stageThreshold>-1.1251245737075806e+00</stageThreshold>
      <weakClassifiers>
        <_>
          <internalNodes>
            0 -1 56 2.4277687072753906e-02</internalNodes>
          <leafValues>
            -7.5187969207763672e-01 9.2000001668930054e-01</leafValues></_>
        <_>
          <internalNodes>
            0 -1 77 5.0334472209215164e-02</internalNodes>
          <leafValues>
            -6.3825446367263794e-01 2.6121547818183899e-01</leafValues></_>
        <_>
          <internalNodes>
            0 -1 2 -7.8085251152515411e-03</internalNodes>
          <leafValues>
            3.0991744995117188e-01 -6.2480092048645020e-01</leafValues></_>
        <_>
          <internalNodes>
            0 -1 74 6.1073135584592819e-03</internalNodes>
          <leafValues>
            -2.8466498851776123e-01 6.4057230949401855e-01</leafValues></_>
        <_>
          <internalNodes>
            0 -1 75 -5.8252783492207527e-03</internalNodes>
          <leafValues>
            7.6261156797409058e-01 -2.5769880414009094e-01</leafValues></_>
        <_>
          <internalNodes>
            0 -1 6 -1.0920308530330658e-02</internalNodes>
          <leafValues>
            4.1962215304374695e-01 -4.2695054411888123e-01</leafValues></_>
        <_>
          <internalNodes>
            0 -1 53 4.8085827380418777e-02</internalNodes>
          <leafValues>
            1.8724505603313446e-01 -9.8866695165634155e-01</leafValues></_></weakClassifiers></_>
    <!-- stage 2 -->
    <_>
      <maxWeakCount>9</maxWeakCount>
      <stageThreshold>-1.2355817556381226e+00</stageThreshold>
      <weakClassifiers>
        <_>
          <internalNodes>
            0 -1 90 -3.4167386591434479e-02</internalNodes>
          <leafValues>
            6.3636362552642822e-01 -7.5696200132369995e-01</leafValues></_>
        <_>
          <internalNodes>
            0 -1 47 3.4999912604689598e-03</internalNodes>
          <leafValues>
            -4.0032625198364258e-01 5.2055811882019043e-01</leafValues></_>
        <_>
          <internalNodes>
            0 -1 11 -8.6566738784313202e-02</internalNodes>
          <leafValues>
            -9.6673387289047241e-01 1.6299933195114136e-01</leafValues></_>
        <_>
          <internalNodes>
            0 -1 94 1.5491780824959278e-02</internalNodes>
          <leafValues>
            -2.6514476537704468e-01 5.9166842699050903e-01</leafValues></_>
        <_>
          <internalNodes>
            0 -1 98 4.6617351472377777e-03</internalNodes>
          <leafValues>
            -5.4611557722091675e-01 3.1752514839172363e-01</leafValues></_>
        <_>
          <internalNodes>
            0 -1 71 6.3950959593057632e-03</internalNodes>
          <leafValues>
            -2.8719258308410645e-01 5.7915967702865601e-01</leafValues></_>
        <_>
          <internalNodes>
            0 -1 3 1.7201632261276245e-02</internalNodes>
          <leafValues>
            1.8559317290782928e-01 -7.8566336631774902e-01</leafValues></_>
        <_>
          <internalNodes>
            0 -1 87 -1.4700198546051979e-02</internalNodes>
          <leafValues>
            7.6216638088226318e-01 -2.1023815870285034e-01</leafValues></_>
        <_>
          <internalNodes>
            0 -1 14 -3.5531320609152317e-03</internalNodes>
          <leafValues>
            1.9236408174037933e-01 -8.4818786382675171e-01</leafValues></_></weakClassifiers></_>
    <!-- stage 3 -->
    <_>
      <maxWeakCount>12</maxWeakCount>
      <stageThreshold>-1.4469300508499146e+00</stageThreshold>
      <weakClassifiers>
        <_>
          <internalNodes>
            0 -1 65 2.3551747202873230e-02</internalNodes>
          <leafValues>
            -7.4718397855758667e-01 8.3333331346511841e-01</leafValues></_>
        <_>
          <internalNodes>
            0 -1 35 -2.3317322134971619e-02</internalNodes>
          <leafValues>
            5.7571077346801758e-01 -3.8712981343269348e-01</leafValues></_>
        <_>
          <internalNodes>
            0 -1 19 -1.7828904092311859e-02</internalNodes>
          <leafValues>
            2.8460648655891418e-01 -5.3645247220993042e-01</leafValues></_>
        <_>
          <internalNodes>
            0 -1 92 1.1063646525144577e-02</internalNodes>
          <leafValues>
            -1.9177798926830292e-01 7.2568690776824951e-01</leafValues></_>
        <_>
          <internalNodes>
            0 -1 104 3.5796575248241425e-02</internalNodes>
          <leafValues>
            -1.6105811297893524e-01 8.3201265335083008e-01</leafValues></_>
        <_>
          <internalNodes>
            0 -1 93 -5.8578155934810638e-02</internalNodes>
          <leafValues>
            -7.7112430334091187e-01 2.2484587132930756e-01</leafValues></_>
        <_>
          <internalNodes>
            0 -1 45 -1.3093787431716919e-01</internalNodes>
          <leafValues>
            6.5455174446105957e-01 -2.1222521364688873e-01</leafValues></_>
        <_>
          <internalNodes>
            0 -1 49 5.0448970869183540e-03</internalNodes>
          <leafValues>
            -2.1386817097663879e-01 6.6001671552658081e-01</leafValues></_>
        <_>
          <internalNodes>
            0 -1 89 2.6254498516209424e-04</internalNodes>
          <leafValues>
            -4.9809944629669189e-01 2.6913562417030334e-01</leafValues></_>
        <_>
          <internalNodes>
            0 -1 72 -2.0519632846117020e-02</internalNodes>
          <leafValues>
            7.5208097696304321e-01 -1.6344426572322845e-01</leafValues></_>
        <_>
          <internalNodes>
            0 -1 17 2.2335702553391457e-02</internalNodes>
          <leafValues>
            -1.5382935106754303e-01 7.4851638078689575e-01</leafValues></_>
        <_>
          <internalNodes>
            0 -1 103 -3.6588162183761597e-03</internalNodes>
          <leafValues>
            6.7205911874771118e-01 -1.9060663878917694e-01</leafValues></_></weakClassifiers></_>
    <!-- stage 4 -->
    <_>
      <maxWeakCount>11</maxWeakCount>
      <stageThreshold>-1.2930055856704712e+00</stageThreshold>
      <weakClassifiers>
        <_>
          <internalNodes>
            0 -1 40 -7.3879539966583252e-02</internalNodes>
          <leafValues>
            9.0909093618392944e-01 -7.4531835317611694e-01</leafValues></_>
        <_>
          <internalNodes>
            0 -1 7 -2.1750196814537048e-02</internalNodes>
          <leafValues>
            2.6936918497085571e-01 -5.1658260822296143e-01</leafValues></_>
        <_>
          <internalNodes>
            0 -1 21 -3.5438734292984009e-01</internalNodes>
          <leafValues>
            -8.7450134754180908e-01 1.6736665368080139e-01</leafValues></_>
        <_>
          <internalNodes>
            0 -1 60 -1.0762738995254040e-02</internalNodes>
          <leafValues>
            6.1831980943679810e-01 -1.9823805987834930e-01</leafValues></_>
        <_>
          <internalNodes>
            0 -1 23 -5.6138932704925537e-02</internalNodes>
          <leafValues>
            -4.7172430157661438e-01 3.2556042075157166e-01</leafValues></_>
        <_>
          <internalNodes>
            0 -1 55 -8.9625474065542221e-03</internalNodes>
          <leafValues>
            6.5798658132553101e-01 -2.0591737329959869e-01</leafValues></_>
        <_>
          <internalNodes>
            0 -1 39 -2.2194590419530869e-02</internalNodes>
          <leafValues>
            4.7584164142608643e-01 -2.8545093536376953e-01</leafValues></_>
        <_>
          <internalNodes>
            0 -1 107 3.1496144831180573e-02</internalNodes>
          <leafValues>
            -1.9130635261535645e-01 7.3874622583389282e-01</leafValues></_>
        <_>
          <internalNodes>
            0 -1 112 7.8267911449074745e-03</internalNodes>
          <leafValues>
            -3.8564550876617432e-01 4.1309341788291931e-01</leafValues></_>
        <_>
          <internalNodes>
            0 -1 8 -1.3903703074902296e-03</internalNodes>
          <leafValues>
            1.8119780719280243e-01 -7.1893846988677979e-01</leafValues></_>
        <_>
          <internalNodes>
            0 -1 58 -2.1096855401992798e-02</internalNodes>
          <leafValues>
            7.3099017143249512e-01 -1.9996386766433716e-01</leafValues></_></weakClassifiers></_>
    <!-- stage 5 -->
    <_>
      <maxWeakCount>9</maxWeakCount>
      <stageThreshold>-1.0618480443954468e+00</stageThreshold>
      <weakClassifiers>
        <_>
          <internalNodes>
            0 -1 31 4.5876521617174149e-02</internalNodes>
          <leafValues>
            -7.4129354953765869e-01 1.</leafValues></_>
        <_>
          <internalNodes>
            0 -1 105 -2.4912353605031967e-02</internalNodes>
          <leafValues>
            7.1452623605728149e-01 -3.5070514678955078e-01</leafValues></_>
        <_>
          <internalNodes>
            0 -1 16 -5.6080739945173264e-02</internalNodes>
          <leafValues>
            -7.2627413272857666e-01 2.0813564956188202e-01</leafValues></_>
        <_>
          <internalNodes>
            0 -1 111 8.5875233635306358e-03</internalNodes>
          <leafValues>
            1.2517474591732025e-01 -8.1129235029220581e-01</leafValues></_>
        <_>
          <internalNodes>
            0 -1 36 4.1850535199046135e-03</internalNodes>
          <leafValues>
            -1.7680776119232178e-01 6.7260658740997314e-01</leafValues></_>
        <_>
          <internalNodes>
            0 -1 110 -2.8339859563857317e-03</internalNodes>
          <leafValues>
            4.9609011411666870e-01 -2.2319361567497253e-01</leafValues></_>
        <_>
          <internalNodes>
            0 -1 82 -2.6151835918426514e-02</internalNodes>
          <leafValues>
            6.9944411516189575e-01 -1.4121378958225250e-01</leafValues></_>
        <_>
          <internalNodes>
            0 -1 69 -5.0492089241743088e-02</internalNodes>
          <leafValues>
            2.9347336292266846e-01 -4.8849308490753174e-01</leafValues></_>
        <_>
          <internalNodes>
            0 -1 4 2.0431792736053467e-01</internalNodes>
          <leafValues>
            1.6176539659500122e-01 -7.8719019889831543e-01</leafValues></_></weakClassifiers></_>
    <!-- stage 6 -->
    <_>
      <maxWeakCount>13</maxWeakCount>
      <stageThreshold>-8.0803579092025757e-01</stageThreshold>
      <weakClassifiers>
        <_>
          <internalNodes>
            0 -1 50 -2.8012480586767197e-02</internalNodes>
          <leafValues>
            1. -7.4346202611923218e-01</leafValues></_>
        <_>
          <internalNodes>
            0 -1 88 -2.3606535047292709e-02</internalNodes>
          <leafValues>
            5.7157319784164429e-01 -3.6690896749496460e-01</leafValues></_>
        <_>
          <internalNodes>
            0 -1 81 -1.1798174120485783e-02</internalNodes>
          <leafValues>
            7.2425317764282227e-01 -1.3516372442245483e-01</leafValues></_>
        <_>
          <internalNodes>
            0 -1 83 7.3671070858836174e-03</internalNodes>
          <leafValues>
            -1.7013405263423920e-01 6.8712574243545532e-01</leafValues></_>
        <_>
          <internalNodes>
            0 -1 85 8.1414598971605301e-03</internalNodes>
          <leafValues>
            -1.5039879083633423e-01 6.8682408332824707e-01</leafValues></_>
        <_>
          <internalNodes>
            0 -1 61 -1.0128341615200043e-02</internalNodes>
          <leafValues>
            -6.0703188180923462e-01 2.0366652309894562e-01</leafValues></_>
        <_>
          <internalNodes>
            0 -1 119 -6.5080523490905762e-02</internalNodes>
          <leafValues>
            -7.1510547399520874e-01 2.1609775722026825e-01</leafValues></_>
        <_>
          <internalNodes>
            0 -1 43 -2.3365342989563942e-02</internalNodes>
          <leafValues>
            -5.4030883312225342e-01 2.0587781071662903e-01</leafValues></_>
        <_>
          <internalNodes>
            0 -1 1 2.3481670767068863e-02</internalNodes>
          <leafValues>
            9.6041962504386902e-02 -7.7900451421737671e-01</leafValues></_>
        <_>
          <internalNodes>
            0 -1 106 -5.6207189336419106e-03</internalNodes>
          <leafValues>
            -8.5904860496520996e-01 1.1851449310779572e-01</leafValues></_>
        <_>
          <internalNodes>
            0 -1 20 1.7282543703913689e-03</internalNodes>
          <leafValues>
            1.2527137994766235e-01 -6.8341755867004395e-01</leafValues></_>
        <_>
          <internalNodes>
            0 -1 113 1.6983045497909188e-03</internalNodes>
          <leafValues>
            1.2797555327415466e-01 -6.8824428319931030e-01</leafValues></_>
        <_>
          <internalNodes>
            0 -1 91 -1.2306590564548969e-02</internalNodes>
          <leafValues>
            6.5962016582489014e-01 -1.7944398522377014e-01</leafValues></_></weakClassifiers></_>
    <!-- stage 7 -->
    <_>
      <maxWeakCount>11</maxWeakCount>
      <stageThreshold>-1.2990863323211670e+00</stageThreshold>
      <weakClassifiers>
        <_>
          <internalNodes>
            0 -1 38 -6.6264785826206207e-02</internalNodes>
          <leafValues>
            7.5999999046325684e-01 -7.4686717987060547e-01</leafValues></_>
        <_>
          <internalNodes>
            0 -1 26 -1.0776828043162823e-02</internalNodes>
          <leafValues>
            -8.1537091732025146e-01 1.7805237323045731e-02</leafValues></_>
        <_>
          <internalNodes>
            0 -1 12 5.2823968231678009e-02</internalNodes>
          <leafValues>
            1.0657536238431931e-01 -1.</leafValues></_>
        <_>
          <internalNodes>
            0 -1 67 -5.6791342794895172e-03</internalNodes>
          <leafValues>
            -9.2090475559234619e-01 1.0696654766798019e-01</leafValues></_>
        <_>
          <internalNodes>
            0 -1 84 -1.3051921129226685e-01</internalNodes>
          <leafValues>
            8.5083031654357910e-01 -1.5797518193721771e-01</leafValues></_>
        <_>
          <internalNodes>
            0 -1 97 4.8928409814834595e-03</internalNodes>
          <leafValues>
            -3.6051258444786072e-01 3.1157121062278748e-01</leafValues></_>
        <_>
          <internalNodes>
            0 -1 100 -1.2800062540918589e-03</internalNodes>
          <leafValues>
            -6.9251811504364014e-01 1.7173230648040771e-01</leafValues></_>
        <_>
          <internalNodes>
            0 -1 102 -1.3779653236269951e-02</internalNodes>
          <leafValues>
            8.0366039276123047e-01 -1.7166860401630402e-01</leafValues></_>
        <_>
          <internalNodes>
            0 -1 25 3.6056102253496647e-03</internalNodes>
          <leafValues>
            2.8901255130767822e-01 -4.5026409626007080e-01</leafValues></_>
        <_>
          <internalNodes>
            0 -1 122 -5.4433196783065796e-04</internalNodes>
          <leafValues>
            -6.6491544246673584e-01 1.5547566115856171e-01</leafValues></_>
        <_>
          <internalNodes>
            0 -1 117 1.1553434887900949e-03</internalNodes>
          <leafValues>
            -3.6702048778533936e-01 3.0292731523513794e-01</leafValues></_></weakClassifiers></_>
    <!-- stage 8 -->
    <_>
      <maxWeakCount>12</maxWeakCount>
      <stageThreshold>-1.2257095575332642e+00</stageThreshold>
      <weakClassifiers>
        <_>
          <internalNodes>
            0 -1 48 -5.8602821081876755e-02</internalNodes>
          <leafValues>
            1. -7.3913043737411499e-01</leafValues></_>
        <_>
          <internalNodes>
            0 -1 86 -1.8872354179620743e-02</internalNodes>
          <leafValues>
            6.7299944162368774e-01 -3.3376863598823547e-01</leafValues></_>
        <_>
          <internalNodes>
            0 -1 15 -4.3523358181118965e-03</internalNodes>
          <leafValues>
            -4.6900749206542969e-01 2.6533785462379456e-01</leafValues></_>
        <_>
          <internalNodes>
            0 -1 101 -2.1589029580354691e-02</internalNodes>
          <leafValues>
            6.9350832700729370e-01 -1.5354911983013153e-01</leafValues></_>
        <_>
          <internalNodes>
            0 -1 37 1.1717995628714561e-02</internalNodes>
          <leafValues>
            -1.4879405498504639e-01 6.4269393682479858e-01</leafValues></_>
        <_>
          <internalNodes>
            0 -1 68 -6.0970312915742397e-03</internalNodes>
          <leafValues>
            1.9952641427516937e-01 -5.9771138429641724e-01</leafValues></_>
        <_>
          <internalNodes>
            0 -1 120 -2.4218817707151175e-03</internalNodes>
          <leafValues>
            -6.3956284523010254e-01 1.8271820247173309e-01</leafValues></_>
        <_>
          <internalNodes>
            0 -1 54 1.2533470988273621e-02</internalNodes>
          <leafValues>
            -2.5964257121086121e-01 4.5026201009750366e-01</leafValues></_>
        <_>
          <internalNodes>
            0 -1 78 -4.5310504734516144e-02</internalNodes>
          <leafValues>
            -6.4198940992355347e-01 1.9223031401634216e-01</leafValues></_>
        <_>
          <internalNodes>
            0 -1 10 -7.2598814964294434e-02</internalNodes>
          <leafValues>
            -9.4749933481216431e-01 9.3445576727390289e-02</leafValues></_>
        <_>
          <internalNodes>
            0 -1 18 3.8701293524354696e-03</internalNodes>
          <leafValues>
            1.3298830389976501e-01 -6.6849935054779053e-01</leafValues></_>
        <_>
          <internalNodes>
            0 -1 52 -6.0411421582102776e-03</internalNodes>
          <leafValues>
            -6.4707183837890625e-01 1.8309538066387177e-01</leafValues></_></weakClassifiers></_>
    <!-- stage 9 -->
    <_>
      <maxWeakCount>11</maxWeakCount>
      <stageThreshold>-1.3015391826629639e+00</stageThreshold>
      <weakClassifiers>
        <_>
          <internalNodes>
            0 -1 42 -4.9883309751749039e-02</internalNodes>
          <leafValues>
            7.1428573131561279e-01 -7.5094342231750488e-01</leafValues></_>
        <_>
          <internalNodes>
            0 -1 96 -1.1117082089185715e-02</internalNodes>
          <leafValues>
            7.1185427904129028e-01 -3.2829391956329346e-01</leafValues></_>
        <_>
          <internalNodes>
            0 -1 115 -7.3669224977493286e-02</internalNodes>
          <leafValues>
            -9.3157684803009033e-01 1.5235236287117004e-01</leafValues></_>
        <_>
          <internalNodes>
            0 -1 80 1.5491683781147003e-01</internalNodes>
          <leafValues>
            9.2024467885494232e-02 -9.6983659267425537e-01</leafValues></_>
        <_>
          <internalNodes>
            0 -1 64 -2.7067750692367554e-01</internalNodes>
          <leafValues>
            -7.2863948345184326e-01 9.5778942108154297e-02</leafValues></_>
        <_>
          <internalNodes>
            0 -1 95 9.6853275317698717e-04</internalNodes>
          <leafValues>
            -2.4077636003494263e-01 4.1830015182495117e-01</leafValues></_>
        <_>
          <internalNodes>
            0 -1 114 1.0737861739471555e-03</internalNodes>
          <leafValues>
            1.7940235137939453e-01 -8.0366444587707520e-01</leafValues></_>
        <_>
          <internalNodes>
            0 -1 73 -1.3858150690793991e-02</internalNodes>
          <leafValues>
            -7.2135561704635620e-01 1.0172082483768463e-01</leafValues></_>
        <_>
          <internalNodes>
            0 -1 13 -1.2033777311444283e-02</internalNodes>
          <leafValues>
            -7.1433740854263306e-01 1.6140858829021454e-01</leafValues></_>
        <_>
          <internalNodes>
            0 -1 121 -1.4544752426445484e-02</internalNodes>
          <leafValues>
            -7.2125661373138428e-01 1.3104116916656494e-01</leafValues></_>
        <_>
          <internalNodes>
            0 -1 0 -1.5383115038275719e-02</internalNodes>
          <leafValues>
            8.4744103252887726e-02 -8.9525419473648071e-01</leafValues></_></weakClassifiers></_>
    <!-- stage 10 -->
    <_>
      <maxWeakCount>11</maxWeakCount>
      <stageThreshold>-1.5382218360900879e+00</stageThreshold>
      <weakClassifiers>
        <_>
          <internalNodes>
            0 -1 24 -3.9767928421497345e-02</internalNodes>
          <leafValues>
            1. -7.4781525135040283e-01</leafValues></_>
        <_>
          <internalNodes>
            0 -1 99 -8.4743592888116837e-03</internalNodes>
          <leafValues>
            8.8480067253112793e-01 -3.2631346583366394e-01</leafValues></_>
        <_>
          <internalNodes>
            0 -1 109 -2.7919881977140903e-03</internalNodes>
          <leafValues>
            -8.3724826574325562e-01 1.7506648600101471e-01</leafValues></_>
        <_>
          <internalNodes>
            0 -1 33 -1.1440875008702278e-02</internalNodes>
          <leafValues>
            6.4820134639739990e-01 -2.1153041720390320e-01</leafValues></_>
        <_>
          <internalNodes>
            0 -1 28 7.1227559819817543e-03</internalNodes>
          <leafValues>
            2.9121389985084534e-01 -5.5673217773437500e-01</leafValues></_>
        <_>
          <internalNodes>
            0 -1 27 -8.5186438809614629e-05</internalNodes>
          <leafValues>
            -3.7053266167640686e-01 3.9829039573669434e-01</leafValues></_>
        <_>
          <internalNodes>
            0 -1 116 -9.2826383188366890e-03</internalNodes>
          <leafValues>
            3.4232267737388611e-01 -4.0304216742515564e-01</leafValues></_>
        <_>
          <internalNodes>
            0 -1 41 -3.6948326975107193e-02</internalNodes>
          <leafValues>
            7.0965385437011719e-01 -1.7330271005630493e-01</leafValues></_>
        <_>
          <internalNodes>
            0 -1 51 2.1087145432829857e-03</internalNodes>
          <leafValues>
            2.5570410490036011e-01 -5.5788624286651611e-01</leafValues></_>
        <_>
          <internalNodes>
            0 -1 59 4.7149760648608208e-03</internalNodes>
          <leafValues>
            -3.7980863451957703e-01 3.3901494741439819e-01</leafValues></_>
        <_>
          <internalNodes>
            0 -1 79 9.5718452939763665e-05</internalNodes>
          <leafValues>
            3.0990797281265259e-01 -3.9322581887245178e-01</leafValues></_></weakClassifiers></_>
    <!-- stage 11 -->
    <_>
      <maxWeakCount>10</maxWeakCount>
      <stageThreshold>-1.4016234874725342e+00</stageThreshold>
      <weakClassifiers>
        <_>
          <internalNodes>
            0 -1 30 -4.4633321464061737e-02</internalNodes>
          <leafValues>
            1. -7.7215188741683960e-01</leafValues></_>
        <_>
          <internalNodes>
            0 -1 44 -1.3025525026023388e-02</internalNodes>
          <leafValues>
            -4.1749534010887146e-01 7.9558104276657104e-01</leafValues></_>
        <_>
          <internalNodes>
            0 -1 62 -9.5313601195812225e-03</internalNodes>
          <leafValues>
            7.7714306116104126e-01 -2.0147226750850677e-01</leafValues></_>
        <_>
          <internalNodes>
            0 -1 108 4.8512988723814487e-03</internalNodes>
          <leafValues>
            -4.4172698259353638e-01 4.0944927930831909e-01</leafValues></_>
        <_>
          <internalNodes>
            0 -1 76 -7.0116706192493439e-03</internalNodes>
          <leafValues>
            8.6025696992874146e-01 -2.3590569198131561e-01</leafValues></_>
        <_>
          <internalNodes>
            0 -1 9 1.4396836049854755e-02</internalNodes>
          <leafValues>
            -2.2083485126495361e-01 7.3505854606628418e-01</leafValues></_>
        <_>
          <internalNodes>
            0 -1 70 -1.1901439726352692e-01</internalNodes>
          <leafValues>
            4.5561584830284119e-01 -3.9639446139335632e-01</leafValues></_>
        <_>
          <internalNodes>
            0 -1 22 -5.6845438480377197e-01</internalNodes>
          <leafValues>
            -8.5361951589584351e-01 2.4492666125297546e-01</leafValues></_>
        <_>
          <internalNodes>
            0 -1 57 -4.8117823898792267e-03</internalNodes>
          <leafValues>
            7.9945915937423706e-01 -2.6044252514839172e-01</leafValues></_>
        <_>
          <internalNodes>
            0 -1 118 -4.9061363097280264e-04</internalNodes>
          <leafValues>
            4.4869762659072876e-01 -4.1979002952575684e-01</leafValues></_></weakClassifiers></_></stages>
  <features>
    <_>
      <rects>
        <_>
          0 0 12 1 -1.</_>
        <_>
          4 0 4 1 2.</_></rects>
      <tilted>0</tilted></_>
    <_>
      <rects>
        <_>
          0 0 20 2 -1.</_>
        <_>
          10 0 10 2 2.</_></rects>
      <tilted>0</tilted></_>
    <_>
      <rects>
        <_>
          0 1 4 22 -1.</_>
        <_>
          2 1 2 22 2.</_></rects>
      <tilted>0</tilted></_>
    <_>
      <rects>
        <_>
          0 1 14 4 -1.</_>
        <_>
          7 1 7 4 2.</_></rects>
      <tilted>0</tilted></_>
    <_>
      <rects>
        <_>
          0 2 24 22 -1.</_>
        <_>
          12 2 12 22 2.</_></rects>
      <tilted>0</tilted></_>
    <_>
      <rects>
        <_>
          0 7 6 16 -1.</_>
        <_>
          3 7 3 16 2.</_></rects>
      <tilted>0</tilted></_>
    <_>
      <rects>
        <_>
          0 7 10 4 -1.</_>
        <_>
          5 7 5 4 2.</_></rects>
      <tilted>0</tilted></_>
    <_>
      <rects>
        <_>
          0 9 10 3 -1.</_>
        <_>
          5 9 5 3 2.</_></rects>
      <tilted>0</tilted></_>
    <_>
      <rects>
        <_>
          0 13 10 10 -1.</_>
        <_>
          5 13 5 10 2.</_></rects>
      <tilted>0</tilted></_>
    <_>
      <rects>
        <_>
          0 17 14 6 -1.</_>
        <_>
          0 17 7 3 2.</_>
        <_>
          7 20 7 3 2.</_></rects>
      <tilted>0</tilted></_>
    <_>
      <rects>
        <_>
          0 17 16 4 -1.</_>
        <_>
          8 17 8 4 2.</_></rects>
      <tilted>0</tilted></_>
    <_>
      <rects>
        <_>
          1 0 11 3 -1.</_>
        <_>
          1 1 11 1 2.</_></rects>
      <tilted>0</tilted></_>
    <_>
      <rects>
        <_>
          1 0 23 6 -1.</_>
        <_>
          1 3 23 3 2.</_></rects>
      <tilted>0</tilted></_>
    <_>
      <rects>
        <_>
          1 1 2 10 -1.</_>
        <_>
          1 6 2 5 2.</_></rects>
      <tilted>0</tilted></_>
    <_>
      <rects>
        <_>
          1 20 1 3 -1.</_>
        <_>
          1 21 1 1 2.</_></rects>
      <tilted>0</tilted></_>
    <_>
      <rects>
        <_>
          2 9 8 6 -1.</_>
        <_>
          2 9 4 3 2.</_>
        <_>
          6 12 4 3 2.</_></rects>
      <tilted>0</tilted></_>
    <_>
      <rects>
        <_>
          2 10 20 14 -1.</_>
        <_>
          12 10 10 14 2.</_></rects>
      <tilted>0</tilted></_>
    <_>
      <rects>
        <_>
          2 14 14 4 -1.</_>
        <_>
          2 14 7 2 2.</_>
        <_>
          9 16 7 2 2.</_></rects>
      <tilted>0</tilted></_>
    <_>
      <rects>
        <_>
          3 0 8 2 -1.</_>
        <_>
          3 1 8 1 2.</_></rects>
      <tilted>0</tilted></_>
    <_>
      <rects>
        <_>
          3 1 7 12 -1.</_>
        <_>
          3 7 7 6 2.</_></rects>
      <tilted>0</tilted></_>
    <_>
      <rects>
        <_>
          3 6 4 2 -1.</_>
        <_>
          3 7 4 1 2.</_></rects>
      <tilted>0</tilted></_>
    <_>
      <rects>
        <_>
          3 8 15 11 -1.</_>
        <_>
          8 8 5 11 2.</_></rects>
      <tilted>0</tilted></_>
    <_>
      <rects>
        <_>
          3 9 18 15 -1.</_>
        <_>
          3 14 18 5 2.</_></rects>
      <tilted>0</tilted></_>
    <_>
      <rects>
        <_>
          3 12 6 6 -1.</_>
        <_>
          5 12 2 6 2.</_></rects>
      <tilted>0</tilted></_>
    <_>
      <rects>
        <_>
          3 13 6 6 -1.</_>
        <_>
          3 16 6 3 2.</_></rects>
      <tilted>0</tilted></_>
    <_>
      <rects>
        <_>
          4 9 10 15 -1.</_>
        <_>
          9 9 5 15 2.</_></rects>
      <tilted>0</tilted></_>
    <_>
      <rects>
        <_>
          4 10 7 8 -1.</_>
        <_>
          4 14 7 4 2.</_></rects>
      <tilted>0</tilted></_>
    <_>
      <rects>
        <_>
          4 16 2 2 -1.</_>
        <_>
          4 17 2 1 2.</_></rects>
      <tilted>0</tilted></_>
    <_>
      <rects>
        <_>
          5 3 4 5 -1.</_>
        <_>
          7 3 2 5 2.</_></rects>
      <tilted>0</tilted></_>
    <_>
      <rects>
        <_>
          5 8 16 3 -1.</_>
        <_>
          5 9 16 1 2.</_></rects>
      <tilted>0</tilted></_>
    <_>
      <rects>
        <_>
          5 14 9 2 -1.</_>
        <_>
          8 14 3 2 2.</_></rects>
      <tilted>0</tilted></_>
    <_>
      <rects>
        <_>
          5 14 6 8 -1.</_>
        <_>
          5 14 3 4 2.</_>
        <_>
          8 18 3 4 2.</_></rects>
      <tilted>0</tilted></_>
    <_>
      <rects>
        <_>
          5 15 10 3 -1.</_>
        <_>
          5 16 10 1 2.</_></rects>
      <tilted>0</tilted></_>
    <_>
      <rects>
        <_>
          5 17 8 4 -1.</_>
        <_>
          5 17 4 2 2.</_>
        <_>
          9 19 4 2 2.</_></rects>
      <tilted>0</tilted></_>
    <_>
      <rects>
        <_>
          6 5 12 3 -1.</_>
        <_>
          6 6 12 1 2.</_></rects>
      <tilted>0</tilted></_>
    <_>
      <rects>
        <_>
          6 7 6 6 -1.</_>
        <_>
          6 7 3 3 2.</_>
        <_>
          9 10 3 3 2.</_></rects>
      <tilted>0</tilted></_>
    <_>
      <rects>
        <_>
          6 8 2 3 -1.</_>
        <_>
          7 8 1 3 2.</_></rects>
      <tilted>0</tilted></_>
    <_>
      <rects>
        <_>
          6 9 6 6 -1.</_>
        <_>
          6 9 3 3 2.</_>
        <_>
          9 12 3 3 2.</_></rects>
      <tilted>0</tilted></_>
    <_>
      <rects>
        <_>
          6 10 3 12 -1.</_>
        <_>
          6 16 3 6 2.</_></rects>
      <tilted>0</tilted></_>
    <_>
      <rects>
        <_>
          6 10 6 14 -1.</_>
        <_>
          6 10 3 7 2.</_>
        <_>
          9 17 3 7 2.</_></rects>
      <tilted>0</tilted></_>
    <_>
      <rects>
        <_>
          6 10 4 10 -1.</_>
        <_>
          6 15 4 5 2.</_></rects>
      <tilted>0</tilted></_>
    <_>
      <rects>
        <_>
          6 11 15 1 -1.</_>
        <_>
          11 11 5 1 2.</_></rects>
      <tilted>0</tilted></_>
    <_>
      <rects>
        <_>
          6 11 16 3 -1.</_>
        <_>
          14 11 8 3 2.</_></rects>
      <tilted>0</tilted></_>
    <_>
      <rects>
        <_>
          6 13 5 3 -1.</_>
        <_>
          6 14 5 1 2.</_></rects>
      <tilted>0</tilted></_>
    <_>
      <rects>
        <_>
          6 15 9 2 -1.</_>
        <_>
          9 15 3 2 2.</_></rects>
      <tilted>0</tilted></_>
    <_>
      <rects>
        <_>
          7 5 6 10 -1.</_>
        <_>
          9 5 2 10 2.</_></rects>
      <tilted>0</tilted></_>
    <_>
      <rects>
        <_>
          7 5 4 16 -1.</_>
        <_>
          9 5 2 16 2.</_></rects>
      <tilted>0</tilted></_>
    <_>
      <rects>
        <_>
          7 7 2 2 -1.</_>
        <_>
          8 7 1 2 2.</_></rects>
      <tilted>0</tilted></_>
    <_>
      <rects>
        <_>
          7 7 2 14 -1.</_>
        <_>
          7 14 2 7 2.</_></rects>
      <tilted>0</tilted></_>
    <_>
      <rects>
        <_>
          7 10 4 2 -1.</_>
        <_>
          9 10 2 2 2.</_></rects>
      <tilted>0</tilted></_>
    <_>
      <rects>
        <_>
          7 11 2 6 -1.</_>
        <_>
          7 14 2 3 2.</_></rects>
      <tilted>0</tilted></_>
    <_>
      <rects>
        <_>
          7 17 2 5 -1.</_>
        <_>
          8 17 1 5 2.</_></rects>
      <tilted>0</tilted></_>
    <_>
      <rects>
        <_>
          8 0 14 1 -1.</_>
        <_>
          15 0 7 1 2.</_></rects>
      <tilted>0</tilted></_>
    <_>
      <rects>
        <_>
          8 0 8 24 -1.</_>
        <_>
          8 12 8 12 2.</_></rects>
      <tilted>0</tilted></_>
    <_>
      <rects>
        <_>
          8 5 4 8 -1.</_>
        <_>
          8 5 2 4 2.</_>
        <_>
          10 9 2 4 2.</_></rects>
      <tilted>0</tilted></_>
    <_>
      <rects>
        <_>
          8 6 2 15 -1.</_>
        <_>
          9 6 1 15 2.</_></rects>
      <tilted>0</tilted></_>
    <_>
      <rects>
        <_>
          8 6 4 6 -1.</_>
        <_>
          8 6 2 3 2.</_>
        <_>
          10 9 2 3 2.</_></rects>
      <tilted>0</tilted></_>
    <_>
      <rects>
        <_>
          8 8 2 8 -1.</_>
        <_>
          8 8 1 4 2.</_>
        <_>
          9 12 1 4 2.</_></rects>
      <tilted>0</tilted></_>
    <_>
      <rects>
        <_>
          8 9 6 6 -1.</_>
        <_>
          8 9 3 3 2.</_>
        <_>
          11 12 3 3 2.</_></rects>
      <tilted>0</tilted></_>
    <_>
      <rects>
        <_>
          8 11 3 10 -1.</_>
        <_>
          8 16 3 5 2.</_></rects>
      <tilted>0</tilted></_>
    <_>
      <rects>
        <_>
          9 3 2 14 -1.</_>
        <_>
          10 3 1 14 2.</_></rects>
      <tilted>0</tilted></_>
    <_>
      <rects>
        <_>
          9 3 14 2 -1.</_>
        <_>
          16 3 7 2 2.</_></rects>
      <tilted>0</tilted></_>
    <_>
      <rects>
        <_>
          9 4 2 20 -1.</_>
        <_>
          10 4 1 20 2.</_></rects>
      <tilted>0</tilted></_>
    <_>
      <rects>
        <_>
          9 6 4 12 -1.</_>
        <_>
          11 6 2 12 2.</_></rects>
      <tilted>0</tilted></_>
    <_>
      <rects>
        <_>
          9 8 8 15 -1.</_>
        <_>
          9 13 8 5 2.</_></rects>
      <tilted>0</tilted></_>
    <_>
      <rects>
        <_>
          9 9 4 3 -1.</_>
        <_>
          11 9 2 3 2.</_></rects>
      <tilted>0</tilted></_>
    <_>
      <rects>
        <_>
          9 10 6 2 -1.</_>
        <_>
          11 10 2 2 2.</_></rects>
      <tilted>0</tilted></_>
    <_>
      <rects>
        <_>
          9 22 10 2 -1.</_>
        <_>
          9 23 10 1 2.</_></rects>
      <tilted>0</tilted></_>
    <_>
      <rects>
        <_>
          10 0 2 20 -1.</_>
        <_>
          10 10 2 10 2.</_></rects>
      <tilted>0</tilted></_>
    <_>
      <rects>
        <_>
          10 0 6 18 -1.</_>
        <_>
          10 9 6 9 2.</_></rects>
      <tilted>0</tilted></_>
    <_>
      <rects>
        <_>
          10 1 6 12 -1.</_>
        <_>
          10 5 6 4 2.</_></rects>
      <tilted>0</tilted></_>
    <_>
      <rects>
        <_>
          10 2 2 16 -1.</_>
        <_>
          10 2 1 8 2.</_>
        <_>
          11 10 1 8 2.</_></rects>
      <tilted>0</tilted></_>
    <_>
      <rects>
        <_>
          10 3 4 12 -1.</_>
        <_>
          10 3 2 6 2.</_>
        <_>
          12 9 2 6 2.</_></rects>
      <tilted>0</tilted></_>
    <_>
      <rects>
        <_>
          10 4 14 2 -1.</_>
        <_>
          17 4 7 2 2.</_></rects>
      <tilted>0</tilted></_>
    <_>
      <rects>
        <_>
          10 8 2 5 -1.</_>
        <_>
          11 8 1 5 2.</_></rects>
      <tilted>0</tilted></_>
    <_>
      <rects>
        <_>
          10 8 2 6 -1.</_>
        <_>
          11 8 1 6 2.</_></rects>
      <tilted>0</tilted></_>
    <_>
      <rects>
        <_>
          10 8 2 13 -1.</_>
        <_>
          11 8 1 13 2.</_></rects>
      <tilted>0</tilted></_>
    <_>
      <rects>
        <_>
          10 10 14 9 -1.</_>
        <_>
          17 10 7 9 2.</_></rects>
      <tilted>0</tilted></_>
    <_>
      <rects>
        <_>
          10 21 7 3 -1.</_>
        <_>
          10 22 7 1 2.</_></rects>
      <tilted>0</tilted></_>
    <_>
      <rects>
        <_>
          11 1 4 1 -1.</_>
        <_>
          13 1 2 1 2.</_></rects>
      <tilted>0</tilted></_>
    <_>
      <rects>
        <_>
          11 3 12 17 -1.</_>
        <_>
          17 3 6 17 2.</_></rects>
      <tilted>0</tilted></_>
    <_>
      <rects>
        <_>
          11 4 2 10 -1.</_>
        <_>
          12 4 1 10 2.</_></rects>
      <tilted>0</tilted></_>
    <_>
      <rects>
        <_>
          11 6 10 8 -1.</_>
        <_>
          11 6 5 4 2.</_>
        <_>
          16 10 5 4 2.</_></rects>
      <tilted>0</tilted></_>
    <_>
      <rects>
        <_>
          11 8 2 5 -1.</_>
        <_>
          12 8 1 5 2.</_></rects>
      <tilted>0</tilted></_>
    <_>
      <rects>
        <_>
          11 9 6 8 -1.</_>
        <_>
          13 9 2 8 2.</_></rects>
      <tilted>0</tilted></_>
    <_>
      <rects>
        <_>
          11 11 4 4 -1.</_>
        <_>
          11 13 4 2 2.</_></rects>
      <tilted>0</tilted></_>
    <_>
      <rects>
        <_>
          11 12 6 1 -1.</_>
        <_>
          13 12 2 1 2.</_></rects>
      <tilted>0</tilted></_>
    <_>
      <rects>
        <_>
          11 13 6 4 -1.</_>
        <_>
          11 13 3 2 2.</_>
        <_>
          14 15 3 2 2.</_></rects>
      <tilted>0</tilted></_>
    <_>
      <rects>
        <_>
          11 16 9 1 -1.</_>
        <_>
          14 16 3 1 2.</_></rects>
      <tilted>0</tilted></_>
    <_>
      <rects>
        <_>
          11 20 1 4 -1.</_>
        <_>
          11 22 1 2 2.</_></rects>
      <tilted>0</tilted></_>
    <_>
      <rects>
        <_>
          12 3 4 14 -1.</_>
        <_>
          12 3 2 7 2.</_>
        <_>
          14 10 2 7 2.</_></rects>
      <tilted>0</tilted></_>
    <_>
      <rects>
        <_>
          12 4 2 18 -1.</_>
        <_>
          12 4 1 9 2.</_>
        <_>
          13 13 1 9 2.</_></rects>
      <tilted>0</tilted></_>
    <_>
      <rects>
        <_>
          12 5 2 12 -1.</_>
        <_>
          13 5 1 12 2.</_></rects>
      <tilted>0</tilted></_>
    <_>
      <rects>
        <_>
          12 7 9 3 -1.</_>
        <_>
          12 8 9 1 2.</_></rects>
      <tilted>0</tilted></_>
    <_>
      <rects>
        <_>
          12 8 4 16 -1.</_>
        <_>
          12 8 2 8 2.</_>
        <_>
          14 16 2 8 2.</_></rects>
      <tilted>0</tilted></_>
    <_>
      <rects>
        <_>
          12 11 2 2 -1.</_>
        <_>
          12 11 1 1 2.</_>
        <_>
          13 12 1 1 2.</_></rects>
      <tilted>0</tilted></_>
    <_>
      <rects>
        <_>
          12 13 4 4 -1.</_>
        <_>
          12 13 2 2 2.</_>
        <_>
          14 15 2 2 2.</_></rects>
      <tilted>0</tilted></_>
    <_>
      <rects>
        <_>
          12 14 1 10 -1.</_>
        <_>
          12 19 1 5 2.</_></rects>
      <tilted>0</tilted></_>
    <_>
      <rects>
        <_>
          12 14 2 10 -1.</_>
        <_>
          12 19 2 5 2.</_></rects>
      <tilted>0</tilted></_>
    <_>
      <rects>
        <_>
          12 15 6 2 -1.</_>
        <_>
          12 15 3 1 2.</_>
        <_>
          15 16 3 1 2.</_></rects>
      <tilted>0</tilted></_>
    <_>
      <rects>
        <_>
          12 23 2 1 -1.</_>
        <_>
          13 23 1 1 2.</_></rects>
      <tilted>0</tilted></_>
    <_>
      <rects>
        <_>
          13 2 4 12 -1.</_>
        <_>
          13 2 2 6 2.</_>
        <_>
          15 8 2 6 2.</_></rects>
      <tilted>0</tilted></_>
    <_>
      <rects>
        <_>
          13 3 2 12 -1.</_>
        <_>
          13 3 1 6 2.</_>
        <_>
          14 9 1 6 2.</_></rects>
      <tilted>0</tilted></_>
    <_>
      <rects>
        <_>
          13 7 2 3 -1.</_>
        <_>
          14 7 1 3 2.</_></rects>
      <tilted>0</tilted></_>
    <_>
      <rects>
        <_>
          13 7 4 11 -1.</_>
        <_>
          15 7 2 11 2.</_></rects>
      <tilted>0</tilted></_>
    <_>
      <rects>
        <_>
          13 14 6 6 -1.</_>
        <_>
          13 14 3 3 2.</_>
        <_>
          16 17 3 3 2.</_></rects>
      <tilted>0</tilted></_>
    <_>
      <rects>
        <_>
          13 20 11 2 -1.</_>
        <_>
          13 21 11 1 2.</_></rects>
      <tilted>0</tilted></_>
    <_>
      <rects>
        <_>
          14 3 4 14 -1.</_>
        <_>
          14 3 2 7 2.</_>
        <_>
          16 10 2 7 2.</_></rects>
      <tilted>0</tilted></_>
    <_>
      <rects>
        <_>
          14 17 10 4 -1.</_>
        <_>
          19 17 5 4 2.</_></rects>
      <tilted>0</tilted></_>
    <_>
      <rects>
        <_>
          15 1 4 1 -1.</_>
        <_>
          17 1 2 1 2.</_></rects>
      <tilted>0</tilted></_>
    <_>
      <rects>
        <_>
          15 12 2 6 -1.</_>
        <_>
          15 12 1 3 2.</_>
        <_>
          16 15 1 3 2.</_></rects>
      <tilted>0</tilted></_>
    <_>
      <rects>
        <_>
          16 2 8 2 -1.</_>
        <_>
          20 2 4 2 2.</_></rects>
      <tilted>0</tilted></_>
    <_>
      <rects>
        <_>
          16 9 8 5 -1.</_>
        <_>
          20 9 4 5 2.</_></rects>
      <tilted>0</tilted></_>
    <_>
      <rects>
        <_>
          16 21 2 2 -1.</_>
        <_>
          17 21 1 2 2.</_></rects>
      <tilted>0</tilted></_>
    <_>
      <rects>
        <_>
          17 22 2 2 -1.</_>
        <_>
          17 22 1 1 2.</_>
        <_>
          18 23 1 1 2.</_></rects>
      <tilted>0</tilted></_>
    <_>
      <rects>
        <_>
          18 0 6 14 -1.</_>
        <_>
          18 7 6 7 2.</_></rects>
      <tilted>0</tilted></_>
    <_>
      <rects>
        <_>
          18 2 3 10 -1.</_>
        <_>
          18 7 3 5 2.</_></rects>
      <tilted>0</tilted></_>
    <_>
      <rects>
        <_>
          18 5 2 8 -1.</_>
        <_>
          19 5 1 8 2.</_></rects>
      <tilted>0</tilted></_>
    <_>
      <rects>
        <_>
          18 8 4 4 -1.</_>
        <_>
          18 8 2 2 2.</_>
        <_>
          20 10 2 2 2.</_></rects>
      <tilted>0</tilted></_>
    <_>
      <rects>
        <_>
          19 2 5 22 -1.</_>
        <_>
          19 13 5 11 2.</_></rects>
      <tilted>0</tilted></_>
    <_>
      <rects>
        <_>
          19 18 2 6 -1.</_>
        <_>
          19 21 2 3 2.</_></rects>
      <tilted>0</tilted></_>
    <_>
      <rects>
        <_>
          20 12 3 2 -1.</_>
        <_>
          21 12 1 2 2.</_></rects>
      <tilted>0</tilted></_>
    <_>
      <rects>
        <_>
          22 18 2 1 -1.</_>
        <_>
          23 18 1 1 2.</_></rects>
      <tilted>0</tilted></_></features></cascade>
</opencv_storage>
