<?xml version="1.0"?>
<opencv_storage>
<stage7>
  <maxWeakCount>40</maxWeakCount>
  <stageThreshold>-1.5852987766265869e+00</stageThreshold>
  <weakClassifiers>
    <_>
      <internalNodes>
        0 -1 77481 -9.0014658868312836e-02</internalNodes>
      <leafValues>
        5.0515460968017578e-01 -6.8659675121307373e-01</leafValues></_>
    <_>
      <internalNodes>
        0 -1 138523 -2.3798882961273193e-02</internalNodes>
      <leafValues>
        7.9066067934036255e-01 -2.1201770007610321e-01</leafValues></_>
    <_>
      <internalNodes>
        0 -1 76730 -6.4273297786712646e-02</internalNodes>
      <leafValues>
        7.8918285667896271e-02 -8.2046216726303101e-01</leafValues></_>
    <_>
      <internalNodes>
        0 -1 161036 -3.1767776235938072e-03</internalNodes>
      <leafValues>
        -4.2825964093208313e-01 1.4335048198699951e-01</leafValues></_>
    <_>
      <internalNodes>
        0 -1 134107 1.6025914251804352e-01</internalNodes>
      <leafValues>
        5.1598776131868362e-02 -8.5512942075729370e-01</leafValues></_>
    <_>
      <internalNodes>
        0 -1 146543 4.0678912773728371e-03</internalNodes>
      <leafValues>
        -2.3202815651893616e-01 2.0661963522434235e-01</leafValues></_>
    <_>
      <internalNodes>
        0 -1 135941 -7.0330537855625153e-02</internalNodes>
      <leafValues>
        9.0332031250000000e-01 -4.9592535942792892e-02</leafValues></_>
    <_>
      <internalNodes>
        0 -1 56932 3.3124736510217190e-03</internalNodes>
      <leafValues>
        -1.8297114968299866e-01 2.3404300212860107e-01</leafValues></_>
    <_>
      <internalNodes>
        0 -1 86650 -6.9240719079971313e-02</internalNodes>
      <leafValues>
        3.8417392969131470e-01 -1.0106594115495682e-01</leafValues></_>
    <_>
      <internalNodes>
        0 -1 107422 -1.1057244986295700e-01</internalNodes>
      <leafValues>
        2.6765272021293640e-01 -1.7639566957950592e-01</leafValues></_>
    <_>
      <internalNodes>
        0 -1 69318 -5.1799379289150238e-02</internalNodes>
      <leafValues>
        6.8106371164321899e-01 -6.9365069270133972e-02</leafValues></_>
    <_>
      <internalNodes>
        0 -1 106975 1.5347018837928772e-02</internalNodes>
      <leafValues>
        7.6098889112472534e-02 -5.4807692766189575e-01</leafValues></_>
    <_>
      <internalNodes>
        0 -1 109775 -2.0265132188796997e-02</internalNodes>
      <leafValues>
        -7.3717392981052399e-02 6.2614017724990845e-01</leafValues></_>
    <_>
      <internalNodes>
        0 -1 128136 -2.2389208897948265e-03</internalNodes>
      <leafValues>
        2.2619986534118652e-01 -2.2723393142223358e-01</leafValues></_>
    <_>
      <internalNodes>
        0 -1 8046 -4.7664575278759003e-02</internalNodes>
      <leafValues>
        5.1062855869531631e-02 -9.2223197221755981e-01</leafValues></_>
    <_>
      <internalNodes>
        0 -1 32766 -4.7081179916858673e-02</internalNodes>
      <leafValues>
        6.0978704690933228e-01 -8.7174370884895325e-02</leafValues></_>
    <_>
      <internalNodes>
        0 -1 145989 -6.0858882963657379e-02</internalNodes>
      <leafValues>
        8.3523470163345337e-01 -3.9552874863147736e-02</leafValues></_>
    <_>
      <internalNodes>
        0 -1 11788 -1.0543247684836388e-02</internalNodes>
      <leafValues>
        -3.6318457126617432e-01 1.2732313573360443e-01</leafValues></_>
    <_>
      <internalNodes>
        0 -1 77054 -3.5820454359054565e-01</internalNodes>
      <leafValues>
        -6.7699629068374634e-01 5.0629999488592148e-02</leafValues></_>
    <_>
      <internalNodes>
        0 -1 106882 -4.0719527751207352e-03</internalNodes>
      <leafValues>
        3.8995448499917984e-02 -7.8480434417724609e-01</leafValues></_>
    <_>
      <internalNodes>
        0 -1 120374 -1.2219853699207306e-02</internalNodes>
      <leafValues>
        6.8909561634063721e-01 -6.2806271016597748e-02</leafValues></_>
    <_>
      <internalNodes>
        0 -1 75162 -1.1969782412052155e-02</internalNodes>
      <leafValues>
        -8.3222135901451111e-02 4.7257196903228760e-01</leafValues></_>
    <_>
      <internalNodes>
        0 -1 76881 8.3344606682658195e-03</internalNodes>
      <leafValues>
        -1.0946390777826309e-01 4.2768064141273499e-01</leafValues></_>
    <_>
      <internalNodes>
        0 -1 638 4.0377147495746613e-02</internalNodes>
      <leafValues>
        1.1688321828842163e-01 -3.6375811696052551e-01</leafValues></_>
    <_>
      <internalNodes>
        0 -1 26811 -8.8867619633674622e-03</internalNodes>
      <leafValues>
        -7.6563757658004761e-01 4.6008564531803131e-02</leafValues></_>
    <_>
      <internalNodes>
        0 -1 25593 -1.0805118829011917e-02</internalNodes>
      <leafValues>
        -8.0477952957153320e-01 3.4689363092184067e-02</leafValues></_>
    <_>
      <internalNodes>
        0 -1 138276 -2.6395169552415609e-03</internalNodes>
      <leafValues>
        4.2756989598274231e-01 -9.4309821724891663e-02</leafValues></_>
    <_>
      <internalNodes>
        0 -1 95904 3.2146140933036804e-02</internalNodes>
      <leafValues>
        -1.3333161175251007e-01 3.0281192064285278e-01</leafValues></_>
    <_>
      <internalNodes>
        0 -1 129466 1.0142933577299118e-02</internalNodes>
      <leafValues>
        -1.1235763132572174e-01 3.8957762718200684e-01</leafValues></_>
    <_>
      <internalNodes>
        0 -1 160419 -6.9888522848486900e-03</internalNodes>
      <leafValues>
        -5.4380553960800171e-01 7.9105608165264130e-02</leafValues></_>
    <_>
      <internalNodes>
        0 -1 39475 -3.1211686134338379e-01</internalNodes>
      <leafValues>
        3.5542932152748108e-01 -1.0679734498262405e-01</leafValues></_>
    <_>
      <internalNodes>
        0 -1 26890 -3.2090939581394196e-02</internalNodes>
      <leafValues>
        -5.9362035989761353e-01 6.9333806633949280e-02</leafValues></_>
    <_>
      <internalNodes>
        0 -1 27114 4.9221436493098736e-03</internalNodes>
      <leafValues>
        9.4795010983943939e-02 -3.5885500907897949e-01</leafValues></_>
    <_>
      <internalNodes>
        0 -1 124765 3.6634251475334167e-02</internalNodes>
      <leafValues>
        -8.3088137209415436e-02 4.5795801281929016e-01</leafValues></_>
    <_>
      <internalNodes>
        0 -1 126116 -9.4040110707283020e-03</internalNodes>
      <leafValues>
        -6.8107992410659790e-02 5.6801998615264893e-01</leafValues></_>
    <_>
      <internalNodes>
        0 -1 137575 -1.5857759863138199e-02</internalNodes>
      <leafValues>
        4.9994748085737228e-02 -8.8540071249008179e-01</leafValues></_>
    <_>
      <internalNodes>
        0 -1 141893 -5.3641246631741524e-04</internalNodes>
      <leafValues>
        2.0766413211822510e-01 -1.7595300078392029e-01</leafValues></_>
    <_>
      <internalNodes>
        0 -1 137165 -5.1870189607143402e-02</internalNodes>
      <leafValues>
        7.8915494680404663e-01 -5.1296383142471313e-02</leafValues></_>
    <_>
      <internalNodes>
        0 -1 132605 1.3891730923205614e-03</internalNodes>
      <leafValues>
        -2.4230298399925232e-01 1.6765764355659485e-01</leafValues></_>
    <_>
      <internalNodes>
        0 -1 132121 -7.8386925160884857e-03</internalNodes>
      <leafValues>
        4.7821262478828430e-01 -8.6915656924247742e-02</leafValues></_></weakClassifiers></stage7>
</opencv_storage>
