<?xml version="1.0"?>
<opencv_storage>
<stage9>
  <maxWeakCount>61</maxWeakCount>
  <stageThreshold>-1.5664097070693970e+00</stageThreshold>
  <weakClassifiers>
    <_>
      <internalNodes>
        0 -1 147600 -7.7519314363598824e-03</internalNodes>
      <leafValues>
        -7.4628174304962158e-01 7.0370370149612427e-01</leafValues></_>
    <_>
      <internalNodes>
        0 -1 55694 -9.4655707478523254e-02</internalNodes>
      <leafValues>
        -2.6637864112854004e-01 3.7068954110145569e-01</leafValues></_>
    <_>
      <internalNodes>
        0 -1 148405 2.1081557497382164e-02</internalNodes>
      <leafValues>
        3.4861881285905838e-02 -7.9614776372909546e-01</leafValues></_>
    <_>
      <internalNodes>
        0 -1 144888 1.3983828946948051e-02</internalNodes>
      <leafValues>
        -1.1557815223932266e-01 3.6767387390136719e-01</leafValues></_>
    <_>
      <internalNodes>
        0 -1 114840 1.6566634178161621e-01</internalNodes>
      <leafValues>
        5.2746888250112534e-02 -6.4291721582412720e-01</leafValues></_>
    <_>
      <internalNodes>
        0 -1 90388 1.4838653802871704e-01</internalNodes>
      <leafValues>
        -8.6175493896007538e-02 3.6816990375518799e-01</leafValues></_>
    <_>
      <internalNodes>
        0 -1 98783 2.6782562956213951e-02</internalNodes>
      <leafValues>
        -1.4686173200607300e-01 3.0403861403465271e-01</leafValues></_>
    <_>
      <internalNodes>
        0 -1 28382 1.6271722316741943e-01</internalNodes>
      <leafValues>
        5.8547075837850571e-02 -6.2293118238449097e-01</leafValues></_>
    <_>
      <internalNodes>
        0 -1 150253 -2.1427171304821968e-03</internalNodes>
      <leafValues>
        -2.0846039056777954e-01 1.8785434961318970e-01</leafValues></_>
    <_>
      <internalNodes>
        0 -1 162008 6.4209825359284878e-04</internalNodes>
      <leafValues>
        1.4883515238761902e-01 -2.4873776733875275e-01</leafValues></_>
    <_>
      <internalNodes>
        0 -1 48665 1.4486948028206825e-02</internalNodes>
      <leafValues>
        1.1497709155082703e-01 -3.6162173748016357e-01</leafValues></_>
    <_>
      <internalNodes>
        0 -1 106864 -2.0668344572186470e-02</internalNodes>
      <leafValues>
        5.6657308340072632e-01 -6.5210089087486267e-02</leafValues></_>
    <_>
      <internalNodes>
        0 -1 99326 -4.6185911633074284e-03</internalNodes>
      <leafValues>
        1.3881547749042511e-01 -2.8072848916053772e-01</leafValues></_>
    <_>
      <internalNodes>
        0 -1 36677 -5.3404785692691803e-02</internalNodes>
      <leafValues>
        -1.4051088690757751e-01 3.0472853779792786e-01</leafValues></_>
    <_>
      <internalNodes>
        0 -1 88818 -2.8054785798303783e-04</internalNodes>
      <leafValues>
        -3.1582790613174438e-01 1.3059338927268982e-01</leafValues></_>
    <_>
      <internalNodes>
        0 -1 118746 -8.5038214921951294e-02</internalNodes>
      <leafValues>
        2.6669305562973022e-01 -1.4759150147438049e-01</leafValues></_>
    <_>
      <internalNodes>
        0 -1 132922 2.0986784249544144e-02</internalNodes>
      <leafValues>
        -7.0831857621669769e-02 5.3670156002044678e-01</leafValues></_>
    <_>
      <internalNodes>
        0 -1 93375 -3.3923238515853882e-02</internalNodes>
      <leafValues>
        -4.7663040459156036e-02 6.7231041193008423e-01</leafValues></_>
    <_>
      <internalNodes>
        0 -1 51248 1.1085241101682186e-02</internalNodes>
      <leafValues>
        -3.5089150071144104e-02 8.2757049798965454e-01</leafValues></_>
    <_>
      <internalNodes>
        0 -1 100583 3.0615669675171375e-03</internalNodes>
      <leafValues>
        -9.8541520535945892e-02 3.5564941167831421e-01</leafValues></_>
    <_>
      <internalNodes>
        0 -1 18948 1.4513673959299922e-03</internalNodes>
      <leafValues>
        -2.1977412700653076e-01 1.7227526009082794e-01</leafValues></_>
    <_>
      <internalNodes>
        0 -1 145913 -1.1805764399468899e-02</internalNodes>
      <leafValues>
        8.3171713352203369e-01 -4.4549141079187393e-02</leafValues></_>
    <_>
      <internalNodes>
        0 -1 84575 -3.4267272800207138e-02</internalNodes>
      <leafValues>
        7.5763389468193054e-02 -5.2769464254379272e-01</leafValues></_>
    <_>
      <internalNodes>
        0 -1 75054 -3.1800490617752075e-01</internalNodes>
      <leafValues>
        -1.3903263211250305e-01 3.4987765550613403e-01</leafValues></_>
    <_>
      <internalNodes>
        0 -1 89942 -1.2670885026454926e-01</internalNodes>
      <leafValues>
        5.6165933609008789e-01 -7.5482420623302460e-02</leafValues></_>
    <_>
      <internalNodes>
        0 -1 6716 -4.9431989900767803e-03</internalNodes>
      <leafValues>
        -9.0974825620651245e-01 4.6783883124589920e-02</leafValues></_>
    <_>
      <internalNodes>
        0 -1 27063 -5.9319268912076950e-03</internalNodes>
      <leafValues>
        2.2448807954788208e-01 -1.6529704630374908e-01</leafValues></_>
    <_>
      <internalNodes>
        0 -1 77312 5.1383972167968750e-02</internalNodes>
      <leafValues>
        4.2551890015602112e-02 -8.8442331552505493e-01</leafValues></_>
    <_>
      <internalNodes>
        0 -1 57288 2.8266785666346550e-03</internalNodes>
      <leafValues>
        -1.1466812342405319e-01 3.3516561985015869e-01</leafValues></_>
    <_>
      <internalNodes>
        0 -1 57288 -3.7918933667242527e-03</internalNodes>
      <leafValues>
        3.4618920087814331e-01 -1.2785609066486359e-01</leafValues></_>
    <_>
      <internalNodes>
        0 -1 56587 -3.8606226444244385e-01</internalNodes>
      <leafValues>
        -5.6104606389999390e-01 7.2942025959491730e-02</leafValues></_>
    <_>
      <internalNodes>
        0 -1 22468 -4.2044252157211304e-02</internalNodes>
      <leafValues>
        9.0477085113525391e-01 -4.7979634255170822e-02</leafValues></_>
    <_>
      <internalNodes>
        0 -1 55155 -7.8271180391311646e-02</internalNodes>
      <leafValues>
        5.9134095907211304e-01 -4.9277320504188538e-02</leafValues></_>
    <_>
      <internalNodes>
        0 -1 158991 -6.8047600798308849e-03</internalNodes>
      <leafValues>
        -6.8275654315948486e-01 5.7726401835680008e-02</leafValues></_>
    <_>
      <internalNodes>
        0 -1 78696 -1.0747215710580349e-02</internalNodes>
      <leafValues>
        2.3769253492355347e-01 -1.5067778527736664e-01</leafValues></_>
    <_>
      <internalNodes>
        0 -1 162205 -4.6586636453866959e-03</internalNodes>
      <leafValues>
        1.4311757683753967e-01 -2.3530599474906921e-01</leafValues></_>
    <_>
      <internalNodes>
        0 -1 78951 -7.3931321501731873e-02</internalNodes>
      <leafValues>
        -4.0766996145248413e-01 9.0319208800792694e-02</leafValues></_>
    <_>
      <internalNodes>
        0 -1 97321 -6.4873993396759033e-02</internalNodes>
      <leafValues>
        8.9428395032882690e-01 -5.0542674958705902e-02</leafValues></_>
    <_>
      <internalNodes>
        0 -1 105462 -9.8868012428283691e-03</internalNodes>
      <leafValues>
        3.2363107800483704e-01 -1.0302527993917465e-01</leafValues></_>
    <_>
      <internalNodes>
        0 -1 94305 -1.1215745657682419e-01</internalNodes>
      <leafValues>
        4.3508809804916382e-01 -9.9527075886726379e-02</leafValues></_>
    <_>
      <internalNodes>
        0 -1 101779 -4.1459165513515472e-02</internalNodes>
      <leafValues>
        -9.3518756330013275e-02 4.4178184866905212e-01</leafValues></_>
    <_>
      <internalNodes>
        0 -1 152193 -5.8880418539047241e-02</internalNodes>
      <leafValues>
        4.8599377274513245e-01 -6.9905892014503479e-02</leafValues></_>
    <_>
      <internalNodes>
        0 -1 22279 -5.2132412791252136e-02</internalNodes>
      <leafValues>
        -1.6304633021354675e-01 2.3834076523780823e-01</leafValues></_>
    <_>
      <internalNodes>
        0 -1 43817 -2.1513942629098892e-02</internalNodes>
      <leafValues>
        7.5363081693649292e-01 -5.0344578921794891e-02</leafValues></_>
    <_>
      <internalNodes>
        0 -1 147455 2.9921294189989567e-03</internalNodes>
      <leafValues>
        -1.8282489478588104e-01 2.0424857735633850e-01</leafValues></_>
    <_>
      <internalNodes>
        0 -1 22780 2.2864476777613163e-03</internalNodes>
      <leafValues>
        1.3571828603744507e-01 -3.0554634332656860e-01</leafValues></_>
    <_>
      <internalNodes>
        0 -1 153446 2.9901646077632904e-02</internalNodes>
      <leafValues>
        4.5793250203132629e-02 -6.7890661954879761e-01</leafValues></_>
    <_>
      <internalNodes>
        0 -1 11971 -1.0124315507709980e-02</internalNodes>
      <leafValues>
        3.2852652668952942e-01 -1.1497613042593002e-01</leafValues></_>
    <_>
      <internalNodes>
        0 -1 141707 4.1150081902742386e-02</internalNodes>
      <leafValues>
        -5.3609687834978104e-02 7.4020206928253174e-01</leafValues></_>
    <_>
      <internalNodes>
        0 -1 137087 -7.2999339317902923e-04</internalNodes>
      <leafValues>
        2.4841873347759247e-01 -1.4138199388980865e-01</leafValues></_>
    <_>
      <internalNodes>
        0 -1 162166 -7.7114584855735302e-03</internalNodes>
      <leafValues>
        -4.1979092359542847e-01 9.3006327748298645e-02</leafValues></_>
    <_>
      <internalNodes>
        0 -1 85279 -3.3852332271635532e-03</internalNodes>
      <leafValues>
        3.2653096318244934e-01 -1.0615716874599457e-01</leafValues></_>
    <_>
      <internalNodes>
        0 -1 86181 -1.2369421124458313e-01</internalNodes>
      <leafValues>
        -3.9006143808364868e-01 8.9714474976062775e-02</leafValues></_>
    <_>
      <internalNodes>
        0 -1 111073 -3.6006040871143341e-02</internalNodes>
      <leafValues>
        8.5856384038925171e-01 -5.0015389919281006e-02</leafValues></_>
    <_>
      <internalNodes>
        0 -1 119604 2.0942119881510735e-03</internalNodes>
      <leafValues>
        -1.2420310825109482e-01 2.8550234436988831e-01</leafValues></_>
    <_>
      <internalNodes>
        0 -1 162334 -4.0010204538702965e-03</internalNodes>
      <leafValues>
        1.0813797265291214e-01 -3.2732576131820679e-01</leafValues></_>
    <_>
      <internalNodes>
        0 -1 124777 -7.3347151279449463e-02</internalNodes>
      <leafValues>
        -8.0121517181396484e-02 4.9702110886573792e-01</leafValues></_>
    <_>
      <internalNodes>
        0 -1 76184 -6.6177070140838623e-02</internalNodes>
      <leafValues>
        5.1326606422662735e-02 -7.9533231258392334e-01</leafValues></_>
    <_>
      <internalNodes>
        0 -1 145764 1.5927579253911972e-02</internalNodes>
      <leafValues>
        -1.0213936865329742e-01 3.7167584896087646e-01</leafValues></_>
    <_>
      <internalNodes>
        0 -1 98432 -5.4300576448440552e-02</internalNodes>
      <leafValues>
        -1.7429122328758240e-01 2.0859144628047943e-01</leafValues></_>
    <_>
      <internalNodes>
        0 -1 160131 6.8729426711797714e-03</internalNodes>
      <leafValues>
        -1.2387225031852722e-01 3.6373844742774963e-01</leafValues></_></weakClassifiers></stage9>
</opencv_storage>
