<?xml version="1.0"?>
<opencv_storage>
<stage3>
  <maxWeakCount>38</maxWeakCount>
  <stageThreshold>-1.7998442649841309e+00</stageThreshold>
  <weakClassifiers>
    <_>
      <internalNodes>
        0 -1 77439 -7.3156714439392090e-02</internalNodes>
      <leafValues>
        6.4356434345245361e-01 -7.5999999046325684e-01</leafValues></_>
    <_>
      <internalNodes>
        0 -1 7357 -7.6224014163017273e-02</internalNodes>
      <leafValues>
        -9.5141023397445679e-02 -8.6516368389129639e-01</leafValues></_>
    <_>
      <internalNodes>
        0 -1 22484 -8.5346043109893799e-02</internalNodes>
      <leafValues>
        5.2543741464614868e-01 -1.7602160573005676e-01</leafValues></_>
    <_>
      <internalNodes>
        0 -1 126563 2.4696663022041321e-02</internalNodes>
      <leafValues>
        -3.5321205854415894e-01 2.0274043083190918e-01</leafValues></_>
    <_>
      <internalNodes>
        0 -1 55249 -4.9270811676979065e-01</internalNodes>
      <leafValues>
        -6.8037140369415283e-01 1.2832447886466980e-01</leafValues></_>
    <_>
      <internalNodes>
        0 -1 14218 -3.9821937680244446e-02</internalNodes>
      <leafValues>
        -7.8181552886962891e-01 7.5429335236549377e-02</leafValues></_>
    <_>
      <internalNodes>
        0 -1 85368 -2.1617077291011810e-02</internalNodes>
      <leafValues>
        4.1975417733192444e-01 -1.7440128326416016e-01</leafValues></_>
    <_>
      <internalNodes>
        0 -1 116132 -2.3874752223491669e-02</internalNodes>
      <leafValues>
        5.5905634164810181e-01 -9.8291851580142975e-02</leafValues></_>
    <_>
      <internalNodes>
        0 -1 65672 -1.9098028540611267e-02</internalNodes>
      <leafValues>
        -1.1080366373062134e-01 5.6154835224151611e-01</leafValues></_>
    <_>
      <internalNodes>
        0 -1 123851 -5.2780583500862122e-03</internalNodes>
      <leafValues>
        5.1034867763519287e-01 -1.2144243717193604e-01</leafValues></_>
    <_>
      <internalNodes>
        0 -1 118650 9.7584165632724762e-03</internalNodes>
      <leafValues>
        -9.8796226084232330e-02 5.7121229171752930e-01</leafValues></_>
    <_>
      <internalNodes>
        0 -1 146517 -2.3113245144486427e-02</internalNodes>
      <leafValues>
        6.2190353870391846e-01 -1.0077986866235733e-01</leafValues></_>
    <_>
      <internalNodes>
        0 -1 11860 -5.2161078900098801e-02</internalNodes>
      <leafValues>
        8.3669804036617279e-02 -9.6770036220550537e-01</leafValues></_>
    <_>
      <internalNodes>
        0 -1 123886 1.4500602148473263e-02</internalNodes>
      <leafValues>
        -1.5977516770362854e-01 5.1252818107604980e-01</leafValues></_>
    <_>
      <internalNodes>
        0 -1 79835 -1.8151158466935158e-02</internalNodes>
      <leafValues>
        -5.9232854843139648e-01 1.2227472662925720e-01</leafValues></_>
    <_>
      <internalNodes>
        0 -1 6037 -1.3525523245334625e-02</internalNodes>
      <leafValues>
        2.4358321726322174e-01 -2.5255197286605835e-01</leafValues></_>
    <_>
      <internalNodes>
        0 -1 2176 -1.8074227496981621e-02</internalNodes>
      <leafValues>
        -6.7339938879013062e-01 9.4073846936225891e-02</leafValues></_>
    <_>
      <internalNodes>
        0 -1 128506 -5.4902296513319016e-02</internalNodes>
      <leafValues>
        2.1922504901885986e-01 -2.8746262192726135e-01</leafValues></_>
    <_>
      <internalNodes>
        0 -1 131282 3.1321272253990173e-02</internalNodes>
      <leafValues>
        -9.1890469193458557e-02 7.4798446893692017e-01</leafValues></_>
    <_>
      <internalNodes>
        0 -1 85402 -2.4856910109519958e-02</internalNodes>
      <leafValues>
        -7.0054642856121063e-02 7.5711345672607422e-01</leafValues></_>
    <_>
      <internalNodes>
        0 -1 26424 2.4945894256234169e-02</internalNodes>
      <leafValues>
        9.7971335053443909e-02 -6.6847807168960571e-01</leafValues></_>
    <_>
      <internalNodes>
        0 -1 20198 -1.2559223175048828e-01</internalNodes>
      <leafValues>
        7.2250962257385254e-02 -7.3475193977355957e-01</leafValues></_>
    <_>
      <internalNodes>
        0 -1 111135 -2.6274733245372772e-02</internalNodes>
      <leafValues>
        -1.2261329591274261e-01 5.7167690992355347e-01</leafValues></_>
    <_>
      <internalNodes>
        0 -1 161638 2.2527717053890228e-02</internalNodes>
      <leafValues>
        8.2118794322013855e-02 -8.1146401166915894e-01</leafValues></_>
    <_>
      <internalNodes>
        0 -1 43609 -1.0417759418487549e-01</internalNodes>
      <leafValues>
        -7.7143406867980957e-01 5.6393273174762726e-02</leafValues></_>
    <_>
      <internalNodes>
        0 -1 126740 8.0283507704734802e-03</internalNodes>
      <leafValues>
        -2.0564638078212738e-01 2.8744533658027649e-01</leafValues></_>
    <_>
      <internalNodes>
        0 -1 130255 -1.3458114117383957e-02</internalNodes>
      <leafValues>
        4.0689498186111450e-01 -1.3734914362430573e-01</leafValues></_>
    <_>
      <internalNodes>
        0 -1 124798 3.1371187418699265e-02</internalNodes>
      <leafValues>
        -6.7322924733161926e-02 8.2241183519363403e-01</leafValues></_>
    <_>
      <internalNodes>
        0 -1 31302 4.4603604823350906e-02</internalNodes>
      <leafValues>
        -6.5420813858509064e-02 7.0957511663436890e-01</leafValues></_>
    <_>
      <internalNodes>
        0 -1 60377 -2.6901457458734512e-03</internalNodes>
      <leafValues>
        -6.1222648620605469e-01 1.0455564409494400e-01</leafValues></_>
    <_>
      <internalNodes>
        0 -1 110485 -4.6955745667219162e-02</internalNodes>
      <leafValues>
        6.4169622957706451e-02 -7.4341887235641479e-01</leafValues></_>
    <_>
      <internalNodes>
        0 -1 123484 -2.6848148554563522e-02</internalNodes>
      <leafValues>
        5.0879853963851929e-01 -1.1201247572898865e-01</leafValues></_>
    <_>
      <internalNodes>
        0 -1 558 1.0133481025695801e-01</internalNodes>
      <leafValues>
        9.1233670711517334e-02 -7.0071065425872803e-01</leafValues></_>
    <_>
      <internalNodes>
        0 -1 67306 2.0673472434282303e-02</internalNodes>
      <leafValues>
        -1.0765679925680161e-01 5.8637225627899170e-01</leafValues></_>
    <_>
      <internalNodes>
        0 -1 65048 -2.7664495632052422e-02</internalNodes>
      <leafValues>
        7.1619004011154175e-01 -6.6136591136455536e-02</leafValues></_>
    <_>
      <internalNodes>
        0 -1 99802 2.5752082467079163e-01</internalNodes>
      <leafValues>
        6.4200617372989655e-02 -9.9349534511566162e-01</leafValues></_>
    <_>
      <internalNodes>
        0 -1 134738 3.5743929445743561e-02</internalNodes>
      <leafValues>
        -1.0782547295093536e-01 5.6318008899688721e-01</leafValues></_>
    <_>
      <internalNodes>
        0 -1 81892 2.6530697941780090e-03</internalNodes>
      <leafValues>
        1.6004227101802826e-01 -3.4916606545448303e-01</leafValues></_></weakClassifiers></stage3>
</opencv_storage>
