<?xml version="1.0"?>
<opencv_storage>
<stage9>
  <maxWeakCount>51</maxWeakCount>
  <stageThreshold>-1.5911581516265869e+00</stageThreshold>
  <weakClassifiers>
    <_>
      <internalNodes>
        0 -1 95209 -3.2232940196990967e-02</internalNodes>
      <leafValues>
        5.1162791252136230e-01 -6.8305087089538574e-01</leafValues></_>
    <_>
      <internalNodes>
        0 -1 133011 -2.2010443732142448e-02</internalNodes>
      <leafValues>
        6.2349706888198853e-01 -2.1165017783641815e-01</leafValues></_>
    <_>
      <internalNodes>
        0 -1 12221 -5.6401286274194717e-02</internalNodes>
      <leafValues>
        4.6558924019336700e-02 -9.5554345846176147e-01</leafValues></_>
    <_>
      <internalNodes>
        0 -1 96991 -3.3100940287113190e-02</internalNodes>
      <leafValues>
        -7.3036924004554749e-02 5.3275549411773682e-01</leafValues></_>
    <_>
      <internalNodes>
        0 -1 103254 8.8818863034248352e-02</internalNodes>
      <leafValues>
        -4.3722890317440033e-02 7.4465912580490112e-01</leafValues></_>
    <_>
      <internalNodes>
        0 -1 115494 4.0797531604766846e-02</internalNodes>
      <leafValues>
        9.2954158782958984e-02 -4.9608731269836426e-01</leafValues></_>
    <_>
      <internalNodes>
        0 -1 146352 -1.8013443332165480e-03</internalNodes>
      <leafValues>
        -2.3133407533168793e-01 1.5919031202793121e-01</leafValues></_>
    <_>
      <internalNodes>
        0 -1 21172 -9.4387277960777283e-02</internalNodes>
      <leafValues>
        -6.3397377729415894e-01 7.2387456893920898e-02</leafValues></_>
    <_>
      <internalNodes>
        0 -1 26958 7.4275624938309193e-03</internalNodes>
      <leafValues>
        5.7471580803394318e-02 -7.7141982316970825e-01</leafValues></_>
    <_>
      <internalNodes>
        0 -1 99404 7.8128986060619354e-03</internalNodes>
      <leafValues>
        4.7640226781368256e-02 -7.1406036615371704e-01</leafValues></_>
    <_>
      <internalNodes>
        0 -1 11195 1.9160177558660507e-02</internalNodes>
      <leafValues>
        6.0217373073101044e-02 -5.9655386209487915e-01</leafValues></_>
    <_>
      <internalNodes>
        0 -1 84791 -2.3880070075392723e-02</internalNodes>
      <leafValues>
        -8.6620062589645386e-02 4.2153614759445190e-01</leafValues></_>
    <_>
      <internalNodes>
        0 -1 110673 -3.5782013088464737e-02</internalNodes>
      <leafValues>
        -9.4371177256107330e-02 3.9132592082023621e-01</leafValues></_>
    <_>
      <internalNodes>
        0 -1 109292 -2.0265612006187439e-01</internalNodes>
      <leafValues>
        6.0818165540695190e-01 -6.1495508998632431e-02</leafValues></_>
    <_>
      <internalNodes>
        0 -1 124302 8.4816608577966690e-03</internalNodes>
      <leafValues>
        -1.2088857591152191e-01 3.0247613787651062e-01</leafValues></_>
    <_>
      <internalNodes>
        0 -1 7534 -1.0674603283405304e-02</internalNodes>
      <leafValues>
        2.1538297832012177e-01 -1.8999032676219940e-01</leafValues></_>
    <_>
      <internalNodes>
        0 -1 127485 -1.1146095581352711e-02</internalNodes>
      <leafValues>
        -4.0129518508911133e-01 9.1074466705322266e-02</leafValues></_>
    <_>
      <internalNodes>
        0 -1 126062 -1.3214701320976019e-03</internalNodes>
      <leafValues>
        3.2218068838119507e-01 -1.3065651059150696e-01</leafValues></_>
    <_>
      <internalNodes>
        0 -1 154147 4.1841994971036911e-03</internalNodes>
      <leafValues>
        -1.6334894299507141e-01 2.0520760118961334e-01</leafValues></_>
    <_>
      <internalNodes>
        0 -1 162134 6.6279573366045952e-03</internalNodes>
      <leafValues>
        9.1125652194023132e-02 -4.0877339243888855e-01</leafValues></_>
    <_>
      <internalNodes>
        0 -1 5052 6.5809222869575024e-03</internalNodes>
      <leafValues>
        5.9007249772548676e-02 -5.8082497119903564e-01</leafValues></_>
    <_>
      <internalNodes>
        0 -1 18275 -5.8225460350513458e-02</internalNodes>
      <leafValues>
        8.0384278297424316e-01 -5.2061058580875397e-02</leafValues></_>
    <_>
      <internalNodes>
        0 -1 115416 5.7526029646396637e-02</internalNodes>
      <leafValues>
        -5.3162831813097000e-02 5.6892514228820801e-01</leafValues></_>
    <_>
      <internalNodes>
        0 -1 43772 -1.9310608506202698e-02</internalNodes>
      <leafValues>
        6.4672350883483887e-01 -5.5109497159719467e-02</leafValues></_>
    <_>
      <internalNodes>
        0 -1 127847 -2.1883044391870499e-03</internalNodes>
      <leafValues>
        6.2669254839420319e-02 -6.7236667871475220e-01</leafValues></_>
    <_>
      <internalNodes>
        0 -1 141168 -7.0860087871551514e-02</internalNodes>
      <leafValues>
        8.0181586742401123e-01 -5.3304251283407211e-02</leafValues></_>
    <_>
      <internalNodes>
        0 -1 77412 -2.8985559940338135e-02</internalNodes>
      <leafValues>
        3.9956754446029663e-01 -8.5959516465663910e-02</leafValues></_>
    <_>
      <internalNodes>
        0 -1 29904 -1.4564584195613861e-01</internalNodes>
      <leafValues>
        -7.6424604654312134e-01 5.2047096192836761e-02</leafValues></_>
    <_>
      <internalNodes>
        0 -1 114603 -9.7650829702615738e-03</internalNodes>
      <leafValues>
        1.3030923902988434e-01 -2.8224796056747437e-01</leafValues></_>
    <_>
      <internalNodes>
        0 -1 95728 5.7323593646287918e-03</internalNodes>
      <leafValues>
        -1.5189442038536072e-01 2.3766627907752991e-01</leafValues></_>
    <_>
      <internalNodes>
        0 -1 47243 8.7783031165599823e-02</internalNodes>
      <leafValues>
        -6.4854748547077179e-02 5.9938448667526245e-01</leafValues></_>
    <_>
      <internalNodes>
        0 -1 114264 3.5483448300510645e-03</internalNodes>
      <leafValues>
        -2.8008294105529785e-01 1.3807533681392670e-01</leafValues></_>
    <_>
      <internalNodes>
        0 -1 115290 -5.8589868247509003e-02</internalNodes>
      <leafValues>
        -2.5551158189773560e-01 1.3702420890331268e-01</leafValues></_>
    <_>
      <internalNodes>
        0 -1 91327 -8.0538958311080933e-02</internalNodes>
      <leafValues>
        3.2178524136543274e-01 -1.1957167088985443e-01</leafValues></_>
    <_>
      <internalNodes>
        0 -1 101705 7.5343507342040539e-03</internalNodes>
      <leafValues>
        -7.7806763350963593e-02 5.0626903772354126e-01</leafValues></_>
    <_>
      <internalNodes>
        0 -1 117153 -6.0397878289222717e-02</internalNodes>
      <leafValues>
        -8.2096531987190247e-02 4.2215436697006226e-01</leafValues></_>
    <_>
      <internalNodes>
        0 -1 66139 -2.0936303772032261e-03</internalNodes>
      <leafValues>
        2.5973519682884216e-01 -1.3034854829311371e-01</leafValues></_>
    <_>
      <internalNodes>
        0 -1 66134 3.4955968149006367e-03</internalNodes>
      <leafValues>
        -1.0237855464220047e-01 4.0566638112068176e-01</leafValues></_>
    <_>
      <internalNodes>
        0 -1 97689 -3.2716151326894760e-02</internalNodes>
      <leafValues>
        6.8341302871704102e-01 -4.7906063497066498e-02</leafValues></_>
    <_>
      <internalNodes>
        0 -1 150542 -1.2711156159639359e-02</internalNodes>
      <leafValues>
        4.3803390860557556e-01 -7.1643188595771790e-02</leafValues></_>
    <_>
      <internalNodes>
        0 -1 114415 -4.2938548140227795e-03</internalNodes>
      <leafValues>
        1.1239029467105865e-01 -3.1073305010795593e-01</leafValues></_>
    <_>
      <internalNodes>
        0 -1 73702 -3.3045250177383423e-01</internalNodes>
      <leafValues>
        -1.1344890296459198e-01 3.3039543032646179e-01</leafValues></_>
    <_>
      <internalNodes>
        0 -1 11552 -3.3920202404260635e-03</internalNodes>
      <leafValues>
        1.7362856864929199e-01 -2.1046462655067444e-01</leafValues></_>
    <_>
      <internalNodes>
        0 -1 38151 9.9073406308889389e-03</internalNodes>
      <leafValues>
        6.2799856066703796e-02 -5.2038967609405518e-01</leafValues></_>
    <_>
      <internalNodes>
        0 -1 56891 5.7361610233783722e-03</internalNodes>
      <leafValues>
        -1.7081995308399200e-01 1.9644813239574432e-01</leafValues></_>
    <_>
      <internalNodes>
        0 -1 9193 6.4021036028862000e-02</internalNodes>
      <leafValues>
        5.7747673243284225e-02 -6.6486233472824097e-01</leafValues></_>
    <_>
      <internalNodes>
        0 -1 43987 -2.6726681739091873e-02</internalNodes>
      <leafValues>
        3.0708089470863342e-01 -1.2708239257335663e-01</leafValues></_>
    <_>
      <internalNodes>
        0 -1 5315 3.1697101891040802e-02</internalNodes>
      <leafValues>
        6.3505612313747406e-02 -6.3629508018493652e-01</leafValues></_>
    <_>
      <internalNodes>
        0 -1 114652 -8.6898021399974823e-03</internalNodes>
      <leafValues>
        -6.8057596683502197e-01 4.6284034848213196e-02</leafValues></_>
    <_>
      <internalNodes>
        0 -1 82905 5.3570014424622059e-03</internalNodes>
      <leafValues>
        -1.0656473785638809e-01 3.1320461630821228e-01</leafValues></_>
    <_>
      <internalNodes>
        0 -1 86274 -1.6443410422652960e-03</internalNodes>
      <leafValues>
        3.1265228986740112e-01 -1.0963468998670578e-01</leafValues></_></weakClassifiers></stage9>
</opencv_storage>
