<?xml version="1.0"?>
<opencv_storage>
<stage10>
  <maxWeakCount>50</maxWeakCount>
  <stageThreshold>-1.5318000316619873e+00</stageThreshold>
  <weakClassifiers>
    <_>
      <internalNodes>
        0 -1 143530 -1.5239195898175240e-02</internalNodes>
      <leafValues>
        3.0508473515510559e-01 -6.8700116872787476e-01</leafValues></_>
    <_>
      <internalNodes>
        0 -1 109103 -1.6328752040863037e-02</internalNodes>
      <leafValues>
        -8.2111269235610962e-01 -4.8413857817649841e-02</leafValues></_>
    <_>
      <internalNodes>
        0 -1 20385 1.6552837565541267e-02</internalNodes>
      <leafValues>
        -1.4784595370292664e-01 3.9217731356620789e-01</leafValues></_>
    <_>
      <internalNodes>
        0 -1 48665 1.8638040870428085e-02</internalNodes>
      <leafValues>
        1.2747983634471893e-01 -4.6841621398925781e-01</leafValues></_>
    <_>
      <internalNodes>
        0 -1 87625 6.9593815132975578e-03</internalNodes>
      <leafValues>
        -1.3622610270977020e-01 2.6531621813774109e-01</leafValues></_>
    <_>
      <internalNodes>
        0 -1 161674 -8.5857119411230087e-03</internalNodes>
      <leafValues>
        -6.6772037744522095e-01 4.3536275625228882e-02</leafValues></_>
    <_>
      <internalNodes>
        0 -1 144388 1.3531812001019716e-03</internalNodes>
      <leafValues>
        6.8495057523250580e-02 -4.9927431344985962e-01</leafValues></_>
    <_>
      <internalNodes>
        0 -1 162043 -2.2497661411762238e-03</internalNodes>
      <leafValues>
        -8.1466960906982422e-01 4.2185846716165543e-02</leafValues></_>
    <_>
      <internalNodes>
        0 -1 8061 -1.3148376345634460e-01</internalNodes>
      <leafValues>
        4.9397934228181839e-02 -4.9743810296058655e-01</leafValues></_>
    <_>
      <internalNodes>
        0 -1 108719 -4.8699644394218922e-03</internalNodes>
      <leafValues>
        -4.5056405663490295e-01 9.1473460197448730e-02</leafValues></_>
    <_>
      <internalNodes>
        0 -1 35698 -8.3568260073661804e-02</internalNodes>
      <leafValues>
        -5.9900134801864624e-01 5.3217884153127670e-02</leafValues></_>
    <_>
      <internalNodes>
        0 -1 7395 1.7989927902817726e-02</internalNodes>
      <leafValues>
        3.2050997018814087e-02 -8.6071491241455078e-01</leafValues></_>
    <_>
      <internalNodes>
        0 -1 56960 1.0503302328288555e-02</internalNodes>
      <leafValues>
        1.2617522478103638e-01 -2.5439745187759399e-01</leafValues></_>
    <_>
      <internalNodes>
        0 -1 112635 -7.6638266444206238e-02</internalNodes>
      <leafValues>
        7.2505015134811401e-01 -5.3733192384243011e-02</leafValues></_>
    <_>
      <internalNodes>
        0 -1 154375 5.2889607846736908e-02</internalNodes>
      <leafValues>
        6.6755034029483795e-02 -5.8967232704162598e-01</leafValues></_>
    <_>
      <internalNodes>
        0 -1 122299 -2.2342145442962646e-02</internalNodes>
      <leafValues>
        -3.8051217794418335e-01 9.3117438256740570e-02</leafValues></_>
    <_>
      <internalNodes>
        0 -1 103288 -1.8652401864528656e-02</internalNodes>
      <leafValues>
        -7.1272455155849457e-02 5.7404309511184692e-01</leafValues></_>
    <_>
      <internalNodes>
        0 -1 115192 -1.2982824444770813e-01</internalNodes>
      <leafValues>
        -7.7906943857669830e-02 4.5080429315567017e-01</leafValues></_>
    <_>
      <internalNodes>
        0 -1 5230 1.0845536366105080e-02</internalNodes>
      <leafValues>
        1.0826117545366287e-01 -3.7882059812545776e-01</leafValues></_>
    <_>
      <internalNodes>
        0 -1 126740 8.0660115927457809e-03</internalNodes>
      <leafValues>
        -1.4455537497997284e-01 2.3341961205005646e-01</leafValues></_>
    <_>
      <internalNodes>
        0 -1 97593 6.9968208670616150e-02</internalNodes>
      <leafValues>
        4.0224179625511169e-02 -8.3778381347656250e-01</leafValues></_>
    <_>
      <internalNodes>
        0 -1 12201 -5.6239586323499680e-02</internalNodes>
      <leafValues>
        -7.7265846729278564e-01 3.3982850611209869e-02</leafValues></_>
    <_>
      <internalNodes>
        0 -1 159325 3.9540305733680725e-03</internalNodes>
      <leafValues>
        -1.3319073617458344e-01 2.6840120553970337e-01</leafValues></_>
    <_>
      <internalNodes>
        0 -1 110154 1.0300122201442719e-02</internalNodes>
      <leafValues>
        -9.5847837626934052e-02 3.4571945667266846e-01</leafValues></_>
    <_>
      <internalNodes>
        0 -1 91977 -2.6413366198539734e-02</internalNodes>
      <leafValues>
        6.2625640630722046e-01 -5.4021935909986496e-02</leafValues></_>
    <_>
      <internalNodes>
        0 -1 96100 -1.2041410431265831e-02</internalNodes>
      <leafValues>
        -7.1939855813980103e-02 4.3525862693786621e-01</leafValues></_>
    <_>
      <internalNodes>
        0 -1 99324 -1.8751125317066908e-03</internalNodes>
      <leafValues>
        -5.6500315666198730e-01 5.8269552886486053e-02</leafValues></_>
    <_>
      <internalNodes>
        0 -1 24576 5.8547347784042358e-02</internalNodes>
      <leafValues>
        3.3186852931976318e-02 -7.5278514623641968e-01</leafValues></_>
    <_>
      <internalNodes>
        0 -1 17176 -2.0357272587716579e-03</internalNodes>
      <leafValues>
        -6.3611388206481934e-01 4.3638005852699280e-02</leafValues></_>
    <_>
      <internalNodes>
        0 -1 161307 1.9068811088800430e-02</internalNodes>
      <leafValues>
        3.0893035233020782e-02 -9.1765499114990234e-01</leafValues></_>
    <_>
      <internalNodes>
        0 -1 15401 2.6096371002495289e-03</internalNodes>
      <leafValues>
        9.1809369623661041e-02 -3.2457736134529114e-01</leafValues></_>
    <_>
      <internalNodes>
        0 -1 84379 2.6286270003765821e-03</internalNodes>
      <leafValues>
        1.6337260603904724e-01 -2.0718280971050262e-01</leafValues></_>
    <_>
      <internalNodes>
        0 -1 102226 8.2839280366897583e-03</internalNodes>
      <leafValues>
        -9.3182645738124847e-02 3.8049691915512085e-01</leafValues></_>
    <_>
      <internalNodes>
        0 -1 147700 3.6590558011084795e-03</internalNodes>
      <leafValues>
        -7.9901881515979767e-02 3.9419680833816528e-01</leafValues></_>
    <_>
      <internalNodes>
        0 -1 162062 -1.4125773450359702e-03</internalNodes>
      <leafValues>
        -5.3769773244857788e-01 6.7405439913272858e-02</leafValues></_>
    <_>
      <internalNodes>
        0 -1 139647 7.2036944329738617e-03</internalNodes>
      <leafValues>
        3.4422308206558228e-02 -7.7334290742874146e-01</leafValues></_>
    <_>
      <internalNodes>
        0 -1 84635 -4.6525709331035614e-02</internalNodes>
      <leafValues>
        3.6983050405979156e-02 -6.6946202516555786e-01</leafValues></_>
    <_>
      <internalNodes>
        0 -1 84048 -2.0956103503704071e-01</internalNodes>
      <leafValues>
        -1.0130112618207932e-01 3.3900129795074463e-01</leafValues></_>
    <_>
      <internalNodes>
        0 -1 89070 -3.5266295075416565e-02</internalNodes>
      <leafValues>
        7.3903179168701172e-01 -5.3359348326921463e-02</leafValues></_>
    <_>
      <internalNodes>
        0 -1 61238 -2.0291131734848022e-01</internalNodes>
      <leafValues>
        2.9581761360168457e-01 -1.2080328911542892e-01</leafValues></_>
    <_>
      <internalNodes>
        0 -1 138324 2.6896219700574875e-02</internalNodes>
      <leafValues>
        4.6855255961418152e-02 -7.8118753433227539e-01</leafValues></_>
    <_>
      <internalNodes>
        0 -1 146696 -1.8016625195741653e-02</internalNodes>
      <leafValues>
        5.1475673913955688e-01 -7.0698954164981842e-02</leafValues></_>
    <_>
      <internalNodes>
        0 -1 97845 1.8947897478938103e-02</internalNodes>
      <leafValues>
        -1.8475620448589325e-01 1.8232661485671997e-01</leafValues></_>
    <_>
      <internalNodes>
        0 -1 106172 -1.6253717243671417e-02</internalNodes>
      <leafValues>
        5.7845711708068848e-01 -6.7059405148029327e-02</leafValues></_>
    <_>
      <internalNodes>
        0 -1 155723 -2.5044564157724380e-02</internalNodes>
      <leafValues>
        -6.7484563589096069e-01 5.6804686784744263e-02</leafValues></_>
    <_>
      <internalNodes>
        0 -1 38176 -5.7813785970211029e-02</internalNodes>
      <leafValues>
        -5.0233978033065796e-01 5.9868689626455307e-02</leafValues></_>
    <_>
      <internalNodes>
        0 -1 106618 8.8349273428320885e-03</internalNodes>
      <leafValues>
        3.5964727401733398e-02 -8.5635471343994141e-01</leafValues></_>
    <_>
      <internalNodes>
        0 -1 91301 1.9327360205352306e-03</internalNodes>
      <leafValues>
        7.8269749879837036e-02 -4.0742316842079163e-01</leafValues></_>
    <_>
      <internalNodes>
        0 -1 157177 -7.9058026894927025e-03</internalNodes>
      <leafValues>
        -8.1431251764297485e-01 3.7619814276695251e-02</leafValues></_>
    <_>
      <internalNodes>
        0 -1 115129 -1.2126797437667847e-01</internalNodes>
      <leafValues>
        -7.7032268047332764e-02 4.8708373308181763e-01</leafValues></_></weakClassifiers></stage10>
</opencv_storage>
