<?xml version="1.0"?>
<opencv_storage>
<stage4>
  <maxWeakCount>31</maxWeakCount>
  <stageThreshold>-1.5881472826004028e+00</stageThreshold>
  <weakClassifiers>
    <_>
      <internalNodes>
        0 -1 86786 -4.3447136878967285e-02</internalNodes>
      <leafValues>
        8.9610391855239868e-01 -6.8836289644241333e-01</leafValues></_>
    <_>
      <internalNodes>
        0 -1 119959 -1.5986423939466476e-02</internalNodes>
      <leafValues>
        5.6754183769226074e-01 -2.6231098175048828e-01</leafValues></_>
    <_>
      <internalNodes>
        0 -1 141109 3.1568445265293121e-02</internalNodes>
      <leafValues>
        -5.7689364999532700e-02 7.9211223125457764e-01</leafValues></_>
    <_>
      <internalNodes>
        0 -1 119659 -4.1172228753566742e-02</internalNodes>
      <leafValues>
        8.9622956514358521e-01 -4.8427093774080276e-02</leafValues></_>
    <_>
      <internalNodes>
        0 -1 101181 -1.1172834783792496e-02</internalNodes>
      <leafValues>
        4.6818885207176208e-01 -1.2758260965347290e-01</leafValues></_>
    <_>
      <internalNodes>
        0 -1 79255 2.0516771823167801e-02</internalNodes>
      <leafValues>
        -3.9668071269989014e-01 1.6312298178672791e-01</leafValues></_>
    <_>
      <internalNodes>
        0 -1 117013 -5.7785869576036930e-03</internalNodes>
      <leafValues>
        4.9379968643188477e-01 -1.2831473350524902e-01</leafValues></_>
    <_>
      <internalNodes>
        0 -1 130610 2.2295281291007996e-02</internalNodes>
      <leafValues>
        -7.4237547814846039e-02 6.9165879487991333e-01</leafValues></_>
    <_>
      <internalNodes>
        0 -1 123984 -1.8127029761672020e-02</internalNodes>
      <leafValues>
        4.0784418582916260e-01 -1.3704657554626465e-01</leafValues></_>
    <_>
      <internalNodes>
        0 -1 110010 2.2443175315856934e-01</internalNodes>
      <leafValues>
        1.1200106889009476e-01 -8.9829927682876587e-01</leafValues></_>
    <_>
      <internalNodes>
        0 -1 43609 -1.0545906424522400e-01</internalNodes>
      <leafValues>
        -8.3297795057296753e-01 2.6109784841537476e-02</leafValues></_>
    <_>
      <internalNodes>
        0 -1 116407 -2.1025041118264198e-02</internalNodes>
      <leafValues>
        6.4125746488571167e-02 -8.5114330053329468e-01</leafValues></_>
    <_>
      <internalNodes>
        0 -1 159927 -4.5878570526838303e-03</internalNodes>
      <leafValues>
        -8.8736879825592041e-01 6.4023017883300781e-02</leafValues></_>
    <_>
      <internalNodes>
        0 -1 10326 -8.7980739772319794e-03</internalNodes>
      <leafValues>
        1.4119614660739899e-01 -3.7159854173660278e-01</leafValues></_>
    <_>
      <internalNodes>
        0 -1 101854 -8.5242286324501038e-02</internalNodes>
      <leafValues>
        -1.0725641995668411e-01 5.9512633085250854e-01</leafValues></_>
    <_>
      <internalNodes>
        0 -1 109153 6.0825366526842117e-03</internalNodes>
      <leafValues>
        -1.6385178267955780e-01 3.6366504430770874e-01</leafValues></_>
    <_>
      <internalNodes>
        0 -1 117512 -1.7702177166938782e-02</internalNodes>
      <leafValues>
        5.2161967754364014e-01 -1.1635159701108932e-01</leafValues></_>
    <_>
      <internalNodes>
        0 -1 119048 7.8991744667291641e-03</internalNodes>
      <leafValues>
        -2.8776833415031433e-01 3.0046778917312622e-01</leafValues></_>
    <_>
      <internalNodes>
        0 -1 11467 1.4854016900062561e-01</internalNodes>
      <leafValues>
        7.8446239233016968e-02 -8.0696284770965576e-01</leafValues></_>
    <_>
      <internalNodes>
        0 -1 47557 -2.4359203875064850e-02</internalNodes>
      <leafValues>
        -1.6899269819259644e-01 3.5185369849205017e-01</leafValues></_>
    <_>
      <internalNodes>
        0 -1 26419 -2.4460852146148682e-01</internalNodes>
      <leafValues>
        -9.3944633007049561e-01 6.1134465038776398e-02</leafValues></_>
    <_>
      <internalNodes>
        0 -1 13010 -1.2240466661751270e-02</internalNodes>
      <leafValues>
        1.0861603170633316e-01 -4.2407602071762085e-01</leafValues></_>
    <_>
      <internalNodes>
        0 -1 96511 1.2406345456838608e-02</internalNodes>
      <leafValues>
        -1.0328424721956253e-01 5.0934934616088867e-01</leafValues></_>
    <_>
      <internalNodes>
        0 -1 76895 2.9312890022993088e-02</internalNodes>
      <leafValues>
        -6.3313245773315430e-02 7.9314607381820679e-01</leafValues></_>
    <_>
      <internalNodes>
        0 -1 26310 -8.9487694203853607e-03</internalNodes>
      <leafValues>
        1.6248317062854767e-01 -3.5650080442428589e-01</leafValues></_>
    <_>
      <internalNodes>
        0 -1 39710 -3.1478279829025269e-01</internalNodes>
      <leafValues>
        -1.0931944102048874e-01 6.1151444911956787e-01</leafValues></_>
    <_>
      <internalNodes>
        0 -1 139151 -2.3233217652887106e-03</internalNodes>
      <leafValues>
        8.6285933852195740e-02 -6.9098609685897827e-01</leafValues></_>
    <_>
      <internalNodes>
        0 -1 40969 4.2037084698677063e-02</internalNodes>
      <leafValues>
        -1.1764680594205856e-01 4.9411424994468689e-01</leafValues></_>
    <_>
      <internalNodes>
        0 -1 109215 -2.4806916713714600e-02</internalNodes>
      <leafValues>
        5.7782113552093506e-01 -8.8420338928699493e-02</leafValues></_>
    <_>
      <internalNodes>
        0 -1 54384 -3.3587399870157242e-02</internalNodes>
      <leafValues>
        7.7013778686523438e-01 -5.9992320835590363e-02</leafValues></_>
    <_>
      <internalNodes>
        0 -1 119005 1.2047449126839638e-02</internalNodes>
      <leafValues>
        -1.0160467773675919e-01 5.2638363838195801e-01</leafValues></_></weakClassifiers></stage4>
</opencv_storage>
