<?xml version="1.0"?>
<opencv_storage>
<stage4>
  <maxWeakCount>25</maxWeakCount>
  <stageThreshold>-1.4595025777816772e+00</stageThreshold>
  <weakClassifiers>
    <_>
      <internalNodes>
        0 -1 67362 -8.5263550281524658e-02</internalNodes>
      <leafValues>
        8.8888889551162720e-01 -5.7334387302398682e-01</leafValues></_>
    <_>
      <internalNodes>
        0 -1 2733 1.3005200773477554e-02</internalNodes>
      <leafValues>
        9.0316176414489746e-02 -6.6380131244659424e-01</leafValues></_>
    <_>
      <internalNodes>
        0 -1 7357 -7.6231211423873901e-02</internalNodes>
      <leafValues>
        1.2688317894935608e-01 -7.9914605617523193e-01</leafValues></_>
    <_>
      <internalNodes>
        0 -1 13368 -5.8098598383367062e-03</internalNodes>
      <leafValues>
        -6.6803222894668579e-01 1.4206038415431976e-01</leafValues></_>
    <_>
      <internalNodes>
        0 -1 11483 -6.8933777511119843e-02</internalNodes>
      <leafValues>
        -7.7093333005905151e-01 1.2400811165571213e-01</leafValues></_>
    <_>
      <internalNodes>
        0 -1 120423 -4.5120541006326675e-02</internalNodes>
      <leafValues>
        6.6041290760040283e-01 -1.2861819565296173e-01</leafValues></_>
    <_>
      <internalNodes>
        0 -1 94307 -3.0022881925106049e-02</internalNodes>
      <leafValues>
        6.0459375381469727e-01 -1.1088282614946365e-01</leafValues></_>
    <_>
      <internalNodes>
        0 -1 55849 -4.6865516901016235e-01</internalNodes>
      <leafValues>
        -8.1229948997497559e-01 8.9901395142078400e-02</leafValues></_>
    <_>
      <internalNodes>
        0 -1 24385 -4.9171261489391327e-02</internalNodes>
      <leafValues>
        5.6633569300174713e-02 -9.8850750923156738e-01</leafValues></_>
    <_>
      <internalNodes>
        0 -1 40572 -3.2701495289802551e-01</internalNodes>
      <leafValues>
        -1.4436353743076324e-01 5.5720001459121704e-01</leafValues></_>
    <_>
      <internalNodes>
        0 -1 116360 -1.8284324556589127e-02</internalNodes>
      <leafValues>
        7.4711754918098450e-02 -8.5548716783523560e-01</leafValues></_>
    <_>
      <internalNodes>
        0 -1 111975 1.4622493647038937e-02</internalNodes>
      <leafValues>
        -2.3896721005439758e-01 2.8177279233932495e-01</leafValues></_>
    <_>
      <internalNodes>
        0 -1 96092 9.0226903557777405e-03</internalNodes>
      <leafValues>
        -1.2899732589721680e-01 5.3400129079818726e-01</leafValues></_>
    <_>
      <internalNodes>
        0 -1 103728 -3.0244641005992889e-02</internalNodes>
      <leafValues>
        -8.3758123219013214e-02 6.9279980659484863e-01</leafValues></_>
    <_>
      <internalNodes>
        0 -1 129878 2.6657449081540108e-02</internalNodes>
      <leafValues>
        -1.0085085779428482e-01 6.2112140655517578e-01</leafValues></_>
    <_>
      <internalNodes>
        0 -1 145978 2.9759529978036880e-02</internalNodes>
      <leafValues>
        -6.6563069820404053e-02 8.3800154924392700e-01</leafValues></_>
    <_>
      <internalNodes>
        0 -1 146974 8.3268415182828903e-03</internalNodes>
      <leafValues>
        -2.1454060077667236e-01 2.9183438420295715e-01</leafValues></_>
    <_>
      <internalNodes>
        0 -1 119050 4.1007582098245621e-02</internalNodes>
      <leafValues>
        -7.6622635126113892e-02 9.0669757127761841e-01</leafValues></_>
    <_>
      <internalNodes>
        0 -1 130573 8.7692309170961380e-03</internalNodes>
      <leafValues>
        -1.1337384581565857e-01 4.9521446228027344e-01</leafValues></_>
    <_>
      <internalNodes>
        0 -1 161189 -5.8141304180026054e-03</internalNodes>
      <leafValues>
        -8.2018715143203735e-01 8.5309863090515137e-02</leafValues></_>
    <_>
      <internalNodes>
        0 -1 126090 8.3076888695359230e-03</internalNodes>
      <leafValues>
        -1.4107578992843628e-01 5.1770550012588501e-01</leafValues></_>
    <_>
      <internalNodes>
        0 -1 124711 -6.9213756360113621e-03</internalNodes>
      <leafValues>
        4.4927340745925903e-01 -1.4826816320419312e-01</leafValues></_>
    <_>
      <internalNodes>
        0 -1 113504 1.6421180218458176e-02</internalNodes>
      <leafValues>
        -3.6030834913253784e-01 1.7550519108772278e-01</leafValues></_>
    <_>
      <internalNodes>
        0 -1 43122 3.4579917788505554e-02</internalNodes>
      <leafValues>
        -8.1699393689632416e-02 8.9923596382141113e-01</leafValues></_>
    <_>
      <internalNodes>
        0 -1 119125 -2.1270196884870529e-02</internalNodes>
      <leafValues>
        6.8247246742248535e-01 -7.7490970492362976e-02</leafValues></_></weakClassifiers></stage4>
</opencv_storage>
