<?xml version="1.0"?>
<opencv_storage>
<stage11>
  <maxWeakCount>32</maxWeakCount>
  <stageThreshold>-8.3971130847930908e-01</stageThreshold>
  <weakClassifiers>
    <_>
      <internalNodes>
        0 -1 99088 -5.7093068957328796e-02</internalNodes>
      <leafValues>
        1.8617020547389984e-01 -3.7282231450080872e-01</leafValues></_>
    <_>
      <internalNodes>
        0 -1 120418 -2.5683693587779999e-02</internalNodes>
      <leafValues>
        7.3740410804748535e-01 -9.9881522357463837e-02</leafValues></_>
    <_>
      <internalNodes>
        0 -1 34187 -1.0459885001182556e-01</internalNodes>
      <leafValues>
        8.4760743379592896e-01 -1.0122940689325333e-01</leafValues></_>
    <_>
      <internalNodes>
        0 -1 59465 -3.8517568260431290e-02</internalNodes>
      <leafValues>
        6.6173098981380463e-02 -9.7181719541549683e-01</leafValues></_>
    <_>
      <internalNodes>
        0 -1 57287 -1.6602165997028351e-02</internalNodes>
      <leafValues>
        -4.7769913077354431e-01 1.5834496915340424e-01</leafValues></_>
    <_>
      <internalNodes>
        0 -1 161622 -1.0410804301500320e-02</internalNodes>
      <leafValues>
        -7.9704797267913818e-01 6.1676241457462311e-02</leafValues></_>
    <_>
      <internalNodes>
        0 -1 72860 -3.9963662624359131e-02</internalNodes>
      <leafValues>
        -6.3146972656250000e-01 1.0726453363895416e-01</leafValues></_>
    <_>
      <internalNodes>
        0 -1 112699 8.2862593233585358e-02</internalNodes>
      <leafValues>
        -1.0166861116886139e-01 8.1012248992919922e-01</leafValues></_>
    <_>
      <internalNodes>
        0 -1 117753 1.4308926649391651e-02</internalNodes>
      <leafValues>
        -3.9409407973289490e-01 2.3038379848003387e-01</leafValues></_>
    <_>
      <internalNodes>
        0 -1 2176 -1.7037998884916306e-02</internalNodes>
      <leafValues>
        -6.1762177944183350e-01 8.2199245691299438e-02</leafValues></_>
    <_>
      <internalNodes>
        0 -1 3168 4.1684303432703018e-03</internalNodes>
      <leafValues>
        1.3622562587261200e-01 -4.1813418269157410e-01</leafValues></_>
    <_>
      <internalNodes>
        0 -1 125394 6.4575687050819397e-02</internalNodes>
      <leafValues>
        6.5314814448356628e-02 -6.8707096576690674e-01</leafValues></_>
    <_>
      <internalNodes>
        0 -1 44302 -1.0842637717723846e-01</internalNodes>
      <leafValues>
        -4.8704990744590759e-01 9.4175174832344055e-02</leafValues></_>
    <_>
      <internalNodes>
        0 -1 85831 -1.6494700685143471e-02</internalNodes>
      <leafValues>
        6.7882192134857178e-01 -9.4557635486125946e-02</leafValues></_>
    <_>
      <internalNodes>
        0 -1 126157 4.8919757828116417e-03</internalNodes>
      <leafValues>
        -1.4411836862564087e-01 3.4829106926918030e-01</leafValues></_>
    <_>
      <internalNodes>
        0 -1 9558 -1.4037487562745810e-03</internalNodes>
      <leafValues>
        1.5743306279182434e-01 -3.7257841229438782e-01</leafValues></_>
    <_>
      <internalNodes>
        0 -1 23859 -3.6839127540588379e-02</internalNodes>
      <leafValues>
        7.4968713521957397e-01 -9.6344493329524994e-02</leafValues></_>
    <_>
      <internalNodes>
        0 -1 141228 -3.9812043309211731e-02</internalNodes>
      <leafValues>
        7.5310909748077393e-01 -5.1056083291769028e-02</leafValues></_>
    <_>
      <internalNodes>
        0 -1 84635 -4.7546707093715668e-02</internalNodes>
      <leafValues>
        8.0613285303115845e-02 -7.6328027248382568e-01</leafValues></_>
    <_>
      <internalNodes>
        0 -1 98742 -9.3438467010855675e-03</internalNodes>
      <leafValues>
        -6.3640969991683960e-01 7.2845406830310822e-02</leafValues></_>
    <_>
      <internalNodes>
        0 -1 66688 -1.2902676826342940e-03</internalNodes>
      <leafValues>
        3.5078078508377075e-01 -1.4584282040596008e-01</leafValues></_>
    <_>
      <internalNodes>
        0 -1 97436 -2.1157076582312584e-02</internalNodes>
      <leafValues>
        -2.2015112638473511e-01 2.5110366940498352e-01</leafValues></_>
    <_>
      <internalNodes>
        0 -1 74982 3.6405429244041443e-02</internalNodes>
      <leafValues>
        -8.3600595593452454e-02 6.6259592771530151e-01</leafValues></_>
    <_>
      <internalNodes>
        0 -1 63603 7.7785351313650608e-03</internalNodes>
      <leafValues>
        -9.8385863006114960e-02 5.2263098955154419e-01</leafValues></_>
    <_>
      <internalNodes>
        0 -1 162189 -2.1565034985542297e-03</internalNodes>
      <leafValues>
        -7.2904652357101440e-01 8.0444961786270142e-02</leafValues></_>
    <_>
      <internalNodes>
        0 -1 144388 -1.2717838399112225e-03</internalNodes>
      <leafValues>
        -5.0546324253082275e-01 9.3764081597328186e-02</leafValues></_>
    <_>
      <internalNodes>
        0 -1 150874 1.5065222978591919e-03</internalNodes>
      <leafValues>
        -2.3847316205501556e-01 2.5316110253334045e-01</leafValues></_>
    <_>
      <internalNodes>
        0 -1 107869 1.0274919122457504e-01</internalNodes>
      <leafValues>
        7.4163340032100677e-02 -7.4565136432647705e-01</leafValues></_>
    <_>
      <internalNodes>
        0 -1 119028 -1.0572586208581924e-02</internalNodes>
      <leafValues>
        6.7753672599792480e-01 -8.8591113686561584e-02</leafValues></_>
    <_>
      <internalNodes>
        0 -1 898 -2.6192969083786011e-01</internalNodes>
      <leafValues>
        -8.4234428405761719e-01 7.4268817901611328e-02</leafValues></_>
    <_>
      <internalNodes>
        0 -1 44403 -5.9375232085585594e-03</internalNodes>
      <leafValues>
        3.2605621218681335e-01 -1.6226483881473541e-01</leafValues></_>
    <_>
      <internalNodes>
        0 -1 15458 1.3329463079571724e-02</internalNodes>
      <leafValues>
        7.2007343173027039e-02 -7.7859675884246826e-01</leafValues></_></weakClassifiers></stage11>
</opencv_storage>
