<?xml version="1.0"?>
<opencv_storage>
<stage5>
  <maxWeakCount>21</maxWeakCount>
  <stageThreshold>-1.0698626041412354e+00</stageThreshold>
  <weakClassifiers>
    <_>
      <internalNodes>
        0 -1 138612 -2.8077591210603714e-02</internalNodes>
      <leafValues>
        1.6747337579727173e-01 -8.4300339221954346e-01</leafValues></_>
    <_>
      <internalNodes>
        0 -1 149835 -3.5332515835762024e-02</internalNodes>
      <leafValues>
        1.5936486423015594e-01 -7.0956718921661377e-01</leafValues></_>
    <_>
      <internalNodes>
        0 -1 66319 4.5002963393926620e-02</internalNodes>
      <leafValues>
        -1.6529291868209839e-01 7.2134906053543091e-01</leafValues></_>
    <_>
      <internalNodes>
        0 -1 119959 -1.5961829572916031e-02</internalNodes>
      <leafValues>
        9.4962066411972046e-01 -1.0797354578971863e-01</leafValues></_>
    <_>
      <internalNodes>
        0 -1 148520 -1.9197668880224228e-02</internalNodes>
      <leafValues>
        -6.7244797945022583e-01 1.8897518515586853e-01</leafValues></_>
    <_>
      <internalNodes>
        0 -1 8267 5.3560361266136169e-04</internalNodes>
      <leafValues>
        2.1006183326244354e-01 -4.2421665787696838e-01</leafValues></_>
    <_>
      <internalNodes>
        0 -1 85397 -8.7761983275413513e-02</internalNodes>
      <leafValues>
        6.2371158599853516e-01 -1.6920965909957886e-01</leafValues></_>
    <_>
      <internalNodes>
        0 -1 25785 -6.0156756080687046e-03</internalNodes>
      <leafValues>
        -5.9764665365219116e-01 1.8869881331920624e-01</leafValues></_>
    <_>
      <internalNodes>
        0 -1 138448 -1.1675689369440079e-02</internalNodes>
      <leafValues>
        -8.5404539108276367e-01 1.0423192381858826e-01</leafValues></_>
    <_>
      <internalNodes>
        0 -1 120789 -3.4632305614650249e-03</internalNodes>
      <leafValues>
        7.3019236326217651e-01 -1.4761985838413239e-01</leafValues></_>
    <_>
      <internalNodes>
        0 -1 132379 7.6507320627570152e-03</internalNodes>
      <leafValues>
        -3.0215182900428772e-01 3.1917485594749451e-01</leafValues></_>
    <_>
      <internalNodes>
        0 -1 73658 -3.5373337566852570e-02</internalNodes>
      <leafValues>
        7.1226261556148529e-02 -9.2662519216537476e-01</leafValues></_>
    <_>
      <internalNodes>
        0 -1 86654 2.1186202764511108e-02</internalNodes>
      <leafValues>
        -1.1762475222349167e-01 7.6496648788452148e-01</leafValues></_>
    <_>
      <internalNodes>
        0 -1 107254 -1.3996678590774536e-01</internalNodes>
      <leafValues>
        -1.1728195846080780e-01 5.6655424833297729e-01</leafValues></_>
    <_>
      <internalNodes>
        0 -1 1077 -1.0606176853179932e+00</internalNodes>
      <leafValues>
        5.8706444501876831e-01 -1.3781782984733582e-01</leafValues></_>
    <_>
      <internalNodes>
        0 -1 13554 -2.5807362049818039e-02</internalNodes>
      <leafValues>
        -7.3246473073959351e-01 1.1534025520086288e-01</leafValues></_>
    <_>
      <internalNodes>
        0 -1 85181 -7.3022499680519104e-02</internalNodes>
      <leafValues>
        -5.7340979576110840e-01 1.1844788491725922e-01</leafValues></_>
    <_>
      <internalNodes>
        0 -1 139060 -7.6460335403680801e-03</internalNodes>
      <leafValues>
        -5.0842958688735962e-01 1.4857752621173859e-01</leafValues></_>
    <_>
      <internalNodes>
        0 -1 107287 2.1931874752044678e-01</internalNodes>
      <leafValues>
        8.9960925281047821e-02 -7.9253774881362915e-01</leafValues></_>
    <_>
      <internalNodes>
        0 -1 11516 -5.5905394256114960e-03</internalNodes>
      <leafValues>
        9.1333478689193726e-02 -6.8459975719451904e-01</leafValues></_>
    <_>
      <internalNodes>
        0 -1 161329 1.8134936690330505e-02</internalNodes>
      <leafValues>
        1.3672499358654022e-01 -5.1302891969680786e-01</leafValues></_></weakClassifiers></stage5>
</opencv_storage>
