<?xml version="1.0"?>
<opencv_storage>
<stage8>
  <maxWeakCount>36</maxWeakCount>
  <stageThreshold>-1.0596163272857666e+00</stageThreshold>
  <weakClassifiers>
    <_>
      <internalNodes>
        0 -1 105681 -2.3082226514816284e-02</internalNodes>
      <leafValues>
        -3.5759493708610535e-01 2.1902017295360565e-01</leafValues></_>
    <_>
      <internalNodes>
        0 -1 121775 1.5294274687767029e-01</internalNodes>
      <leafValues>
        1.1985466629266739e-01 -5.7901108264923096e-01</leafValues></_>
    <_>
      <internalNodes>
        0 -1 67346 -2.6517866179347038e-02</internalNodes>
      <leafValues>
        8.4113383293151855e-01 -6.7649543285369873e-02</leafValues></_>
    <_>
      <internalNodes>
        0 -1 140597 1.4967772178351879e-02</internalNodes>
      <leafValues>
        -1.9199953973293304e-01 3.1128743290901184e-01</leafValues></_>
    <_>
      <internalNodes>
        0 -1 146247 -5.0632253289222717e-02</internalNodes>
      <leafValues>
        8.1915253400802612e-01 -1.1883096396923065e-01</leafValues></_>
    <_>
      <internalNodes>
        0 -1 6 4.0023298934102058e-03</internalNodes>
      <leafValues>
        9.4350270926952362e-02 -7.7821505069732666e-01</leafValues></_>
    <_>
      <internalNodes>
        0 -1 22315 -1.3290123082697392e-02</internalNodes>
      <leafValues>
        -5.8132249861955643e-02 8.2897728681564331e-01</leafValues></_>
    <_>
      <internalNodes>
        0 -1 110210 4.5575127005577087e-02</internalNodes>
      <leafValues>
        -3.7291299551725388e-02 7.9801350831985474e-01</leafValues></_>
    <_>
      <internalNodes>
        0 -1 119048 1.2950498610734940e-02</internalNodes>
      <leafValues>
        -1.9892650842666626e-01 3.0060848593711853e-01</leafValues></_>
    <_>
      <internalNodes>
        0 -1 84299 -5.7515166699886322e-02</internalNodes>
      <leafValues>
        -7.1270547807216644e-02 7.2696238756179810e-01</leafValues></_>
    <_>
      <internalNodes>
        0 -1 100023 -7.2059845551848412e-03</internalNodes>
      <leafValues>
        1.2453859299421310e-01 -5.6096994876861572e-01</leafValues></_>
    <_>
      <internalNodes>
        0 -1 26068 5.0346538424491882e-02</internalNodes>
      <leafValues>
        -8.7845355272293091e-02 7.5029796361923218e-01</leafValues></_>
    <_>
      <internalNodes>
        0 -1 106885 -9.5990542322397232e-03</internalNodes>
      <leafValues>
        -8.7984418869018555e-01 7.9154953360557556e-02</leafValues></_>
    <_>
      <internalNodes>
        0 -1 110243 -1.2341719120740891e-02</internalNodes>
      <leafValues>
        -9.5192313194274902e-02 6.5670472383499146e-01</leafValues></_>
    <_>
      <internalNodes>
        0 -1 130610 -1.3381700962781906e-02</internalNodes>
      <leafValues>
        4.4869834184646606e-01 -1.3180947303771973e-01</leafValues></_>
    <_>
      <internalNodes>
        0 -1 99947 -1.9645881839096546e-03</internalNodes>
      <leafValues>
        -6.2047988176345825e-01 1.0021857917308807e-01</leafValues></_>
    <_>
      <internalNodes>
        0 -1 133482 8.7694724788889289e-04</internalNodes>
      <leafValues>
        2.3665072023868561e-01 -2.7841591835021973e-01</leafValues></_>
    <_>
      <internalNodes>
        0 -1 84786 -1.3184354640543461e-02</internalNodes>
      <leafValues>
        -7.9721547663211823e-02 7.8756338357925415e-01</leafValues></_>
    <_>
      <internalNodes>
        0 -1 114268 8.5544148460030556e-03</internalNodes>
      <leafValues>
        -2.7182200551033020e-01 2.1008881926536560e-01</leafValues></_>
    <_>
      <internalNodes>
        0 -1 162203 1.4214968308806419e-02</internalNodes>
      <leafValues>
        9.0629592537879944e-02 -7.0953339338302612e-01</leafValues></_>
    <_>
      <internalNodes>
        0 -1 104445 -9.1308811679482460e-03</internalNodes>
      <leafValues>
        5.0762277841567993e-01 -1.3180981576442719e-01</leafValues></_>
    <_>
      <internalNodes>
        0 -1 109718 -3.6288119852542877e-02</internalNodes>
      <leafValues>
        -1.2717397511005402e-01 4.3210306763648987e-01</leafValues></_>
    <_>
      <internalNodes>
        0 -1 117023 -9.5356097444891930e-03</internalNodes>
      <leafValues>
        5.6231516599655151e-01 -1.1353689432144165e-01</leafValues></_>
    <_>
      <internalNodes>
        0 -1 93565 -3.4295167773962021e-02</internalNodes>
      <leafValues>
        7.9805836081504822e-02 -8.6508101224899292e-01</leafValues></_>
    <_>
      <internalNodes>
        0 -1 75832 1.3609699904918671e-02</internalNodes>
      <leafValues>
        -1.1955886334180832e-01 5.9769177436828613e-01</leafValues></_>
    <_>
      <internalNodes>
        0 -1 74 7.4157016351819038e-03</internalNodes>
      <leafValues>
        1.1088608205318451e-01 -6.6338890790939331e-01</leafValues></_>
    <_>
      <internalNodes>
        0 -1 103664 -8.0686789005994797e-03</internalNodes>
      <leafValues>
        -1.1515162885189056e-01 6.0735803842544556e-01</leafValues></_>
    <_>
      <internalNodes>
        0 -1 81717 -1.8975056707859039e-02</internalNodes>
      <leafValues>
        3.0217730998992920e-01 -2.0756553113460541e-01</leafValues></_>
    <_>
      <internalNodes>
        0 -1 47336 -3.1253308057785034e-02</internalNodes>
      <leafValues>
        -5.3539210557937622e-01 1.2036858499050140e-01</leafValues></_>
    <_>
      <internalNodes>
        0 -1 79811 7.7941186726093292e-02</internalNodes>
      <leafValues>
        6.1224166303873062e-02 -8.4647655487060547e-01</leafValues></_>
    <_>
      <internalNodes>
        0 -1 16558 -1.8701396882534027e-02</internalNodes>
      <leafValues>
        2.5174728035926819e-01 -2.4140490591526031e-01</leafValues></_>
    <_>
      <internalNodes>
        0 -1 111463 -9.4540817663073540e-03</internalNodes>
      <leafValues>
        5.4774987697601318e-01 -1.0539669543504715e-01</leafValues></_>
    <_>
      <internalNodes>
        0 -1 30511 -2.5019413232803345e-01</internalNodes>
      <leafValues>
        -5.4107409715652466e-01 1.3937127590179443e-01</leafValues></_>
    <_>
      <internalNodes>
        0 -1 123285 -4.8986926674842834e-02</internalNodes>
      <leafValues>
        7.2566144168376923e-02 -6.5490150451660156e-01</leafValues></_>
    <_>
      <internalNodes>
        0 -1 161047 -2.8318646363914013e-03</internalNodes>
      <leafValues>
        -6.4995753765106201e-01 8.3088137209415436e-02</leafValues></_>
    <_>
      <internalNodes>
        0 -1 145690 3.7799770943820477e-03</internalNodes>
      <leafValues>
        7.8274734318256378e-02 -7.0282602310180664e-01</leafValues></_></weakClassifiers></stage8>
</opencv_storage>
