<?xml version="1.0"?>
<opencv_storage>
<stage6>
  <maxWeakCount>34</maxWeakCount>
  <stageThreshold>-1.2711114883422852e+00</stageThreshold>
  <weakClassifiers>
    <_>
      <internalNodes>
        0 -1 67362 -8.2250148057937622e-02</internalNodes>
      <leafValues>
        7.8217822313308716e-01 -4.7061729431152344e-01</leafValues></_>
    <_>
      <internalNodes>
        0 -1 146479 -5.5048178881406784e-02</internalNodes>
      <leafValues>
        9.3867307901382446e-01 -1.2467460334300995e-01</leafValues></_>
    <_>
      <internalNodes>
        0 -1 6010 -5.3306680638343096e-04</internalNodes>
      <leafValues>
        1.5857082605361938e-01 -4.3492609262466431e-01</leafValues></_>
    <_>
      <internalNodes>
        0 -1 162203 1.4149419032037258e-02</internalNodes>
      <leafValues>
        1.1454661190509796e-01 -6.5840590000152588e-01</leafValues></_>
    <_>
      <internalNodes>
        0 -1 159338 1.3636992080137134e-03</internalNodes>
      <leafValues>
        -2.2588212788105011e-01 2.6627701520919800e-01</leafValues></_>
    <_>
      <internalNodes>
        0 -1 93839 1.1456343531608582e-01</internalNodes>
      <leafValues>
        -1.1896283179521561e-01 8.7245553731918335e-01</leafValues></_>
    <_>
      <internalNodes>
        0 -1 31302 4.0771789848804474e-02</internalNodes>
      <leafValues>
        -6.3811056315898895e-02 7.4643355607986450e-01</leafValues></_>
    <_>
      <internalNodes>
        0 -1 31726 -9.2939242720603943e-02</internalNodes>
      <leafValues>
        -7.9655760526657104e-01 8.0322407186031342e-02</leafValues></_>
    <_>
      <internalNodes>
        0 -1 115616 -3.5750839859247208e-02</internalNodes>
      <leafValues>
        7.7983152866363525e-01 -7.2279237210750580e-02</leafValues></_>
    <_>
      <internalNodes>
        0 -1 161626 4.0731169283390045e-03</internalNodes>
      <leafValues>
        8.3972841501235962e-02 -7.8863286972045898e-01</leafValues></_>
    <_>
      <internalNodes>
        0 -1 157649 -2.4762231856584549e-02</internalNodes>
      <leafValues>
        -7.8995120525360107e-01 6.2324959784746170e-02</leafValues></_>
    <_>
      <internalNodes>
        0 -1 42397 -1.9941531121730804e-02</internalNodes>
      <leafValues>
        5.8721619844436646e-01 -9.9464699625968933e-02</leafValues></_>
    <_>
      <internalNodes>
        0 -1 79833 -2.0851250737905502e-03</internalNodes>
      <leafValues>
        -5.0346243381500244e-01 1.0501526296138763e-01</leafValues></_>
    <_>
      <internalNodes>
        0 -1 102361 -6.8317882716655731e-02</internalNodes>
      <leafValues>
        -1.1230520904064178e-01 5.3332930803298950e-01</leafValues></_>
    <_>
      <internalNodes>
        0 -1 109742 -2.5007348507642746e-02</internalNodes>
      <leafValues>
        4.9467542767524719e-01 -1.1767451465129852e-01</leafValues></_>
    <_>
      <internalNodes>
        0 -1 147732 1.1113684624433517e-02</internalNodes>
      <leafValues>
        -8.1150107085704803e-02 7.0642340183258057e-01</leafValues></_>
    <_>
      <internalNodes>
        0 -1 115626 2.4885702878236771e-02</internalNodes>
      <leafValues>
        -1.0884083807468414e-01 4.9883967638015747e-01</leafValues></_>
    <_>
      <internalNodes>
        0 -1 87215 -1.5876006335020065e-02</internalNodes>
      <leafValues>
        4.1837078332901001e-01 -1.2849012017250061e-01</leafValues></_>
    <_>
      <internalNodes>
        0 -1 138523 -2.2882325574755669e-02</internalNodes>
      <leafValues>
        8.5509538650512695e-01 -7.0672236382961273e-02</leafValues></_>
    <_>
      <internalNodes>
        0 -1 110515 -5.9198170900344849e-02</internalNodes>
      <leafValues>
        8.3562612533569336e-02 -7.7850896120071411e-01</leafValues></_>
    <_>
      <internalNodes>
        0 -1 29797 3.0051965266466141e-02</internalNodes>
      <leafValues>
        -1.1739700287580490e-01 4.7791442275047302e-01</leafValues></_>
    <_>
      <internalNodes>
        0 -1 65570 -2.5607403367757797e-03</internalNodes>
      <leafValues>
        3.4285375475883484e-01 -1.5597999095916748e-01</leafValues></_>
    <_>
      <internalNodes>
        0 -1 49441 -5.2240882068872452e-03</internalNodes>
      <leafValues>
        -6.9213092327117920e-01 7.6748900115489960e-02</leafValues></_>
    <_>
      <internalNodes>
        0 -1 128404 -3.0283607542514801e-02</internalNodes>
      <leafValues>
        1.8442003428936005e-01 -2.7731090784072876e-01</leafValues></_>
    <_>
      <internalNodes>
        0 -1 159945 -5.1069525070488453e-03</internalNodes>
      <leafValues>
        -7.3829048871994019e-01 7.1785598993301392e-02</leafValues></_>
    <_>
      <internalNodes>
        0 -1 131548 -1.1725104413926601e-02</internalNodes>
      <leafValues>
        5.8883482217788696e-01 -1.0444739460945129e-01</leafValues></_>
    <_>
      <internalNodes>
        0 -1 62993 1.3296561315655708e-02</internalNodes>
      <leafValues>
        -1.2532947957515717e-01 4.1918495297431946e-01</leafValues></_>
    <_>
      <internalNodes>
        0 -1 117155 7.7294528484344482e-02</internalNodes>
      <leafValues>
        -7.4619963765144348e-02 7.1680563688278198e-01</leafValues></_>
    <_>
      <internalNodes>
        0 -1 128512 1.5847801696509123e-03</internalNodes>
      <leafValues>
        1.0106401890516281e-01 -6.2349230051040649e-01</leafValues></_>
    <_>
      <internalNodes>
        0 -1 135141 -1.9240500405430794e-02</internalNodes>
      <leafValues>
        5.1560229063034058e-01 -1.2370690703392029e-01</leafValues></_>
    <_>
      <internalNodes>
        0 -1 132804 6.3581531867384911e-03</internalNodes>
      <leafValues>
        -2.3337310552597046e-01 2.4192017316818237e-01</leafValues></_>
    <_>
      <internalNodes>
        0 -1 47652 -4.3823160231113434e-02</internalNodes>
      <leafValues>
        -7.2874265909194946e-01 6.8317204713821411e-02</leafValues></_>
    <_>
      <internalNodes>
        0 -1 918 -2.8782814741134644e-01</internalNodes>
      <leafValues>
        -8.6123883724212646e-01 4.9568515270948410e-02</leafValues></_>
    <_>
      <internalNodes>
        0 -1 107231 2.0980009436607361e-01</internalNodes>
      <leafValues>
        4.1280258446931839e-02 -9.1789871454238892e-01</leafValues></_></weakClassifiers></stage6>
</opencv_storage>
