<?xml version="1.0"?>
<opencv_storage>
<stage10>
  <maxWeakCount>52</maxWeakCount>
  <stageThreshold>-1.3903733491897583e+00</stageThreshold>
  <weakClassifiers>
    <_>
      <internalNodes>
        0 -1 68632 4.5938603579998016e-02</internalNodes>
      <leafValues>
        -4.5516568422317505e-01 8.1081080436706543e-01</leafValues></_>
    <_>
      <internalNodes>
        0 -1 145710 -1.2648859992623329e-02</internalNodes>
      <leafValues>
        4.1593065857887268e-01 -1.7295430600643158e-01</leafValues></_>
    <_>
      <internalNodes>
        0 -1 17099 -3.3625233173370361e-01</internalNodes>
      <leafValues>
        -9.5391377806663513e-02 4.8582586646080017e-01</leafValues></_>
    <_>
      <internalNodes>
        0 -1 93465 -2.3670267313718796e-02</internalNodes>
      <leafValues>
        8.7874531745910645e-02 -6.3791120052337646e-01</leafValues></_>
    <_>
      <internalNodes>
        0 -1 162117 5.2811549976468086e-03</internalNodes>
      <leafValues>
        1.5214741230010986e-01 -3.4766358137130737e-01</leafValues></_>
    <_>
      <internalNodes>
        0 -1 145978 3.0522171407938004e-02</internalNodes>
      <leafValues>
        -9.1975234448909760e-02 6.5586996078491211e-01</leafValues></_>
    <_>
      <internalNodes>
        0 -1 111497 -2.3442737758159637e-02</internalNodes>
      <leafValues>
        -1.1098770797252655e-01 4.2719238996505737e-01</leafValues></_>
    <_>
      <internalNodes>
        0 -1 113389 -2.4647783488035202e-02</internalNodes>
      <leafValues>
        5.5353510379791260e-01 -8.3808511495590210e-02</leafValues></_>
    <_>
      <internalNodes>
        0 -1 119659 6.1093457043170929e-03</internalNodes>
      <leafValues>
        -2.4330209195613861e-01 1.9020408391952515e-01</leafValues></_>
    <_>
      <internalNodes>
        0 -1 85423 1.2620155513286591e-01</internalNodes>
      <leafValues>
        -3.5667441785335541e-02 8.7072801589965820e-01</leafValues></_>
    <_>
      <internalNodes>
        0 -1 19264 1.7460338771343231e-02</internalNodes>
      <leafValues>
        5.4363112896680832e-02 -8.8374096155166626e-01</leafValues></_>
    <_>
      <internalNodes>
        0 -1 105824 -1.5881538391113281e-02</internalNodes>
      <leafValues>
        -5.5686163902282715e-01 5.7469073683023453e-02</leafValues></_>
    <_>
      <internalNodes>
        0 -1 135829 -6.0130264610052109e-03</internalNodes>
      <leafValues>
        3.5176333785057068e-01 -1.1954811960458755e-01</leafValues></_>
    <_>
      <internalNodes>
        0 -1 128120 4.6647051349282265e-03</internalNodes>
      <leafValues>
        5.5849440395832062e-02 -7.6579535007476807e-01</leafValues></_>
    <_>
      <internalNodes>
        0 -1 129269 1.6088624298572540e-01</internalNodes>
      <leafValues>
        3.3417791128158569e-02 -9.3534839153289795e-01</leafValues></_>
    <_>
      <internalNodes>
        0 -1 8139 -3.0391248874366283e-03</internalNodes>
      <leafValues>
        6.2283698469400406e-02 -5.3083330392837524e-01</leafValues></_>
    <_>
      <internalNodes>
        0 -1 19880 -3.7552440166473389e-01</internalNodes>
      <leafValues>
        -7.5241911411285400e-01 5.4654605686664581e-02</leafValues></_>
    <_>
      <internalNodes>
        0 -1 63478 -2.7685511112213135e-01</internalNodes>
      <leafValues>
        -9.6636794507503510e-02 4.7371837496757507e-01</leafValues></_>
    <_>
      <internalNodes>
        0 -1 61918 -6.0343936085700989e-02</internalNodes>
      <leafValues>
        1.8136669695377350e-01 -2.1220058202743530e-01</leafValues></_>
    <_>
      <internalNodes>
        0 -1 79394 -4.6118110418319702e-02</internalNodes>
      <leafValues>
        4.9838578701019287e-01 -7.0655710995197296e-02</leafValues></_>
    <_>
      <internalNodes>
        0 -1 58234 1.2394525110721588e-02</internalNodes>
      <leafValues>
        -8.6416646838188171e-02 4.3946257233619690e-01</leafValues></_>
    <_>
      <internalNodes>
        0 -1 82621 -1.2903979048132896e-02</internalNodes>
      <leafValues>
        -4.0221482515335083e-01 1.0290494561195374e-01</leafValues></_>
    <_>
      <internalNodes>
        0 -1 162148 -1.2342013418674469e-02</internalNodes>
      <leafValues>
        -5.9180796146392822e-01 5.6640446186065674e-02</leafValues></_>
    <_>
      <internalNodes>
        0 -1 5918 2.5477204471826553e-02</internalNodes>
      <leafValues>
        2.9833670705556870e-02 -9.4473624229431152e-01</leafValues></_>
    <_>
      <internalNodes>
        0 -1 137940 -1.0542459785938263e-02</internalNodes>
      <leafValues>
        -7.8108139336109161e-02 5.8154594898223877e-01</leafValues></_>
    <_>
      <internalNodes>
        0 -1 120850 -1.1839423328638077e-02</internalNodes>
      <leafValues>
        6.0565285384654999e-02 -7.9825943708419800e-01</leafValues></_>
    <_>
      <internalNodes>
        0 -1 103631 -3.6095411051064730e-03</internalNodes>
      <leafValues>
        2.5293359160423279e-01 -1.4448420703411102e-01</leafValues></_>
    <_>
      <internalNodes>
        0 -1 76332 -6.9268457591533661e-03</internalNodes>
      <leafValues>
        -9.4636254012584686e-02 3.9626678824424744e-01</leafValues></_>
    <_>
      <internalNodes>
        0 -1 109150 6.1269556172192097e-03</internalNodes>
      <leafValues>
        -1.0740477591753006e-01 3.5324245691299438e-01</leafValues></_>
    <_>
      <internalNodes>
        0 -1 60932 3.6383703351020813e-02</internalNodes>
      <leafValues>
        8.3473861217498779e-02 -5.0894778966903687e-01</leafValues></_>
    <_>
      <internalNodes>
        0 -1 118750 -3.4510940313339233e-02</internalNodes>
      <leafValues>
        -8.5587367415428162e-02 4.8018929362297058e-01</leafValues></_>
    <_>
      <internalNodes>
        0 -1 9602 1.5247682109475136e-02</internalNodes>
      <leafValues>
        8.4524735808372498e-02 -5.0625258684158325e-01</leafValues></_>
    <_>
      <internalNodes>
        0 -1 52095 7.5624762102961540e-03</internalNodes>
      <leafValues>
        -1.1610584706068039e-01 4.7319343686103821e-01</leafValues></_>
    <_>
      <internalNodes>
        0 -1 59907 -2.5763414800167084e-02</internalNodes>
      <leafValues>
        4.7712679952383041e-02 -8.4736979007720947e-01</leafValues></_>
    <_>
      <internalNodes>
        0 -1 60606 -1.8694449216127396e-02</internalNodes>
      <leafValues>
        -8.8518971204757690e-01 3.3971246331930161e-02</leafValues></_>
    <_>
      <internalNodes>
        0 -1 7410 -1.9590635783970356e-03</internalNodes>
      <leafValues>
        3.8845133036375046e-02 -7.5437068939208984e-01</leafValues></_>
    <_>
      <internalNodes>
        0 -1 106142 -1.3239741325378418e-02</internalNodes>
      <leafValues>
        -2.7674174308776855e-01 1.4364425837993622e-01</leafValues></_>
    <_>
      <internalNodes>
        0 -1 154998 1.0905473493039608e-02</internalNodes>
      <leafValues>
        -1.2587273120880127e-01 2.9639786481857300e-01</leafValues></_>
    <_>
      <internalNodes>
        0 -1 60447 5.2240318618714809e-03</internalNodes>
      <leafValues>
        5.9849958866834641e-02 -6.2830126285552979e-01</leafValues></_>
    <_>
      <internalNodes>
        0 -1 133932 -4.4290805235505104e-03</internalNodes>
      <leafValues>
        1.8891577422618866e-01 -2.0643603801727295e-01</leafValues></_>
    <_>
      <internalNodes>
        0 -1 14363 -5.6785553693771362e-01</internalNodes>
      <leafValues>
        -6.4966911077499390e-01 5.9567600488662720e-02</leafValues></_>
    <_>
      <internalNodes>
        0 -1 48070 4.3532509356737137e-02</internalNodes>
      <leafValues>
        7.3219373822212219e-02 -4.8044312000274658e-01</leafValues></_>
    <_>
      <internalNodes>
        0 -1 11217 5.6383139453828335e-03</internalNodes>
      <leafValues>
        -2.5469225645065308e-01 1.6194295883178711e-01</leafValues></_>
    <_>
      <internalNodes>
        0 -1 66582 -6.5547138452529907e-02</internalNodes>
      <leafValues>
        5.2075359970331192e-02 -7.3559337854385376e-01</leafValues></_>
    <_>
      <internalNodes>
        0 -1 147180 7.0388764142990112e-02</internalNodes>
      <leafValues>
        3.4561548382043839e-02 -7.8702485561370850e-01</leafValues></_>
    <_>
      <internalNodes>
        0 -1 105116 -7.8531932085752487e-03</internalNodes>
      <leafValues>
        -2.3397853970527649e-01 1.5458644926548004e-01</leafValues></_>
    <_>
      <internalNodes>
        0 -1 146917 6.1826976016163826e-03</internalNodes>
      <leafValues>
        -1.9985853135585785e-01 2.0232158899307251e-01</leafValues></_>
    <_>
      <internalNodes>
        0 -1 35794 1.2018665671348572e-01</internalNodes>
      <leafValues>
        5.9813708066940308e-02 -7.1784472465515137e-01</leafValues></_>
    <_>
      <internalNodes>
        0 -1 141471 5.3610295057296753e-02</internalNodes>
      <leafValues>
        -6.9495812058448792e-02 6.9496786594390869e-01</leafValues></_>
    <_>
      <internalNodes>
        0 -1 145706 7.1720862761139870e-03</internalNodes>
      <leafValues>
        -1.0077884048223495e-01 3.5933265089988708e-01</leafValues></_>
    <_>
      <internalNodes>
        0 -1 161139 -3.0168988741934299e-03</internalNodes>
      <leafValues>
        -5.3009092807769775e-01 7.2568245232105255e-02</leafValues></_>
    <_>
      <internalNodes>
        0 -1 2197 7.5492663308978081e-03</internalNodes>
      <leafValues>
        5.7341448962688446e-02 -6.1941480636596680e-01</leafValues></_></weakClassifiers></stage10>
</opencv_storage>
