<?xml version="1.0"?>
<opencv_storage>
<stage1>
  <maxWeakCount>14</maxWeakCount>
  <stageThreshold>-1.2002936601638794e+00</stageThreshold>
  <weakClassifiers>
    <_>
      <internalNodes>
        0 -1 97806 -3.2564759254455566e-02</internalNodes>
      <leafValues>
        -7.8175312280654907e-01 -2.0351807861828109e-17</leafValues></_>
    <_>
      <internalNodes>
        0 -1 1082 8.5208117961883545e-02</internalNodes>
      <leafValues>
        7.7855378389358521e-02 -8.7242281436920166e-01</leafValues></_>
    <_>
      <internalNodes>
        0 -1 22097 -1.2004500627517700e-01</internalNodes>
      <leafValues>
        -8.4418553113937378e-01 1.1941599100828171e-01</leafValues></_>
    <_>
      <internalNodes>
        0 -1 101785 2.9107600450515747e-02</internalNodes>
      <leafValues>
        -1.9029900431632996e-01 8.3564531803131104e-01</leafValues></_>
    <_>
      <internalNodes>
        0 -1 92618 -1.9417408853769302e-02</internalNodes>
      <leafValues>
        6.5725862979888916e-01 -1.9989253580570221e-01</leafValues></_>
    <_>
      <internalNodes>
        0 -1 2264 -3.1809747451916337e-04</internalNodes>
      <leafValues>
        3.0603432655334473e-01 -4.7919416427612305e-01</leafValues></_>
    <_>
      <internalNodes>
        0 -1 66844 -2.2928996011614799e-02</internalNodes>
      <leafValues>
        6.8572312593460083e-01 -1.9649145007133484e-01</leafValues></_>
    <_>
      <internalNodes>
        0 -1 103623 8.0381790176033974e-03</internalNodes>
      <leafValues>
        -1.1317857354879379e-01 7.9160428047180176e-01</leafValues></_>
    <_>
      <internalNodes>
        0 -1 124304 8.2578379660844803e-03</internalNodes>
      <leafValues>
        -1.6506038606166840e-01 6.1179590225219727e-01</leafValues></_>
    <_>
      <internalNodes>
        0 -1 134680 1.2876206077635288e-02</internalNodes>
      <leafValues>
        -1.5512132644653320e-01 7.7824318408966064e-01</leafValues></_>
    <_>
      <internalNodes>
        0 -1 118285 1.2067430652678013e-02</internalNodes>
      <leafValues>
        -1.0850917547941208e-01 8.1772363185882568e-01</leafValues></_>
    <_>
      <internalNodes>
        0 -1 132379 5.6167086586356163e-03</internalNodes>
      <leafValues>
        -3.5369184613227844e-01 3.4899377822875977e-01</leafValues></_>
    <_>
      <internalNodes>
        0 -1 50140 7.5027123093605042e-02</internalNodes>
      <leafValues>
        1.0768977552652359e-01 -8.7226051092147827e-01</leafValues></_>
    <_>
      <internalNodes>
        0 -1 100661 2.5648061186075211e-02</internalNodes>
      <leafValues>
        -1.9115869700908661e-01 6.0773092508316040e-01</leafValues></_></weakClassifiers></stage1>
</opencv_storage>
