<?xml version="1.0"?>
<opencv_storage>
<stage5>
  <maxWeakCount>35</maxWeakCount>
  <stageThreshold>-1.2844637632369995e+00</stageThreshold>
  <weakClassifiers>
    <_>
      <internalNodes>
        0 -1 86344 -5.4347999393939972e-02</internalNodes>
      <leafValues>
        9.1208791732788086e-01 -4.7027027606964111e-01</leafValues></_>
    <_>
      <internalNodes>
        0 -1 119990 3.5067953169345856e-02</internalNodes>
      <leafValues>
        -1.2540790438652039e-01 9.1877013444900513e-01</leafValues></_>
    <_>
      <internalNodes>
        0 -1 1785 5.5155935697257519e-03</internalNodes>
      <leafValues>
        1.4891871809959412e-01 -5.6006598472595215e-01</leafValues></_>
    <_>
      <internalNodes>
        0 -1 113206 -2.2781845182180405e-02</internalNodes>
      <leafValues>
        -3.4002125263214111e-01 2.0890876650810242e-01</leafValues></_>
    <_>
      <internalNodes>
        0 -1 119659 -3.3000193536281586e-02</internalNodes>
      <leafValues>
        8.3465796709060669e-01 -7.3477305471897125e-02</leafValues></_>
    <_>
      <internalNodes>
        0 -1 38480 -6.9156542420387268e-02</internalNodes>
      <leafValues>
        -9.7111117839813232e-01 8.0750778317451477e-02</leafValues></_>
    <_>
      <internalNodes>
        0 -1 126287 2.5326617062091827e-02</internalNodes>
      <leafValues>
        -3.3572497963905334e-01 1.7478683590888977e-01</leafValues></_>
    <_>
      <internalNodes>
        0 -1 116701 -8.0928437411785126e-02</internalNodes>
      <leafValues>
        -1.1059153079986572e-01 6.4576900005340576e-01</leafValues></_>
    <_>
      <internalNodes>
        0 -1 84861 -4.1412822902202606e-02</internalNodes>
      <leafValues>
        -8.9120104908943176e-02 8.1930220127105713e-01</leafValues></_>
    <_>
      <internalNodes>
        0 -1 92633 -1.6423246264457703e-01</internalNodes>
      <leafValues>
        4.4800299406051636e-01 -1.3319240510463715e-01</leafValues></_>
    <_>
      <internalNodes>
        0 -1 72419 -4.2686253786087036e-02</internalNodes>
      <leafValues>
        7.0693647861480713e-01 -8.2784868776798248e-02</leafValues></_>
    <_>
      <internalNodes>
        0 -1 55249 -5.1098430156707764e-01</internalNodes>
      <leafValues>
        -7.2594362497329712e-01 8.9403487741947174e-02</leafValues></_>
    <_>
      <internalNodes>
        0 -1 98642 -6.6637238487601280e-03</internalNodes>
      <leafValues>
        1.1965271085500717e-01 -5.0701987743377686e-01</leafValues></_>
    <_>
      <internalNodes>
        0 -1 556 9.5068976283073425e-02</internalNodes>
      <leafValues>
        8.4821559488773346e-02 -6.4099246263504028e-01</leafValues></_>
    <_>
      <internalNodes>
        0 -1 11467 1.4854016900062561e-01</internalNodes>
      <leafValues>
        5.6417148560285568e-02 -8.1089574098587036e-01</leafValues></_>
    <_>
      <internalNodes>
        0 -1 86384 -3.6646075546741486e-02</internalNodes>
      <leafValues>
        -1.5847584605216980e-01 3.5506570339202881e-01</leafValues></_>
    <_>
      <internalNodes>
        0 -1 119048 7.8991744667291641e-03</internalNodes>
      <leafValues>
        -2.2017917037010193e-01 2.4477040767669678e-01</leafValues></_>
    <_>
      <internalNodes>
        0 -1 136873 2.8039310127496719e-02</internalNodes>
      <leafValues>
        -1.0756267607212067e-01 6.3955354690551758e-01</leafValues></_>
    <_>
      <internalNodes>
        0 -1 102157 -4.4020712375640869e-02</internalNodes>
      <leafValues>
        7.6936982572078705e-02 -8.2395970821380615e-01</leafValues></_>
    <_>
      <internalNodes>
        0 -1 112542 -6.6877640783786774e-03</internalNodes>
      <leafValues>
        -9.9023714661598206e-02 6.9113302230834961e-01</leafValues></_>
    <_>
      <internalNodes>
        0 -1 65695 -5.0447713583707809e-02</internalNodes>
      <leafValues>
        -8.2544736564159393e-02 6.3181507587432861e-01</leafValues></_>
    <_>
      <internalNodes>
        0 -1 111832 1.2236380949616432e-02</internalNodes>
      <leafValues>
        -8.3501011133193970e-02 6.0059887170791626e-01</leafValues></_>
    <_>
      <internalNodes>
        0 -1 161401 -2.8509390540421009e-03</internalNodes>
      <leafValues>
        1.0124175250530243e-01 -5.7174873352050781e-01</leafValues></_>
    <_>
      <internalNodes>
        0 -1 136222 2.5968324393033981e-02</internalNodes>
      <leafValues>
        -8.4266476333141327e-02 7.0638126134872437e-01</leafValues></_>
    <_>
      <internalNodes>
        0 -1 157003 -1.0207213461399078e-02</internalNodes>
      <leafValues>
        -3.6676767468452454e-01 1.5518818795681000e-01</leafValues></_>
    <_>
      <internalNodes>
        0 -1 96180 -1.5645006671547890e-02</internalNodes>
      <leafValues>
        5.6891727447509766e-01 -1.0856533050537109e-01</leafValues></_>
    <_>
      <internalNodes>
        0 -1 117290 -7.3199316859245300e-02</internalNodes>
      <leafValues>
        -4.4237092137336731e-01 1.3793018460273743e-01</leafValues></_>
    <_>
      <internalNodes>
        0 -1 67765 9.1191921383142471e-03</internalNodes>
      <leafValues>
        -9.2293977737426758e-02 7.0597040653228760e-01</leafValues></_>
    <_>
      <internalNodes>
        0 -1 145190 -1.2145273387432098e-01</internalNodes>
      <leafValues>
        5.7274049520492554e-01 -7.9997390508651733e-02</leafValues></_>
    <_>
      <internalNodes>
        0 -1 109732 -5.4752651602029800e-02</internalNodes>
      <leafValues>
        -1.3994446396827698e-01 3.7753292918205261e-01</leafValues></_>
    <_>
      <internalNodes>
        0 -1 102221 7.5793629512190819e-03</internalNodes>
      <leafValues>
        -1.0683456808328629e-01 5.5220508575439453e-01</leafValues></_>
    <_>
      <internalNodes>
        0 -1 146037 3.7501242011785507e-02</internalNodes>
      <leafValues>
        -7.5350292026996613e-02 6.4848047494888306e-01</leafValues></_>
    <_>
      <internalNodes>
        0 -1 105227 -1.4106528833508492e-02</internalNodes>
      <leafValues>
        4.8857855796813965e-01 -9.8763108253479004e-02</leafValues></_>
    <_>
      <internalNodes>
        0 -1 37552 -4.8811286687850952e-03</internalNodes>
      <leafValues>
        -5.5658137798309326e-01 9.9927261471748352e-02</leafValues></_>
    <_>
      <internalNodes>
        0 -1 71359 2.7686363458633423e-01</internalNodes>
      <leafValues>
        5.6697890162467957e-02 -7.8673446178436279e-01</leafValues></_></weakClassifiers></stage5>
</opencv_storage>
