<?xml version="1.0"?>
<opencv_storage>
<stage0>
  <maxWeakCount>10</maxWeakCount>
  <stageThreshold>-1.6368006467819214e+00</stageThreshold>
  <weakClassifiers>
    <_>
      <internalNodes>
        0 -1 105532 -2.6698401197791100e-02</internalNodes>
      <leafValues>
        -9.2561739683151245e-01 -2.0790514349937439e-01</leafValues></_>
    <_>
      <internalNodes>
        0 -1 34875 -1.1867257952690125e-01</internalNodes>
      <leafValues>
        -9.5235931873321533e-01 4.7679632902145386e-02</leafValues></_>
    <_>
      <internalNodes>
        0 -1 79733 -3.0135195702314377e-02</internalNodes>
      <leafValues>
        -8.7011128664016724e-01 8.0096922814846039e-02</leafValues></_>
    <_>
      <internalNodes>
        0 -1 92618 -1.9408341497182846e-02</internalNodes>
      <leafValues>
        6.9256407022476196e-01 -2.8046229481697083e-01</leafValues></_>
    <_>
      <internalNodes>
        0 -1 104068 1.2476003728806973e-02</internalNodes>
      <leafValues>
        -2.0903687179088593e-01 8.3976143598556519e-01</leafValues></_>
    <_>
      <internalNodes>
        0 -1 91069 4.0372811257839203e-02</internalNodes>
      <leafValues>
        2.7415025234222412e-01 -8.2934498786926270e-01</leafValues></_>
    <_>
      <internalNodes>
        0 -1 1103 -4.8066908121109009e-01</internalNodes>
      <leafValues>
        -9.6068018674850464e-01 1.2685640156269073e-01</leafValues></_>
    <_>
      <internalNodes>
        0 -1 6037 -9.5082437619566917e-03</internalNodes>
      <leafValues>
        3.1294646859169006e-01 -4.4203031063079834e-01</leafValues></_>
    <_>
      <internalNodes>
        0 -1 47360 -3.3265773206949234e-02</internalNodes>
      <leafValues>
        -7.1664929389953613e-01 1.9753856956958771e-01</leafValues></_>
    <_>
      <internalNodes>
        0 -1 111500 -1.6318362206220627e-02</internalNodes>
      <leafValues>
        7.6395505666732788e-01 -2.2364887595176697e-01</leafValues></_></weakClassifiers></stage0>
</opencv_storage>
