<?xml version="1.0"?>
<opencv_storage>
<stage2>
  <maxWeakCount>6</maxWeakCount>
  <stageThreshold>-2.0093278884887695e+00</stageThreshold>
  <weakClassifiers>
    <_>
      <internalNodes>
        0 -1 136708 -6.5729722380638123e-02</internalNodes>
      <leafValues>
        5.4430377483367920e-01 -8.8206976652145386e-01</leafValues></_>
    <_>
      <internalNodes>
        0 -1 119010 -5.9655539691448212e-02</internalNodes>
      <leafValues>
        -6.7526715993881226e-01 5.7673019170761108e-01</leafValues></_>
    <_>
      <internalNodes>
        0 -1 20513 8.3464935421943665e-02</internalNodes>
      <leafValues>
        -3.7975308299064636e-01 7.9186218976974487e-01</leafValues></_>
    <_>
      <internalNodes>
        0 -1 103880 7.5847625732421875e-02</internalNodes>
      <leafValues>
        -2.8252583742141724e-01 7.4869185686111450e-01</leafValues></_>
    <_>
      <internalNodes>
        0 -1 61088 1.7978787422180176e-02</internalNodes>
      <leafValues>
        -4.5209991931915283e-01 5.4753410816192627e-01</leafValues></_>
    <_>
      <internalNodes>
        0 -1 67001 -5.6664191186428070e-02</internalNodes>
      <leafValues>
        5.0471007823944092e-01 -3.6882972717285156e-01</leafValues></_></weakClassifiers></stage2>
</opencv_storage>
