<?xml version="1.0"?>
<opencv_storage>
<stage4>
  <maxWeakCount>7</maxWeakCount>
  <stageThreshold>-1.4958460330963135e+00</stageThreshold>
  <weakClassifiers>
    <_>
      <internalNodes>
        0 -1 2558 2.3800328373908997e-01</internalNodes>
      <leafValues>
        -8.3448272943496704e-01 8.9999997615814209e-01</leafValues></_>
    <_>
      <internalNodes>
        0 -1 106594 2.1802955307066441e-03</internalNodes>
      <leafValues>
        -7.2793495655059814e-01 1.7148391902446747e-01</leafValues></_>
    <_>
      <internalNodes>
        0 -1 162331 -4.2483070865273476e-03</internalNodes>
      <leafValues>
        2.3570197820663452e-01 -9.2251360416412354e-01</leafValues></_>
    <_>
      <internalNodes>
        0 -1 132499 -7.3794513940811157e-02</internalNodes>
      <leafValues>
        7.2433441877365112e-01 -3.4572842717170715e-01</leafValues></_>
    <_>
      <internalNodes>
        0 -1 91000 -8.0557376146316528e-02</internalNodes>
      <leafValues>
        8.9625978469848633e-01 -2.0776836574077606e-01</leafValues></_>
    <_>
      <internalNodes>
        0 -1 92662 1.7014864832162857e-02</internalNodes>
      <leafValues>
        -2.4529992043972015e-01 6.9586676359176636e-01</leafValues></_>
    <_>
      <internalNodes>
        0 -1 134925 -3.4808941185474396e-02</internalNodes>
      <leafValues>
        6.2966632843017578e-01 -2.6372101902961731e-01</leafValues></_></weakClassifiers></stage4>
</opencv_storage>
