<?xml version="1.0"?>
<opencv_storage>
<stage6>
  <maxWeakCount>5</maxWeakCount>
  <stageThreshold>-6.9750539958477020e-02</stageThreshold>
  <weakClassifiers>
    <_>
      <internalNodes>
        0 -1 135706 -7.2668224573135376e-02</internalNodes>
      <leafValues>
        9.3846154212951660e-01 -2.2314049303531647e-01</leafValues></_>
    <_>
      <internalNodes>
        0 -1 117939 -5.8707199990749359e-02</internalNodes>
      <leafValues>
        -2.7051034569740295e-01 8.2231080532073975e-01</leafValues></_>
    <_>
      <internalNodes>
        0 -1 23868 5.5160664021968842e-02</internalNodes>
      <leafValues>
        -2.7049559354782104e-01 9.6258145570755005e-01</leafValues></_>
    <_>
      <internalNodes>
        0 -1 144388 1.1220207670703530e-03</internalNodes>
      <leafValues>
        3.4029784798622131e-01 -9.7598189115524292e-01</leafValues></_>
    <_>
      <internalNodes>
        0 -1 71316 3.3508711494505405e-03</internalNodes>
      <leafValues>
        3.5409805178642273e-01 -6.5321189165115356e-01</leafValues></_></weakClassifiers></stage6>
</opencv_storage>
