<?xml version="1.0"?>
<opencv_storage>
<stage9>
  <maxWeakCount>9</maxWeakCount>
  <stageThreshold>-1.3823701143264771e+00</stageThreshold>
  <weakClassifiers>
    <_>
      <internalNodes>
        0 -1 61160 3.2388901710510254e-01</internalNodes>
      <leafValues>
        -8.2440137863159180e-01 1.</leafValues></_>
    <_>
      <internalNodes>
        0 -1 111992 1.1762226000428200e-02</internalNodes>
      <leafValues>
        -5.1238059997558594e-01 4.7085899114608765e-01</leafValues></_>
    <_>
      <internalNodes>
        0 -1 7447 -2.8898203745484352e-03</internalNodes>
      <leafValues>
        -7.8175085783004761e-01 1.9965566694736481e-01</leafValues></_>
    <_>
      <internalNodes>
        0 -1 13741 2.0251072943210602e-02</internalNodes>
      <leafValues>
        -3.3340039849281311e-01 4.1620516777038574e-01</leafValues></_>
    <_>
      <internalNodes>
        0 -1 77239 -6.0233835130929947e-02</internalNodes>
      <leafValues>
        -2.1733005344867706e-01 6.9801265001296997e-01</leafValues></_>
    <_>
      <internalNodes>
        0 -1 25644 -1.7881732434034348e-02</internalNodes>
      <leafValues>
        1.7118130624294281e-01 -1.</leafValues></_>
    <_>
      <internalNodes>
        0 -1 158382 -6.0707274824380875e-03</internalNodes>
      <leafValues>
        -7.6572179794311523e-01 1.4832304418087006e-01</leafValues></_>
    <_>
      <internalNodes>
        0 -1 7486 1.2669747229665518e-03</internalNodes>
      <leafValues>
        -4.5625701546669006e-01 2.9578456282615662e-01</leafValues></_>
    <_>
      <internalNodes>
        0 -1 73158 1.1624233797192574e-02</internalNodes>
      <leafValues>
        -2.6226165890693665e-01 6.0667866468429565e-01</leafValues></_></weakClassifiers></stage9>
</opencv_storage>
