<?xml version="1.0"?>
<opencv_storage>
<stage1>
  <maxWeakCount>5</maxWeakCount>
  <stageThreshold>-1.5796320438385010e+00</stageThreshold>
  <weakClassifiers>
    <_>
      <internalNodes>
        0 -1 136708 -6.5111160278320313e-02</internalNodes>
      <leafValues>
        6.4864861965179443e-01 -8.8277512788772583e-01</leafValues></_>
    <_>
      <internalNodes>
        0 -1 87709 -6.7156754434108734e-02</internalNodes>
      <leafValues>
        -6.4883577823638916e-01 7.3424422740936279e-01</leafValues></_>
    <_>
      <internalNodes>
        0 -1 126280 3.1824383884668350e-02</internalNodes>
      <leafValues>
        -5.4926878213882446e-01 6.0435479879379272e-01</leafValues></_>
    <_>
      <internalNodes>
        0 -1 11031 -3.9120035944506526e-04</internalNodes>
      <leafValues>
        2.9287019371986389e-01 -8.7691015005111694e-01</leafValues></_>
    <_>
      <internalNodes>
        0 -1 162186 -3.2231230288743973e-03</internalNodes>
      <leafValues>
        -8.6461013555526733e-01 2.2453427314758301e-01</leafValues></_></weakClassifiers></stage1>
</opencv_storage>
