<?xml version="1.0"?>
<opencv_storage>
<stage4>
  <maxWeakCount>5</maxWeakCount>
  <stageThreshold>-1.5663743019104004e-01</stageThreshold>
  <weakClassifiers>
    <_>
      <internalNodes>
        0 -1 5430 -3.0799633264541626e-01</internalNodes>
      <leafValues>
        -1. 5.6028366088867188e-01</leafValues></_>
    <_>
      <internalNodes>
        0 -1 36591 -2.3736566305160522e-02</internalNodes>
      <leafValues>
        5.8809179067611694e-01 -6.9541072845458984e-01</leafValues></_>
    <_>
      <internalNodes>
        0 -1 63951 5.7424984872341156e-02</internalNodes>
      <leafValues>
        -4.3011170625686646e-01 8.5815721750259399e-01</leafValues></_>
    <_>
      <internalNodes>
        0 -1 27993 1.9729798659682274e-02</internalNodes>
      <leafValues>
        -3.8227963447570801e-01 8.6151218414306641e-01</leafValues></_>
    <_>
      <internalNodes>
        0 -1 112024 3.6643727216869593e-03</internalNodes>
      <leafValues>
        -4.5291090011596680e-01 8.4596329927444458e-01</leafValues></_></weakClassifiers></stage4>
</opencv_storage>
